{"learner":{"attributes":{},"feature_names":[],"feature_types":[],"gradient_booster":{"model":{"gbtree_model_param":{"num_parallel_tree":"1","num_trees":"1500"},"iteration_indptr":[0,2,4,6,8,10,12,14,16,18,20,22,24,26,28,30,32,34,36,38,40,42,44,46,48,50,52,54,56,58,60,62,64,66,68,70,72,74,76,78,80,82,84,86,88,90,92,94,96,98,100,102,104,106,108,110,112,114,116,118,120,122,124,126,128,130,132,134,136,138,140,142,144,146,148,150,152,154,156,158,160,162,164,166,168,170,172,174,176,178,180,182,184,186,188,190,192,194,196,198,200,202,204,206,208,210,212,214,216,218,220,222,224,226,228,230,232,234,236,238,240,242,244,246,248,250,252,254,256,258,260,262,264,266,268,270,272,274,276,278,280,282,284,286,288,290,292,294,296,298,300,302,304,306,308,310,312,314,316,318,320,322,324,326,328,330,332,334,336,338,340,342,344,346,348,350,352,354,356,358,360,362,364,366,368,370,372,374,376,378,380,382,384,386,388,390,392,394,396,398,400,402,404,406,408,410,412,414,416,418,420,422,424,426,428,430,432,434,436,438,440,442,444,446,448,450,452,454,456,458,460,462,464,466,468,470,472,474,476,478,480,482,484,486,488,490,492,494,496,498,500,502,504,506,508,510,512,514,516,518,520,522,524,526,528,530,532,534,536,538,540,542,544,546,548,550,552,554,556,558,560,562,564,566,568,570,572,574,576,578,580,582,584,586,588,590,592,594,596,598,600,602,604,606,608,610,612,614,616,618,620,622,624,626,628,630,632,634,636,638,640,642,644,646,648,650,652,654,656,658,660,662,664,666,668,670,672,674,676,678,680,682,684,686,688,690,692,694,696,698,700,702,704,706,708,710,712,714,716,718,720,722,724,726,728,730,732,734,736,738,740,742,744,746,748,750,752,754,756,758,760,762,764,766,768,770,772,774,776,778,780,782,784,786,788,790,792,794,796,798,800,802,804,806,808,810,812,814,816,818,820,822,824,826,828,830,832,834,836,838,840,842,844,846,848,850,852,854,856,858,860,862,864,866,868,870,872,874,876,878,880,882,884,886,888,890,892,894,896,898,900,902,904,906,908,910,912,914,916,918,920,922,924,926,928,930,932,934,936,938,940,942,944,946,948,950,952,954,956,958,960,962,964,966,968,970,972,974,976,978,980,982,984,986,988,990,992,994,996,998,1000,1002,1004,1006,1008,1010,1012,1014,1016,1018,1020,1022,1024,1026,1028,1030,1032,1034,1036,1038,1040,1042,1044,1046,1048,1050,1052,1054,1056,1058,1060,1062,1064,1066,1068,1070,1072,1074,1076,1078,1080,1082,1084,1086,1088,1090,1092,1094,1096,1098,1100,1102,1104,1106,1108,1110,1112,1114,1116,1118,1120,1122,1124,1126,1128,1130,1132,1134,1136,1138,1140,1142,1144,1146,1148,1150,1152,1154,1156,1158,1160,1162,1164,1166,1168,1170,1172,1174,1176,1178,1180,1182,1184,1186,1188,1190,1192,1194,1196,1198,1200,1202,1204,1206,1208,1210,1212,1214,1216,1218,1220,1222,1224,1226,1228,1230,1232,1234,1236,1238,1240,1242,1244,1246,1248,1250,1252,1254,1256,1258,1260,1262,1264,1266,1268,1270,1272,1274,1276,1278,1280,1282,1284,1286,1288,1290,1292,1294,1296,1298,1300,1302,1304,1306,1308,1310,1312,1314,1316,1318,1320,1322,1324,1326,1328,1330,1332,1334,1336,1338,1340,1342,1344,1346,1348,1350,1352,1354,1356,1358,1360,1362,1364,1366,1368,1370,1372,1374,1376,1378,1380,1382,1384,1386,1388,1390,1392,1394,1396,1398,1400,1402,1404,1406,1408,1410,1412,1414,1416,1418,1420,1422,1424,1426,1428,1430,1432,1434,1436,1438,1440,1442,1444,1446,1448,1450,1452,1454,1456,1458,1460,1462,1464,1466,1468,1470,1472,1474,1476,1478,1480,1482,1484,1486,1488,1490,1492,1494,1496,1498,1500],"tree_info":[0,1,0,1,0,1,0,1,0,1,0,1,0,1,0,1,0,1,0,1,0,1,0,1,0,1,0,1,0,1,0,1,0,1,0,1,0,1,0,1,0,1,0,1,0,1,0,1,0,1,0,1,0,1,0,1,0,1,0,1,0,1,0,1,0,1,0,1,0,1,0,1,0,1,0,1,0,1,0,1,0,1,0,1,0,1,0,1,0,1,0,1,0,1,0,1,0,1,0,1,0,1,0,1,0,1,0,1,0,1,0,1,0,1,0,1,0,1,0,1,0,1,0,1,0,1,0,1,0,1,0,1,0,1,0,1,0,1,0,1,0,1,0,1,0,1,0,1,0,1,0,1,0,1,0,1,0,1,0,1,0,1,0,1,0,1,0,1,0,1,0,1,0,1,0,1,0,1,0,1,0,1,0,1,0,1,0,1,0,1,0,1,0,1,0,1,0,1,0,1,0,1,0,1,0,1,0,1,0,1,0,1,0,1,0,1,0,1,0,1,0,1,0,1,0,1,0,1,0,1,0,1,0,1,0,1,0,1,0,1,0,1,0,1,0,1,0,1,0,1,0,1,0,1,0,1,0,1,0,1,0,1,0,1,0,1,0,1,0,1,0,1,0,1,0,1,0,1,0,1,0,1,0,1,0,1,0,1,0,1,0,1,0,1,0,1,0,1,0,1,0,1,0,1,0,1,0,1,0,1,0,1,0,1,0,1,0,1,0,1,0,1,0,1,0,1,0,1,0,1,0,1,0,1,0,1,0,1,0,1,0,1,0,1,0,1,0,1,0,1,0,1,0,1,0,1,0,1,0,1,0,1,0,1,0,1,0,1,0,1,0,1,0,1,0,1,0,1,0,1,0,1,0,1,0,1,0,1,0,1,0,1,0,1,0,1,0,1,0,1,0,1,0,1,0,1,0,1,0,1,0,1,0,1,0,1,0,1,0,1,0,1,0,1,0,1,0,1,0,1,0,1,0,1,0,1,0,1,0,1,0,1,0,1,0,1,0,1,0,1,0,1,0,1,0,1,0,1,0,1,0,1,0,1,0,1,0,1,0,1,0,1,0,1,0,1,0,1,0,1,0,1,0,1,0,1,0,1,0,1,0,1,0,1,0,1,0,1,0,1,0,1,0,1,0,1,0,1,0,1,0,1,0,1,0,1,0,1,0,1,0,1,0,1,0,1,0,1,0,1,0,1,0,1,0,1,0,1,0,1,0,1,0,1,0,1,0,1,0,1,0,1,0,1,0,1,0,1,0,1,0,1,0,1,0,1,0,1,0,1,0,1,0,1,0,1,0,1,0,1,0,1,0,1,0,1,0,1,0,1,0,1,0,1,0,1,0,1,0,1,0,1,0,1,0,1,0,1,0,1,0,1,0,1,0,1,0,1,0,1,0,1,0,1,0,1,0,1,0,1,0,1,0,1,0,1,0,1,0,1,0,1,0,1,0,1,0,1,0,1,0,1,0,1,0,1,0,1,0,1,0,1,0,1,0,1,0,1,0,1,0,1,0,1,0,1,0,1,0,1,0,1,0,1,0,1,0,1,0,1,0,1,0,1,0,1,0,1,0,1,0,1,0,1,0,1,0,1,0,1,0,1,0,1,0,1,0,1,0,1,0,1,0,1,0,1,0,1,0,1,0,1,0,1,0,1,0,1,0,1,0,1,0,1,0,1,0,1,0,1,0,1,0,1,0,1,0,1,0,1,0,1,0,1,0,1,0,1,0,1,0,1,0,1,0,1,0,1,0,1,0,1,0,1,0,1,0,1,0,1,0,1,0,1,0,1,0,1,0,1,0,1,0,1,0,1,0,1,0,1,0,1,0,1,0,1,0,1,0,1,0,1,0,1,0,1,0,1,0,1,0,1,0,1,0,1,0,1,0,1,0,1,0,1,0,1,0,1,0,1,0,1,0,1,0,1,0,1,0,1,0,1,0,1,0,1,0,1,0,1,0,1,0,1,0,1,0,1,0,1,0,1,0,1,0,1,0,1,0,1,0,1,0,1,0,1,0,1,0,1,0,1,0,1,0,1,0,1,0,1,0,1,0,1,0,1,0,1,0,1,0,1,0,1,0,1,0,1,0,1,0,1,0,1,0,1,0,1,0,1,0,1,0,1,0,1,0,1,0,1,0,1,0,1,0,1,0,1,0,1,0,1,0,1,0,1,0,1,0,1,0,1,0,1,0,1,0,1,0,1,0,1,0,1,0,1,0,1,0,1,0,1,0,1,0,1,0,1,0,1,0,1,0,1,0,1,0,1,0,1,0,1,0,1,0,1,0,1,0,1,0,1,0,1,0,1,0,1,0,1,0,1,0,1,0,1,0,1,0,1,0,1,0,1,0,1,0,1,0,1,0,1,0,1,0,1,0,1,0,1,0,1,0,1,0,1,0,1,0,1,0,1,0,1,0,1,0,1,0,1,0,1,0,1,0,1,0,1,0,1,0,1,0,1,0,1,0,1,0,1,0,1,0,1,0,1,0,1,0,1,0,1,0,1,0,1,0,1,0,1,0,1,0,1,0,1,0,1,0,1,0,1,0,1,0,1,0,1,0,1,0,1,0,1,0,1,0,1,0,1,0,1,0,1,0,1,0,1,0,1,0,1,0,1,0,1,0,1,0,1,0,1,0,1,0,1,0,1,0,1,0,1,0,1,0,1,0,1,0,1,0,1,0,1,0,1,0,1,0,1,0,1,0,1,0,1,0,1,0,1,0,1,0,1,0,1,0,1,0,1,0,1,0,1,0,1,0,1,0,1,0,1,0,1,0,1,0,1,0,1,0,1,0,1,0,1,0,1,0,1,0,1,0,1,0,1,0,1,0,1,0,1,0,1,0,1,0,1,0,1,0,1,0,1,0,1,0,1,0,1,0,1,0,1,0,1,0,1,0,1,0,1,0,1,0,1,0,1,0,1,0,1,0,1,0,1,0,1,0,1,0,1,0,1,0,1,0,1,0,1,0,1,0,1,0,1,0,1,0,1,0,1,0,1,0,1,0,1,0,1,0,1,0,1,0,1,0,1,0,1,0,1,0,1,0,1,0,1,0,1,0,1,0,1,0,1,0,1,0,1,0,1,0,1,0,1,0,1,0,1,0,1,0,1,0,1,0,1,0,1,0,1,0,1,0,1,0,1,0,1,0,1,0,1,0,1,0,1,0,1,0,1,0,1,0,1,0,1,0,1,0,1,0,1,0,1,0,1,0,1,0,1,0,1,0,1,0,1,0,1,0,1,0,1,0,1,0,1,0,1,0,1,0,1,0,1,0,1,0,1,0,1,0,1,0,1,0,1,0,1,0,1,0,1,0,1,0,1,0,1,0,1,0,1,0,1,0,1,0,1,0,1,0,1,0,1,0,1,0,1],"trees":[{"base_weights":[-1.5232733E-1,-3.6349002E-1,5.2648023E-2,-1.8984772E-1,-5.207119E-1,-2.1560976E-1,1.7895705E-1,-2.7317798E-3,-1.0638297E-4,-4.2871E-3,-6.7806505E-3,5.8011047E-4,-3.6445784E-3,5.7340384E-4,3.364979E-3],"categories":[],"categories_nodes":[],"categories_segments":[],"categories_sizes":[],"default_left":[0,0,0,0,0,0,0,0,0,0,0,0,0,0,0],"id":0,"left_children":[1,3,5,7,9,11,13,-1,-1,-1,-1,-1,-1,-1,-1],"loss_changes":[2.7294098E2,8.4696106E1,1.0848233E2,2.2061443E1,2.3299255E1,4.1767265E1,4.1681557E1,0E0,0E0,0E0,0E0,0E0,0E0,0E0,0E0],"parents":[2147483647,0,0,1,1,2,2,3,3,4,4,5,5,6,6],"right_children":[2,4,6,8,10,12,14,-1,-1,-1,-1,-1,-1,-1,-1],"split_conditions":[1.5E1,1.2E1,-1.9E0,6E0,2.3E1,-4.6E0,2.4E1,-2.7317798E-3,-1.0638297E-4,-4.2871E-3,-6.7806505E-3,5.8011047E-4,-3.6445784E-3,5.7340384E-4,3.364979E-3],"split_indices":[51,80,77,77,80,25,51,0,0,0,0,0,0,0,0],"split_type":[0,0,0,0,0,0,0,0,0,0,0,0,0,0,0],"sum_hessian":[6.3045E3,3.105E3,3.1995E3,1.4765E3,1.6285E3,1.024E3,2.1755E3,1.0075E3,4.69E2,1.03E3,5.985E2,3.61E2,6.63E2,1.2285E3,9.47E2],"tree_param":{"num_deleted":"0","num_feature":"106","num_nodes":"15","size_leaf_vector":"1"}},{"base_weights":[1.5232733E-1,3.6349002E-1,-5.2648023E-2,1.8984772E-1,5.207119E-1,2.1560976E-1,-1.7895705E-1,2.7317798E-3,1.0638297E-4,4.2871E-3,6.7806505E-3,-5.8011047E-4,3.6445784E-3,-5.7340384E-4,-3.364979E-3],"categories":[],"categories_nodes":[],"categories_segments":[],"categories_sizes":[],"default_left":[0,0,0,0,0,0,0,0,0,0,0,0,0,0,0],"id":1,"left_children":[1,3,5,7,9,11,13,-1,-1,-1,-1,-1,-1,-1,-1],"loss_changes":[2.7294098E2,8.4696106E1,1.0848233E2,2.2061443E1,2.3299255E1,4.1767265E1,4.1681557E1,0E0,0E0,0E0,0E0,0E0,0E0,0E0,0E0],"parents":[2147483647,0,0,1,1,2,2,3,3,4,4,5,5,6,6],"right_children":[2,4,6,8,10,12,14,-1,-1,-1,-1,-1,-1,-1,-1],"split_conditions":[1.5E1,1.2E1,-1.9E0,6E0,2.3E1,-4.6E0,2.4E1,2.7317798E-3,1.0638297E-4,4.2871E-3,6.7806505E-3,-5.8011047E-4,3.6445784E-3,-5.7340384E-4,-3.364979E-3],"split_indices":[51,80,77,77,80,25,51,0,0,0,0,0,0,0,0],"split_type":[0,0,0,0,0,0,0,0,0,0,0,0,0,0,0],"sum_hessian":[6.3045E3,3.105E3,3.1995E3,1.4765E3,1.6285E3,1.024E3,2.1755E3,1.0075E3,4.69E2,1.03E3,5.985E2,3.61E2,6.63E2,1.2285E3,9.47E2],"tree_param":{"num_deleted":"0","num_feature":"106","num_nodes":"15","size_leaf_vector":"1"}},{"base_weights":[-1.5080792E-1,-3.5986584E-1,5.212212E-2,-1.8795212E-1,-5.1552624E-1,-2.182435E-1,1.7499705E-1,-2.704509E-3,-1.05321604E-4,-4.244348E-3,-6.7132656E-3,5.724951E-4,-3.6885445E-3,5.48996E-4,3.310555E-3],"categories":[],"categories_nodes":[],"categories_segments":[],"categories_sizes":[],"default_left":[0,0,0,0,0,0,0,0,0,0,0,0,0,0,0],"id":2,"left_children":[1,3,5,7,9,11,13,-1,-1,-1,-1,-1,-1,-1,-1],"loss_changes":[2.67521E2,8.301871E1,1.0636183E2,2.1623096E1,2.2840393E1,4.1533756E1,4.123324E1,0E0,0E0,0E0,0E0,0E0,0E0,0E0,0E0],"parents":[2147483647,0,0,1,1,2,2,3,3,4,4,5,5,6,6],"right_children":[2,4,6,8,10,12,14,-1,-1,-1,-1,-1,-1,-1,-1],"split_conditions":[1.5E1,1.2E1,-2E0,6E0,2.3E1,-4.6E0,2.4E1,-2.704509E-3,-1.05321604E-4,-4.244348E-3,-6.7132656E-3,5.724951E-4,-3.6885445E-3,5.48996E-4,3.310555E-3],"split_indices":[51,80,77,77,80,25,51,0,0,0,0,0,0,0,0],"split_type":[0,0,0,0,0,0,0,0,0,0,0,0,0,0,0],"sum_hessian":[6.304426E3,3.104946E3,3.1994797E3,1.4764924E3,1.6284536E3,9.994913E2,2.1999885E3,1.0074925E3,4.6899997E2,1.0299811E3,5.9847253E2,3.5349988E2,6.459914E2,1.2439994E3,9.5598926E2],"tree_param":{"num_deleted":"0","num_feature":"106","num_nodes":"15","size_leaf_vector":"1"}},{"base_weights":[1.508079E-1,3.5986584E-1,-5.2122157E-2,1.8795207E-1,5.155263E-1,2.1824345E-1,-1.7499708E-1,2.704509E-3,1.0532071E-4,4.244348E-3,6.713266E-3,-5.724948E-4,3.6885433E-3,-5.489956E-4,-3.310556E-3],"categories":[],"categories_nodes":[],"categories_segments":[],"categories_sizes":[],"default_left":[0,0,0,0,0,0,0,0,0,0,0,0,0,0,0],"id":3,"left_children":[1,3,5,7,9,11,13,-1,-1,-1,-1,-1,-1,-1,-1],"loss_changes":[2.6752106E2,8.301871E1,1.0636182E2,2.162312E1,2.2840424E1,4.1533745E1,4.1233284E1,0E0,0E0,0E0,0E0,0E0,0E0,0E0,0E0],"parents":[2147483647,0,0,1,1,2,2,3,3,4,4,5,5,6,6],"right_children":[2,4,6,8,10,12,14,-1,-1,-1,-1,-1,-1,-1,-1],"split_conditions":[1.5E1,1.2E1,-2E0,6E0,2.3E1,-4.6E0,2.4E1,2.704509E-3,1.0532071E-4,4.244348E-3,6.713266E-3,-5.724948E-4,3.6885433E-3,-5.489956E-4,-3.310556E-3],"split_indices":[51,80,77,77,80,25,51,0,0,0,0,0,0,0,0],"split_type":[0,0,0,0,0,0,0,0,0,0,0,0,0,0,0],"sum_hessian":[6.304426E3,3.104946E3,3.1994797E3,1.4764926E3,1.6284536E3,9.994913E2,2.1999885E3,1.0074925E3,4.69E2,1.0299811E3,5.984725E2,3.5349985E2,6.459914E2,1.2439993E3,9.5598926E2],"tree_param":{"num_deleted":"0","num_feature":"106","num_nodes":"15","size_leaf_vector":"1"}},{"base_weights":[-1.4930715E-1,1.0566956E-1,-3.1250432E-1,-1.6052425E-1,2.1516798E-1,-1.4478715E-1,-4.8173633E-1,6.793019E-4,-3.2749693E-3,7.6008646E-4,3.2633485E-3,-2.8392014E-3,-8.4265215E-5,-3.9141076E-3,-6.1892513E-3],"categories":[],"categories_nodes":[],"categories_segments":[],"categories_sizes":[],"default_left":[0,0,0,0,0,0,0,0,0,0,0,0,0,0,0],"id":4,"left_children":[1,3,5,7,9,11,13,-1,-1,-1,-1,-1,-1,-1,-1],"loss_changes":[2.6240198E2,7.177973E1,1.090571E2,2.7409864E1,2.6961716E1,3.6660793E1,2.3466919E1,0E0,0E0,0E0,0E0,0E0,0E0,0E0,0E0],"parents":[2147483647,0,0,1,1,2,2,3,3,4,4,5,5,6,6],"right_children":[2,4,6,8,10,12,14,-1,-1,-1,-1,-1,-1,-1,-1],"split_conditions":[4.69E-1,-2.4E0,1.3E1,-4.8E0,2.4E1,9E0,2.3E1,6.793019E-4,-3.2749693E-3,7.6008646E-4,3.2633485E-3,-2.8392014E-3,-8.4265215E-5,-3.9141076E-3,-6.1892513E-3],"split_indices":[3,77,80,25,51,51,80,0,0,0,0,0,0,0,0],"split_type":[0,0,0,0,0,0,0,0,0,0,0,0,0,0,0],"sum_hessian":[6.304207E3,2.460427E3,3.84378E3,7.169748E2,1.7434521E3,1.9314625E3,1.9123176E3,3.029996E2,4.1397522E2,7.7499396E2,9.684582E2,9.5547723E2,9.759852E2,1.1554312E3,7.5688654E2],"tree_param":{"num_deleted":"0","num_feature":"106","num_nodes":"15","size_leaf_vector":"1"}},{"base_weights":[1.4930713E-1,-1.05669565E-1,3.125043E-1,1.6052419E-1,-2.1516797E-1,1.4478707E-1,4.817364E-1,-6.793028E-4,3.274969E-3,-7.600875E-4,-3.2633473E-3,2.8392004E-3,8.4264364E-5,3.914108E-3,6.1892513E-3],"categories":[],"categories_nodes":[],"categories_segments":[],"categories_sizes":[],"default_left":[0,0,0,0,0,0,0,0,0,0,0,0,0,0,0],"id":5,"left_children":[1,3,5,7,9,11,13,-1,-1,-1,-1,-1,-1,-1,-1],"loss_changes":[2.6240198E2,7.177971E1,1.0905716E2,2.7409874E1,2.696167E1,3.6660797E1,2.3466919E1,0E0,0E0,0E0,0E0,0E0,0E0,0E0,0E0],"parents":[2147483647,0,0,1,1,2,2,3,3,4,4,5,5,6,6],"right_children":[2,4,6,8,10,12,14,-1,-1,-1,-1,-1,-1,-1,-1],"split_conditions":[4.69E-1,-2.4E0,1.3E1,-4.8E0,2.4E1,9E0,2.3E1,-6.793028E-4,3.274969E-3,-7.600875E-4,-3.2633473E-3,2.8392004E-3,8.4264364E-5,3.914108E-3,6.1892513E-3],"split_indices":[3,77,80,25,51,51,80,0,0,0,0,0,0,0,0],"split_type":[0,0,0,0,0,0,0,0,0,0,0,0,0,0,0],"sum_hessian":[6.304207E3,2.460427E3,3.84378E3,7.169748E2,1.7434521E3,1.9314625E3,1.9123176E3,3.0299957E2,4.139752E2,7.7499396E2,9.684582E2,9.5547723E2,9.759852E2,1.155431E3,7.5688654E2],"tree_param":{"num_deleted":"0","num_feature":"106","num_nodes":"15","size_leaf_vector":"1"}},{"base_weights":[-1.4782362E-1,-3.531507E-1,5.1470257E-2,-1.8435866E-1,-5.0601095E-1,-2.1386145E-1,1.7205289E-1,-2.6602128E-3,-8.747602E-5,-4.166991E-3,-6.587981E-3,5.604011E-4,-3.614316E-3,5.462959E-4,3.2464792E-3],"categories":[],"categories_nodes":[],"categories_segments":[],"categories_sizes":[],"default_left":[0,0,0,0,0,0,0,0,0,0,0,0,0,0,0],"id":6,"left_children":[1,3,5,7,9,11,13,-1,-1,-1,-1,-1,-1,-1,-1],"loss_changes":[2.5801666E2,8.003516E1,1.0242908E2,2.1185482E1,2.1955963E1,3.9866238E1,3.9418518E1,0E0,0E0,0E0,0E0,0E0,0E0,0E0,0E0],"parents":[2147483647,0,0,1,1,2,2,3,3,4,4,5,5,6,6],"right_children":[2,4,6,8,10,12,14,-1,-1,-1,-1,-1,-1,-1,-1],"split_conditions":[1.5E1,1.2E1,-2E0,6E0,2.3E1,-4.6E0,2.4E1,-2.6602128E-3,-8.747602E-5,-4.166991E-3,-6.587981E-3,5.604011E-4,-3.614316E-3,5.462959E-4,3.2464792E-3],"split_indices":[51,80,77,77,80,25,51,0,0,0,0,0,0,0,0],"split_type":[0,0,0,0,0,0,0,0,0,0,0,0,0,0,0],"sum_hessian":[6.303882E3,3.104563E3,3.199319E3,1.4764435E3,1.6281194E3,9.994162E2,2.1999028E3,1.00744617E3,4.689974E2,1.0298485E3,5.98271E2,3.5349826E2,6.4591797E2,1.243995E3,9.559078E2],"tree_param":{"num_deleted":"0","num_feature":"106","num_nodes":"15","size_leaf_vector":"1"}},{"base_weights":[1.4782362E-1,3.531507E-1,-5.1470254E-2,1.8435864E-1,5.060109E-1,2.1386145E-1,-1.7205289E-1,2.6602128E-3,8.747602E-5,4.166991E-3,6.587981E-3,-5.6040037E-4,3.6143153E-3,-5.462967E-4,-3.246478E-3],"categories":[],"categories_nodes":[],"categories_segments":[],"categories_sizes":[],"default_left":[0,0,0,0,0,0,0,0,0,0,0,0,0,0,0],"id":7,"left_children":[1,3,5,7,9,11,13,-1,-1,-1,-1,-1,-1,-1,-1],"loss_changes":[2.580166E2,8.003519E1,1.0242907E2,2.118549E1,2.1955963E1,3.9866226E1,3.941845E1,0E0,0E0,0E0,0E0,0E0,0E0,0E0,0E0],"parents":[2147483647,0,0,1,1,2,2,3,3,4,4,5,5,6,6],"right_children":[2,4,6,8,10,12,14,-1,-1,-1,-1,-1,-1,-1,-1],"split_conditions":[1.5E1,1.2E1,-2E0,6E0,2.3E1,-4.6E0,2.4E1,2.6602128E-3,8.747602E-5,4.166991E-3,6.587981E-3,-5.6040037E-4,3.6143153E-3,-5.462967E-4,-3.246478E-3],"split_indices":[51,80,77,77,80,25,51,0,0,0,0,0,0,0,0],"split_type":[0,0,0,0,0,0,0,0,0,0,0,0,0,0,0],"sum_hessian":[6.303882E3,3.104563E3,3.199319E3,1.4764436E3,1.6281194E3,9.994162E2,2.1999028E3,1.00744617E3,4.689974E2,1.0298484E3,5.98271E2,3.534983E2,6.4591797E2,1.243995E3,9.559078E2],"tree_param":{"num_deleted":"0","num_feature":"106","num_nodes":"15","size_leaf_vector":"1"}},{"base_weights":[-1.4635868E-1,-3.496629E-1,5.0957933E-2,-1.8252258E-1,-5.0105065E-1,-2.0717272E-1,1.724905E-1,-2.633756E-3,-8.660326E-5,-4.1258503E-3,-6.52418E-3,5.5513415E-4,-3.5010162E-3,5.592785E-4,3.2350852E-3],"categories":[],"categories_nodes":[],"categories_segments":[],"categories_sizes":[],"default_left":[0,0,0,0,0,0,0,0,0,0,0,0,0,0,0],"id":8,"left_children":[1,3,5,7,9,11,13,-1,-1,-1,-1,-1,-1,-1,-1],"loss_changes":[2.5292078E2,7.84798E1,1.00429665E2,2.0765926E1,2.1542023E1,3.8498016E1,3.8292007E1,0E0,0E0,0E0,0E0,0E0,0E0,0E0,0E0],"parents":[2147483647,0,0,1,1,2,2,3,3,4,4,5,5,6,6],"right_children":[2,4,6,8,10,12,14,-1,-1,-1,-1,-1,-1,-1,-1],"split_conditions":[1.5E1,1.2E1,-1.9E0,6E0,2.3E1,-4.6E0,2.4E1,-2.633756E-3,-8.660326E-5,-4.1258503E-3,-6.52418E-3,5.5513415E-4,-3.5010162E-3,5.592785E-4,3.2350852E-3],"split_indices":[51,80,77,77,80,25,51,0,0,0,0,0,0,0,0],"split_type":[0,0,0,0,0,0,0,0,0,0,0,0,0,0,0],"sum_hessian":[6.3034014E3,3.1042156E3,3.1991858E3,1.4763978E3,1.6278179E3,1.02385376E3,2.175332E3,1.0074005E3,4.6899722E2,1.0297269E3,5.9809094E2,3.609967E2,6.6285706E2,1.228494E3,9.468379E2],"tree_param":{"num_deleted":"0","num_feature":"106","num_nodes":"15","size_leaf_vector":"1"}},{"base_weights":[1.4635868E-1,3.4966287E-1,-5.095791E-2,1.8252257E-1,5.0105065E-1,2.0717277E-1,-1.7249049E-1,2.633756E-3,8.660294E-5,4.1258503E-3,6.52418E-3,-5.5513403E-4,3.5010164E-3,-5.592786E-4,-3.235085E-3],"categories":[],"categories_nodes":[],"categories_segments":[],"categories_sizes":[],"default_left":[0,0,0,0,0,0,0,0,0,0,0,0,0,0,0],"id":9,"left_children":[1,3,5,7,9,11,13,-1,-1,-1,-1,-1,-1,-1,-1],"loss_changes":[2.5292072E2,7.84798E1,1.0042969E2,2.076593E1,2.1541992E1,3.849802E1,3.8292E1,0E0,0E0,0E0,0E0,0E0,0E0,0E0,0E0],"parents":[2147483647,0,0,1,1,2,2,3,3,4,4,5,5,6,6],"right_children":[2,4,6,8,10,12,14,-1,-1,-1,-1,-1,-1,-1,-1],"split_conditions":[1.5E1,1.2E1,-1.9E0,6E0,2.3E1,-4.6E0,2.4E1,2.633756E-3,8.660294E-5,4.1258503E-3,6.52418E-3,-5.5513403E-4,3.5010164E-3,-5.592786E-4,-3.235085E-3],"split_indices":[51,80,77,77,80,25,51,0,0,0,0,0,0,0,0],"split_type":[0,0,0,0,0,0,0,0,0,0,0,0,0,0,0],"sum_hessian":[6.3034014E3,3.1042156E3,3.1991855E3,1.4763978E3,1.6278177E3,1.02385376E3,2.1753318E3,1.0074005E3,4.6899725E2,1.0297268E3,5.9809094E2,3.609967E2,6.6285706E2,1.228494E3,9.468378E2],"tree_param":{"num_deleted":"0","num_feature":"106","num_nodes":"15","size_leaf_vector":"1"}},{"base_weights":[-1.4491135E-1,1.0328165E-1,-3.0378875E-1,-1.5523374E-1,2.0961756E-1,-4.1706038E-1,-6.5864086E-2,6.6141767E-4,-3.1707736E-3,7.521567E-4,3.1700279E-3,-3.4112094E-3,-6.017667E-3,8.597543E-4,-2.0813409E-3],"categories":[],"categories_nodes":[],"categories_segments":[],"categories_sizes":[],"default_left":[0,0,0,0,0,0,0,0,0,0,0,0,0,0,0],"id":10,"left_children":[1,3,5,7,9,11,13,-1,-1,-1,-1,-1,-1,-1,-1],"loss_changes":[2.4860394E2,6.768635E1,1.0356085E2,2.5740496E1,2.5150177E1,3.6317017E1,2.6824108E1,0E0,0E0,0E0,0E0,0E0,0E0,0E0,0E0],"parents":[2147483647,0,0,1,1,2,2,3,3,4,4,5,5,6,6],"right_children":[2,4,6,8,10,12,14,-1,-1,-1,-1,-1,-1,-1,-1],"split_conditions":[4.69E-1,-2.4E0,2.9E0,-4.8E0,2.4E1,2.3E1,3.1E0,6.6141767E-4,-3.1707736E-3,7.521567E-4,3.1700279E-3,-3.4112094E-3,-6.017667E-3,8.597543E-4,-2.0813409E-3],"split_indices":[3,77,77,25,51,80,25,0,0,0,0,0,0,0,0],"split_type":[0,0,0,0,0,0,0,0,0,0,0,0,0,0,0],"sum_hessian":[6.302788E3,2.460081E3,3.8427073E3,7.168566E2,1.7432245E3,2.6028057E3,1.2399016E3,3.0299738E2,4.1385928E2,7.749759E2,9.682486E2,1.8464929E3,7.563127E2,5.9997076E2,6.399309E2],"tree_param":{"num_deleted":"0","num_feature":"106","num_nodes":"15","size_leaf_vector":"1"}},{"base_weights":[1.4491136E-1,-1.0328166E-1,3.0378875E-1,1.5523374E-1,-2.0961758E-1,4.1706038E-1,6.586412E-2,-6.6141767E-4,3.1707739E-3,-7.5215776E-4,-3.1700276E-3,3.4112101E-3,6.0176663E-3,-8.597539E-4,2.0813413E-3],"categories":[],"categories_nodes":[],"categories_segments":[],"categories_sizes":[],"default_left":[0,0,0,0,0,0,0,0,0,0,0,0,0,0,0],"id":11,"left_children":[1,3,5,7,9,11,13,-1,-1,-1,-1,-1,-1,-1,-1],"loss_changes":[2.4860397E2,6.768636E1,1.0356091E2,2.5740494E1,2.5150139E1,3.6316956E1,2.682411E1,0E0,0E0,0E0,0E0,0E0,0E0,0E0,0E0],"parents":[2147483647,0,0,1,1,2,2,3,3,4,4,5,5,6,6],"right_children":[2,4,6,8,10,12,14,-1,-1,-1,-1,-1,-1,-1,-1],"split_conditions":[4.69E-1,-2.4E0,2.9E0,-4.8E0,2.4E1,2.3E1,3.1E0,-6.6141767E-4,3.1707739E-3,-7.5215776E-4,-3.1700276E-3,3.4112101E-3,6.0176663E-3,-8.597539E-4,2.0813413E-3],"split_indices":[3,77,77,25,51,80,25,0,0,0,0,0,0,0,0],"split_type":[0,0,0,0,0,0,0,0,0,0,0,0,0,0,0],"sum_hessian":[6.302788E3,2.460081E3,3.8427073E3,7.168566E2,1.7432244E3,2.6028057E3,1.2399016E3,3.0299738E2,4.1385928E2,7.749759E2,9.6824854E2,1.8464929E3,7.563127E2,5.9997076E2,6.399309E2],"tree_param":{"num_deleted":"0","num_feature":"106","num_nodes":"15","size_leaf_vector":"1"}},{"base_weights":[-1.4347945E-1,-3.4325212E-1,5.0376266E-2,-1.7898372E-1,-4.9209785E-1,-2.0755482E-1,1.6758212E-1,-2.5870379E-3,-7.5784475E-5,-4.053837E-3,-6.4054206E-3,5.432898E-4,-3.5079138E-3,5.396462E-4,3.1526955E-3],"categories":[],"categories_nodes":[],"categories_segments":[],"categories_sizes":[],"default_left":[0,0,0,0,0,0,0,0,0,0,0,0,0,0,0],"id":12,"left_children":[1,3,5,7,9,11,13,-1,-1,-1,-1,-1,-1,-1,-1],"loss_changes":[2.4411809E2,7.581427E1,9.676799E1,2.018414E1,2.0696716E1,3.753696E1,3.690918E1,0E0,0E0,0E0,0E0,0E0,0E0,0E0,0E0],"parents":[2147483647,0,0,1,1,2,2,3,3,4,4,5,5,6,6],"right_children":[2,4,6,8,10,12,14,-1,-1,-1,-1,-1,-1,-1,-1],"split_conditions":[1.5E1,1.2E1,-2E0,6E0,2.3E1,-4.6E0,2.4E1,-2.5870379E-3,-7.5784475E-5,-4.053837E-3,-6.4054206E-3,5.432898E-4,-3.5079138E-3,5.396462E-4,3.1526955E-3],"split_indices":[51,80,77,77,80,25,51,0,0,0,0,0,0,0,0],"split_type":[0,0,0,0,0,0,0,0,0,0,0,0,0,0,0],"sum_hessian":[6.302105E3,3.103307E3,3.198798E3,1.4762725E3,1.6270343E3,9.991752E2,2.199623E3,1.0072802E3,4.6899228E2,1.0294242E3,5.976101E2,3.5349326E2,6.456819E2,1.2439808E3,9.556421E2],"tree_param":{"num_deleted":"0","num_feature":"106","num_nodes":"15","size_leaf_vector":"1"}},{"base_weights":[1.4347944E-1,3.432521E-1,-5.0376255E-2,1.7898373E-1,4.920978E-1,2.0755479E-1,-1.675821E-1,2.5870379E-3,7.5784774E-5,4.053836E-3,6.40542E-3,-5.432901E-4,3.5079136E-3,-5.3964567E-4,-3.1526955E-3],"categories":[],"categories_nodes":[],"categories_segments":[],"categories_sizes":[],"default_left":[0,0,0,0,0,0,0,0,0,0,0,0,0,0,0],"id":13,"left_children":[1,3,5,7,9,11,13,-1,-1,-1,-1,-1,-1,-1,-1],"loss_changes":[2.4411806E2,7.581421E1,9.676796E1,2.0184135E1,2.0696747E1,3.7536964E1,3.6909195E1,0E0,0E0,0E0,0E0,0E0,0E0,0E0,0E0],"parents":[2147483647,0,0,1,1,2,2,3,3,4,4,5,5,6,6],"right_children":[2,4,6,8,10,12,14,-1,-1,-1,-1,-1,-1,-1,-1],"split_conditions":[1.5E1,1.2E1,-2E0,6E0,2.3E1,-4.6E0,2.4E1,2.5870379E-3,7.5784774E-5,4.053836E-3,6.40542E-3,-5.432901E-4,3.5079136E-3,-5.3964567E-4,-3.1526955E-3],"split_indices":[51,80,77,77,80,25,51,0,0,0,0,0,0,0,0],"split_type":[0,0,0,0,0,0,0,0,0,0,0,0,0,0,0],"sum_hessian":[6.302105E3,3.103307E3,3.198798E3,1.4762725E3,1.6270343E3,9.991752E2,2.199623E3,1.0072802E3,4.6899228E2,1.0294242E3,5.976101E2,3.534933E2,6.456819E2,1.2439808E3,9.556421E2],"tree_param":{"num_deleted":"0","num_feature":"106","num_nodes":"15","size_leaf_vector":"1"}},{"base_weights":[-1.4206609E-1,1.01607434E-1,-2.9807425E-1,-1.5188028E-1,2.0587154E-1,-4.0947282E-1,-6.416957E-2,6.4941536E-4,-3.1044078E-3,7.4434397E-4,3.109102E-3,-3.3502018E-3,-5.906691E-3,8.5696287E-4,-2.0460165E-3],"categories":[],"categories_nodes":[],"categories_segments":[],"categories_sizes":[],"default_left":[0,0,0,0,0,0,0,0,0,0,0,0,0,0,0],"id":14,"left_children":[1,3,5,7,9,11,13,-1,-1,-1,-1,-1,-1,-1,-1],"loss_changes":[2.3961081E2,6.506703E1,1.0009744E2,2.469532E1,2.4054207E1,3.4914124E1,2.6132044E1,0E0,0E0,0E0,0E0,0E0,0E0,0E0,0E0],"parents":[2147483647,0,0,1,1,2,2,3,3,4,4,5,5,6,6],"right_children":[2,4,6,8,10,12,14,-1,-1,-1,-1,-1,-1,-1,-1],"split_conditions":[4.69E-1,-2.4E0,2.9E0,-4.8E0,2.4E1,2.3E1,3.1E0,6.4941536E-4,-3.1044078E-3,7.4434397E-4,3.109102E-3,-3.3502018E-3,-5.906691E-3,8.5696287E-4,-2.0460165E-3],"split_indices":[3,77,77,25,51,80,25,0,0,0,0,0,0,0,0],"split_type":[0,0,0,0,0,0,0,0,0,0,0,0,0,0,0],"sum_hessian":[6.301253E3,2.4597107E3,3.841542E3,7.1673126E2,1.7429794E3,2.6017107E3,1.2398314E3,3.0299478E2,4.1373645E2,7.749618E2,9.6801764E2,1.8460337E3,7.556769E2,5.99959E2,6.3987244E2],"tree_param":{"num_deleted":"0","num_feature":"106","num_nodes":"15","size_leaf_vector":"1"}},{"base_weights":[1.4206608E-1,-1.01607464E-1,2.9807425E-1,1.5188028E-1,-2.0587158E-1,4.0947282E-1,6.416956E-2,-6.4941536E-4,3.1044078E-3,-7.4434414E-4,-3.1091028E-3,3.3502018E-3,5.906691E-3,-8.56963E-4,2.0460165E-3],"categories":[],"categories_nodes":[],"categories_segments":[],"categories_sizes":[],"default_left":[0,0,0,0,0,0,0,0,0,0,0,0,0,0,0],"id":15,"left_children":[1,3,5,7,9,11,13,-1,-1,-1,-1,-1,-1,-1,-1],"loss_changes":[2.3961087E2,6.506706E1,1.0009744E2,2.4695318E1,2.4054214E1,3.4914124E1,2.6132046E1,0E0,0E0,0E0,0E0,0E0,0E0,0E0,0E0],"parents":[2147483647,0,0,1,1,2,2,3,3,4,4,5,5,6,6],"right_children":[2,4,6,8,10,12,14,-1,-1,-1,-1,-1,-1,-1,-1],"split_conditions":[4.69E-1,-2.4E0,2.9E0,-4.8E0,2.4E1,2.3E1,3.1E0,-6.4941536E-4,3.1044078E-3,-7.4434414E-4,-3.1091028E-3,3.3502018E-3,5.906691E-3,-8.56963E-4,2.0460165E-3],"split_indices":[3,77,77,25,51,80,25,0,0,0,0,0,0,0,0],"split_type":[0,0,0,0,0,0,0,0,0,0,0,0,0,0,0],"sum_hessian":[6.301253E3,2.4597107E3,3.841542E3,7.1673126E2,1.7429794E3,2.6017107E3,1.2398314E3,3.0299478E2,4.1373645E2,7.7496185E2,9.680176E2,1.8460337E3,7.556769E2,5.99959E2,6.3987244E2],"tree_param":{"num_deleted":"0","num_feature":"106","num_nodes":"15","size_leaf_vector":"1"}},{"base_weights":[-1.4066747E-1,-3.3699542E-1,4.9801737E-2,-1.7551914E-1,-4.8338914E-1,-1.9901499E-1,1.6692552E-1,-2.5412883E-3,-6.528403E-5,-3.9835023E-3,-6.2906495E-3,5.310065E-4,-3.3627462E-3,5.556069E-4,3.1127306E-3],"categories":[],"categories_nodes":[],"categories_segments":[],"categories_sizes":[],"default_left":[0,0,0,0,0,0,0,0,0,0,0,0,0,0,0],"id":16,"left_children":[1,3,5,7,9,11,13,-1,-1,-1,-1,-1,-1,-1,-1],"loss_changes":[2.356517E2,7.3269165E1,9.326728E1,1.9620567E1,1.9904602E1,3.5468212E1,3.49599E1,0E0,0E0,0E0,0E0,0E0,0E0,0E0,0E0],"parents":[2147483647,0,0,1,1,2,2,3,3,4,4,5,5,6,6],"right_children":[2,4,6,8,10,12,14,-1,-1,-1,-1,-1,-1,-1,-1],"split_conditions":[1.5E1,1.2E1,-1.9E0,6E0,2.3E1,-4.6E0,2.4E1,-2.5412883E-3,-6.528403E-5,-3.9835023E-3,-6.2906495E-3,5.310065E-4,-3.3627462E-3,5.556069E-4,3.1127306E-3],"split_indices":[51,80,77,77,80,25,51,0,0,0,0,0,0,0,0],"split_type":[0,0,0,0,0,0,0,0,0,0,0,0,0,0,0],"sum_hessian":[6.3003384E3,3.1020754E3,3.198263E3,1.4760979E3,1.6259774E3,1.0234198E3,2.174843E3,1.00711346E3,4.6898453E2,1.0290181E3,5.969593E2,3.609844E2,6.624354E2,1.2284629E3,9.463802E2],"tree_param":{"num_deleted":"0","num_feature":"106","num_nodes":"15","size_leaf_vector":"1"}},{"base_weights":[1.4066751E-1,3.3699548E-1,-4.9801715E-2,1.7551915E-1,4.8338926E-1,1.9901505E-1,-1.6692552E-1,2.5412887E-3,6.528425E-5,3.983503E-3,6.290651E-3,-5.310062E-4,3.3627471E-3,-5.556071E-4,-3.1127303E-3],"categories":[],"categories_nodes":[],"categories_segments":[],"categories_sizes":[],"default_left":[0,0,0,0,0,0,0,0,0,0,0,0,0,0,0],"id":17,"left_children":[1,3,5,7,9,11,13,-1,-1,-1,-1,-1,-1,-1,-1],"loss_changes":[2.3565176E2,7.3269135E1,9.326732E1,1.9620567E1,1.9904633E1,3.5468227E1,3.4959885E1,0E0,0E0,0E0,0E0,0E0,0E0,0E0,0E0],"parents":[2147483647,0,0,1,1,2,2,3,3,4,4,5,5,6,6],"right_children":[2,4,6,8,10,12,14,-1,-1,-1,-1,-1,-1,-1,-1],"split_conditions":[1.5E1,1.2E1,-1.9E0,6E0,2.3E1,-4.6E0,2.4E1,2.5412887E-3,6.528425E-5,3.983503E-3,6.290651E-3,-5.310062E-4,3.3627471E-3,-5.556071E-4,-3.1127303E-3],"split_indices":[51,80,77,77,80,25,51,0,0,0,0,0,0,0,0],"split_type":[0,0,0,0,0,0,0,0,0,0,0,0,0,0,0],"sum_hessian":[6.3003384E3,3.1020752E3,3.198263E3,1.476098E3,1.6259773E3,1.02341974E3,2.174843E3,1.00711346E3,4.6898453E2,1.0290181E3,5.969592E2,3.6098438E2,6.6243536E2,1.228463E3,9.463801E2],"tree_param":{"num_deleted":"0","num_feature":"106","num_nodes":"15","size_leaf_vector":"1"}},{"base_weights":[-1.3928682E-1,-2.6419085E-1,1.545356E-1,-1.1507627E-1,-4.3442446E-1,-9.866082E-2,2.5723687E-1,-2.8176005E-3,1.0651681E-4,-3.4554447E-3,-5.5790744E-3,5.577002E-4,-2.8444135E-3,4.070323E-3,1.7249478E-3],"categories":[],"categories_nodes":[],"categories_segments":[],"categories_sizes":[],"default_left":[0,0,0,0,0,0,0,0,0,0,0,0,0,0,0],"id":18,"left_children":[1,3,5,7,9,11,13,-1,-1,-1,-1,-1,-1,-1,-1],"loss_changes":[2.3125792E2,1.1218158E2,4.891129E1,4.942338E1,2.2460968E1,1.5601103E1,1.6911072E1,0E0,0E0,0E0,0E0,0E0,0E0,0E0,0E0],"parents":[2147483647,0,0,1,1,2,2,3,3,4,4,5,5,6,6],"right_children":[2,4,6,8,10,12,14,-1,-1,-1,-1,-1,-1,-1,-1],"split_conditions":[2E1,1.4E1,-2.4E0,9E0,2.3E1,-4.3E0,-6.4E0,-2.8176005E-3,1.0651681E-4,-3.4554447E-3,-5.5790744E-3,5.577002E-4,-2.8444135E-3,4.070323E-3,1.7249478E-3],"split_indices":[28,80,77,51,80,25,25,0,0,0,0,0,0,0,0],"split_type":[0,0,0,0,0,0,0,0,0,0,0,0,0,0,0],"sum_hessian":[6.299262E3,4.4202944E3,1.8789679E3,2.3572014E3,2.0630928E3,5.422244E2,1.3367435E3,1.0129897E3,1.3442117E3,1.2018383E3,8.6125464E2,2.964767E2,2.457477E2,4.8161224E2,8.551313E2],"tree_param":{"num_deleted":"0","num_feature":"106","num_nodes":"15","size_leaf_vector":"1"}},{"base_weights":[1.3928682E-1,2.6419082E-1,-1.5453562E-1,1.1507625E-1,4.3442446E-1,9.866082E-2,-2.5723687E-1,2.8176005E-3,-1.065172E-4,3.4554447E-3,5.5790744E-3,-5.577002E-4,2.8444135E-3,-4.0703225E-3,-1.7249481E-3],"categories":[],"categories_nodes":[],"categories_segments":[],"categories_sizes":[],"default_left":[0,0,0,0,0,0,0,0,0,0,0,0,0,0,0],"id":19,"left_children":[1,3,5,7,9,11,13,-1,-1,-1,-1,-1,-1,-1,-1],"loss_changes":[2.3125793E2,1.1218155E2,4.89113E1,4.9423393E1,2.2460968E1,1.5601103E1,1.6911064E1,0E0,0E0,0E0,0E0,0E0,0E0,0E0,0E0],"parents":[2147483647,0,0,1,1,2,2,3,3,4,4,5,5,6,6],"right_children":[2,4,6,8,10,12,14,-1,-1,-1,-1,-1,-1,-1,-1],"split_conditions":[2E1,1.4E1,-2.4E0,9E0,2.3E1,-4.3E0,-6.4E0,2.8176005E-3,-1.065172E-4,3.4554447E-3,5.5790744E-3,-5.577002E-4,2.8444135E-3,-4.0703225E-3,-1.7249481E-3],"split_indices":[28,80,77,51,80,25,25,0,0,0,0,0,0,0,0],"split_type":[0,0,0,0,0,0,0,0,0,0,0,0,0,0,0],"sum_hessian":[6.299262E3,4.4202944E3,1.8789679E3,2.3572014E3,2.0630928E3,5.422244E2,1.3367434E3,1.0129897E3,1.3442117E3,1.2018383E3,8.6125464E2,2.964767E2,2.457477E2,4.816122E2,8.551313E2],"tree_param":{"num_deleted":"0","num_feature":"106","num_nodes":"15","size_leaf_vector":"1"}},{"base_weights":[-1.3791917E-1,-3.309239E-1,4.9273144E-2,-1.7214498E-1,-4.7496775E-1,-1.992528E-1,1.6217363E-1,-2.499787E-3,-4.852547E-5,-3.914805E-3,-6.181057E-3,4.0427575E-4,-3.441126E-3,5.341552E-4,3.0362334E-3],"categories":[],"categories_nodes":[],"categories_segments":[],"categories_sizes":[],"default_left":[0,0,0,0,0,0,0,0,0,0,0,0,0,0,0],"id":20,"left_children":[1,3,5,7,9,11,13,-1,-1,-1,-1,-1,-1,-1,-1],"loss_changes":[2.2759946E2,7.0854645E1,8.978121E1,1.9229416E1,1.918518E1,3.4720577E1,3.3828117E1,0E0,0E0,0E0,0E0,0E0,0E0,0E0,0E0],"parents":[2147483647,0,0,1,1,2,2,3,3,4,4,5,5,6,6],"right_children":[2,4,6,8,10,12,14,-1,-1,-1,-1,-1,-1,-1,-1],"split_conditions":[1.5E1,1.2E1,-2E0,6E0,2.3E1,-4.3E0,2.4E1,-2.499787E-3,-4.852547E-5,-3.914805E-3,-6.181057E-3,4.0427575E-4,-3.441126E-3,5.341552E-4,3.0362334E-3],"split_indices":[51,80,77,77,80,25,51,0,0,0,0,0,0,0,0],"split_type":[0,0,0,0,0,0,0,0,0,0,0,0,0,0,0],"sum_hessian":[6.298182E3,3.1005703E3,3.197612E3,1.475894E3,1.6246763E3,9.986143E2,2.1989978E3,1.00692316E3,4.6897083E2,1.0285153E3,5.96161E2,3.764587E2,6.221556E2,1.2439358E3,9.5506195E2],"tree_param":{"num_deleted":"0","num_feature":"106","num_nodes":"15","size_leaf_vector":"1"}},{"base_weights":[1.3791917E-1,3.309239E-1,-4.927314E-2,1.7214496E-1,4.7496778E-1,1.9925281E-1,-1.6217363E-1,2.499787E-3,4.8525562E-5,3.914805E-3,6.181058E-3,-4.0427575E-4,3.4411263E-3,-5.3415523E-4,-3.0362331E-3],"categories":[],"categories_nodes":[],"categories_segments":[],"categories_sizes":[],"default_left":[0,0,0,0,0,0,0,0,0,0,0,0,0,0,0],"id":21,"left_children":[1,3,5,7,9,11,13,-1,-1,-1,-1,-1,-1,-1,-1],"loss_changes":[2.2759944E2,7.0854675E1,8.978121E1,1.9229408E1,1.9185211E1,3.4720573E1,3.3828106E1,0E0,0E0,0E0,0E0,0E0,0E0,0E0,0E0],"parents":[2147483647,0,0,1,1,2,2,3,3,4,4,5,5,6,6],"right_children":[2,4,6,8,10,12,14,-1,-1,-1,-1,-1,-1,-1,-1],"split_conditions":[1.5E1,1.2E1,-2E0,6E0,2.3E1,-4.3E0,2.4E1,2.499787E-3,4.8525562E-5,3.914805E-3,6.181058E-3,-4.0427575E-4,3.4411263E-3,-5.3415523E-4,-3.0362331E-3],"split_indices":[51,80,77,77,80,25,51,0,0,0,0,0,0,0,0],"split_type":[0,0,0,0,0,0,0,0,0,0,0,0,0,0,0],"sum_hessian":[6.2981826E3,3.1005703E3,3.197612E3,1.475894E3,1.6246763E3,9.986143E2,2.1989978E3,1.0069232E3,4.6897083E2,1.0285153E3,5.96161E2,3.764587E2,6.221556E2,1.2439358E3,9.55062E2],"tree_param":{"num_deleted":"0","num_feature":"106","num_nodes":"15","size_leaf_vector":"1"}},{"base_weights":[-1.3657007E-1,9.862852E-2,-2.8721768E-1,-1.4512008E-1,1.988757E-1,-3.9546934E-1,-6.0151353E-2,6.5928145E-4,-2.9566702E-3,7.310936E-4,2.9944174E-3,-3.2398643E-3,-5.6972997E-3,8.6087687E-4,-1.9721922E-3],"categories":[],"categories_nodes":[],"categories_segments":[],"categories_sizes":[],"default_left":[0,0,0,0,0,0,0,0,0,0,0,0,0,0,0],"id":22,"left_children":[1,3,5,7,9,11,13,-1,-1,-1,-1,-1,-1,-1,-1],"loss_changes":[2.2317612E2,6.0130928E1,9.434589E1,2.2812307E1,2.2026917E1,3.219809E1,2.4884642E1,0E0,0E0,0E0,0E0,0E0,0E0,0E0,0E0],"parents":[2147483647,0,0,1,1,2,2,3,3,4,4,5,5,6,6],"right_children":[2,4,6,8,10,12,14,-1,-1,-1,-1,-1,-1,-1,-1],"split_conditions":[4.69E-1,-2.4E0,2.9E0,-4.9E0,2.4E1,2.3E1,3.1E0,6.5928145E-4,-2.9566702E-3,7.310936E-4,2.9944174E-3,-3.2398643E-3,-5.6972997E-3,8.6087687E-4,-1.9721922E-3],"split_indices":[3,77,77,25,51,80,25,0,0,0,0,0,0,0,0],"split_type":[0,0,0,0,0,0,0,0,0,0,0,0,0,0,0],"sum_hessian":[6.2968994E3,2.4586606E3,3.8382388E3,7.163719E2,1.7422887E3,2.598627E3,1.2396119E3,2.984891E2,4.178828E2,7.749168E2,9.673719E2,1.844755E3,7.538719E2,5.9992163E2,6.3969025E2],"tree_param":{"num_deleted":"0","num_feature":"106","num_nodes":"15","size_leaf_vector":"1"}},{"base_weights":[1.3657008E-1,-9.862848E-2,2.8721765E-1,1.451201E-1,-1.9887565E-1,3.9546934E-1,6.0151335E-2,-6.592812E-4,2.9566702E-3,-7.310936E-4,-2.9944165E-3,3.2398643E-3,5.6972993E-3,-8.608767E-4,1.9721917E-3],"categories":[],"categories_nodes":[],"categories_segments":[],"categories_sizes":[],"default_left":[0,0,0,0,0,0,0,0,0,0,0,0,0,0,0],"id":23,"left_children":[1,3,5,7,9,11,13,-1,-1,-1,-1,-1,-1,-1,-1],"loss_changes":[2.231761E2,6.0130928E1,9.434589E1,2.2812307E1,2.2026894E1,3.219806E1,2.4884628E1,0E0,0E0,0E0,0E0,0E0,0E0,0E0,0E0],"parents":[2147483647,0,0,1,1,2,2,3,3,4,4,5,5,6,6],"right_children":[2,4,6,8,10,12,14,-1,-1,-1,-1,-1,-1,-1,-1],"split_conditions":[4.69E-1,-2.4E0,2.9E0,-4.9E0,2.4E1,2.3E1,3.1E0,-6.592812E-4,2.9566702E-3,-7.310936E-4,-2.9944165E-3,3.2398643E-3,5.6972993E-3,-8.608767E-4,1.9721917E-3],"split_indices":[3,77,77,25,51,80,25,0,0,0,0,0,0,0,0],"split_type":[0,0,0,0,0,0,0,0,0,0,0,0,0,0,0],"sum_hessian":[6.2968994E3,2.4586606E3,3.8382388E3,7.163719E2,1.7422887E3,2.598627E3,1.2396119E3,2.9848907E2,4.178828E2,7.7491675E2,9.6737195E2,1.844755E3,7.538719E2,5.999217E2,6.3969025E2],"tree_param":{"num_deleted":"0","num_feature":"106","num_nodes":"15","size_leaf_vector":"1"}},{"base_weights":[-1.3523452E-1,-3.24955E-1,4.8710324E-2,-1.6882433E-1,-4.6670732E-1,-1.910531E-1,1.6153549E-1,-2.4558455E-3,-3.8769227E-5,-3.8475718E-3,-6.073531E-3,5.120842E-4,-3.2307466E-3,5.489916E-4,2.9984857E-3],"categories":[],"categories_nodes":[],"categories_segments":[],"categories_sizes":[],"default_left":[0,0,0,0,0,0,0,0,0,0,0,0,0,0,0],"id":24,"left_children":[1,3,5,7,9,11,13,-1,-1,-1,-1,-1,-1,-1,-1],"loss_changes":[2.1975438E2,6.852466E1,8.653619E1,1.8695309E1,1.848584E1,3.275931E1,3.206435E1,0E0,0E0,0E0,0E0,0E0,0E0,0E0,0E0],"parents":[2147483647,0,0,1,1,2,2,3,3,4,4,5,5,6,6],"right_children":[2,4,6,8,10,12,14,-1,-1,-1,-1,-1,-1,-1,-1],"split_conditions":[1.5E1,1.2E1,-1.9E0,6E0,2.3E1,-4.6E0,2.4E1,-2.4558455E-3,-3.8769227E-5,-3.8475718E-3,-6.073531E-3,5.120842E-4,-3.2307466E-3,5.489916E-4,2.9984857E-3],"split_indices":[51,80,77,77,80,25,51,0,0,0,0,0,0,0,0],"split_type":[0,0,0,0,0,0,0,0,0,0,0,0,0,0,0],"sum_hessian":[6.295575E3,3.0987559E3,3.1968193E3,1.4756346E3,1.6231212E3,1.0227314E3,2.174088E3,1.0066769E3,4.6895776E2,1.0279191E3,5.9520215E2,3.6096585E2,6.6176556E2,1.2284089E3,9.45679E2],"tree_param":{"num_deleted":"0","num_feature":"106","num_nodes":"15","size_leaf_vector":"1"}},{"base_weights":[1.3523449E-1,3.24955E-1,-4.8710365E-2,1.6882432E-1,4.6670732E-1,1.9105305E-1,-1.6153552E-1,2.4558455E-3,3.8768845E-5,3.8475718E-3,6.073531E-3,-5.1208487E-4,3.230746E-3,-5.4899184E-4,-2.9984862E-3],"categories":[],"categories_nodes":[],"categories_segments":[],"categories_sizes":[],"default_left":[0,0,0,0,0,0,0,0,0,0,0,0,0,0,0],"id":25,"left_children":[1,3,5,7,9,11,13,-1,-1,-1,-1,-1,-1,-1,-1],"loss_changes":[2.197544E2,6.852466E1,8.653617E1,1.8695316E1,1.848584E1,3.2759308E1,3.2064346E1,0E0,0E0,0E0,0E0,0E0,0E0,0E0,0E0],"parents":[2147483647,0,0,1,1,2,2,3,3,4,4,5,5,6,6],"right_children":[2,4,6,8,10,12,14,-1,-1,-1,-1,-1,-1,-1,-1],"split_conditions":[1.5E1,1.2E1,-1.9E0,6E0,2.3E1,-4.6E0,2.4E1,2.4558455E-3,3.8768845E-5,3.8475718E-3,6.073531E-3,-5.1208487E-4,3.230746E-3,-5.4899184E-4,-2.9984862E-3],"split_indices":[51,80,77,77,80,25,51,0,0,0,0,0,0,0,0],"split_type":[0,0,0,0,0,0,0,0,0,0,0,0,0,0,0],"sum_hessian":[6.295575E3,3.0987559E3,3.1968193E3,1.4756346E3,1.6231212E3,1.0227314E3,2.174088E3,1.0066769E3,4.6895776E2,1.0279191E3,5.9520215E2,3.6096582E2,6.6176556E2,1.2284089E3,9.4567896E2],"tree_param":{"num_deleted":"0","num_feature":"106","num_nodes":"15","size_leaf_vector":"1"}},{"base_weights":[-1.3391595E-1,-2.545798E-1,1.4981772E-1,-1.1039982E-1,-4.1939986E-1,-1.5426153E-1,2.3050043E-1,-2.7278927E-3,1.2044227E-4,-3.3387074E-3,-5.384246E-3,-2.7129569E-3,1.0957917E-3,3.7913537E-3,1.4035648E-3],"categories":[],"categories_nodes":[],"categories_segments":[],"categories_sizes":[],"default_left":[0,0,0,0,0,0,0,0,0,0,0,0,0,0,0],"id":26,"left_children":[1,3,5,7,9,11,13,-1,-1,-1,-1,-1,-1,-1,-1],"loss_changes":[2.1555945E2,1.0492145E2,4.6133724E1,4.6877922E1,2.0798218E1,1.221455E1,1.9848274E1,0E0,0E0,0E0,0E0,0E0,0E0,0E0,0E0],"parents":[2147483647,0,0,1,1,2,2,3,3,4,4,5,5,6,6],"right_children":[2,4,6,8,10,12,14,-1,-1,-1,-1,-1,-1,-1,-1],"split_conditions":[2E1,1.4E1,3.6E-1,9E0,2.3E1,2.7E1,-6.2E0,-2.7278927E-3,1.2044227E-4,-3.3387074E-3,-5.384246E-3,-2.7129569E-3,1.0957917E-3,3.7913537E-3,1.4035648E-3],"split_indices":[28,80,55,51,80,28,25,0,0,0,0,0,0,0,0],"split_type":[0,0,0,0,0,0,0,0,0,0,0,0,0,0,0],"sum_hessian":[6.2940923E3,4.416137E3,1.8779551E3,2.35645E3,2.0596875E3,3.9360684E2,1.4843483E3,1.0124614E3,1.3439885E3,1.2006945E3,8.58993E2,2.7264084E2,1.20965996E2,5.591618E2,9.251865E2],"tree_param":{"num_deleted":"0","num_feature":"106","num_nodes":"15","size_leaf_vector":"1"}},{"base_weights":[1.3391595E-1,2.545798E-1,-1.498177E-1,1.103998E-1,4.1939986E-1,1.5426156E-1,-2.3050041E-1,2.7278922E-3,-1.2044258E-4,3.3387074E-3,5.384246E-3,2.7129576E-3,-1.0957919E-3,-3.7913534E-3,-1.4035648E-3],"categories":[],"categories_nodes":[],"categories_segments":[],"categories_sizes":[],"default_left":[0,0,0,0,0,0,0,0,0,0,0,0,0,0,0],"id":27,"left_children":[1,3,5,7,9,11,13,-1,-1,-1,-1,-1,-1,-1,-1],"loss_changes":[2.1555945E2,1.0492145E2,4.613373E1,4.6877926E1,2.0798218E1,1.2214555E1,1.9848282E1,0E0,0E0,0E0,0E0,0E0,0E0,0E0,0E0],"parents":[2147483647,0,0,1,1,2,2,3,3,4,4,5,5,6,6],"right_children":[2,4,6,8,10,12,14,-1,-1,-1,-1,-1,-1,-1,-1],"split_conditions":[2E1,1.4E1,3.6E-1,9E0,2.3E1,2.7E1,-6.2E0,2.7278922E-3,-1.2044258E-4,3.3387074E-3,5.384246E-3,2.7129576E-3,-1.0957919E-3,-3.7913534E-3,-1.4035648E-3],"split_indices":[28,80,55,51,80,28,25,0,0,0,0,0,0,0,0],"split_type":[0,0,0,0,0,0,0,0,0,0,0,0,0,0,0],"sum_hessian":[6.2940923E3,4.416137E3,1.8779551E3,2.35645E3,2.0596875E3,3.9360687E2,1.4843483E3,1.0124614E3,1.3439885E3,1.2006945E3,8.58993E2,2.7264087E2,1.20966E2,5.5916174E2,9.251865E2],"tree_param":{"num_deleted":"0","num_feature":"106","num_nodes":"15","size_leaf_vector":"1"}},{"base_weights":[-1.3260826E-1,-3.1915972E-1,4.8193034E-2,-1.655845E-1,-4.587174E-1,-8.862369E-2,2.3910695E-1,-2.5092082E-3,-2.0086626E-4,-3.781948E-3,-5.9707225E-3,1.3993707E-3,-2.0577104E-3,4.167706E-3,1.8131889E-3],"categories":[],"categories_nodes":[],"categories_segments":[],"categories_sizes":[],"default_left":[0,0,0,0,0,0,0,0,0,0,0,0,0,0,0],"id":28,"left_children":[1,3,5,7,9,11,13,-1,-1,-1,-1,-1,-1,-1,-1],"loss_changes":[2.1229308E2,6.631607E1,8.352655E1,1.8325756E1,1.7848358E1,4.9912937E1,1.3629608E1,0E0,0E0,0E0,0E0,0E0,0E0,0E0,0E0],"parents":[2147483647,0,0,1,1,2,2,3,3,4,4,5,5,6,6],"right_children":[2,4,6,8,10,12,14,-1,-1,-1,-1,-1,-1,-1,-1],"split_conditions":[1.5E1,1.2E1,5.45E-1,5.4E0,2.3E1,-4.8E0,-6.1E0,-2.5092082E-3,-2.0086626E-4,-3.781948E-3,-5.9707225E-3,1.3993707E-3,-2.0577104E-3,4.167706E-3,1.8131889E-3],"split_indices":[51,80,55,77,80,25,25,0,0,0,0,0,0,0,0],"split_type":[0,0,0,0,0,0,0,0,0,0,0,0,0,0,0],"sum_hessian":[6.2926743E3,3.0967112E3,3.1959631E3,1.4753547E3,1.6213564E3,1.8620662E3,1.333897E3,9.2947906E2,5.458757E2,1.0272373E3,5.941191E2,6.3091766E2,1.2311484E3,3.2586023E2,1.0080367E3],"tree_param":{"num_deleted":"0","num_feature":"106","num_nodes":"15","size_leaf_vector":"1"}},{"base_weights":[1.3260825E-1,3.1915966E-1,-4.819304E-2,1.6558447E-1,4.5871735E-1,8.862368E-2,-2.3910697E-1,2.509208E-3,2.00866E-4,3.7819473E-3,5.9707225E-3,-1.3993707E-3,2.0577104E-3,-4.167706E-3,-1.8131889E-3],"categories":[],"categories_nodes":[],"categories_segments":[],"categories_sizes":[],"default_left":[0,0,0,0,0,0,0,0,0,0,0,0,0,0,0],"id":29,"left_children":[1,3,5,7,9,11,13,-1,-1,-1,-1,-1,-1,-1,-1],"loss_changes":[2.1229306E2,6.631604E1,8.352656E1,1.8325756E1,1.7848358E1,4.9912933E1,1.3629601E1,0E0,0E0,0E0,0E0,0E0,0E0,0E0,0E0],"parents":[2147483647,0,0,1,1,2,2,3,3,4,4,5,5,6,6],"right_children":[2,4,6,8,10,12,14,-1,-1,-1,-1,-1,-1,-1,-1],"split_conditions":[1.5E1,1.2E1,5.45E-1,5.4E0,2.3E1,-4.8E0,-6.1E0,2.509208E-3,2.00866E-4,3.7819473E-3,5.9707225E-3,-1.3993707E-3,2.0577104E-3,-4.167706E-3,-1.8131889E-3],"split_indices":[51,80,55,77,80,25,25,0,0,0,0,0,0,0,0],"split_type":[0,0,0,0,0,0,0,0,0,0,0,0,0,0,0],"sum_hessian":[6.2926743E3,3.0967112E3,3.1959631E3,1.4753547E3,1.6213564E3,1.8620662E3,1.3338969E3,9.2947906E2,5.4587573E2,1.0272374E3,5.941191E2,6.3091766E2,1.2311486E3,3.2586023E2,1.0080367E3],"tree_param":{"num_deleted":"0","num_feature":"106","num_nodes":"15","size_leaf_vector":"1"}},{"base_weights":[-1.3131608E-1,-3.160956E-1,4.771806E-2,-1.6394825E-1,-4.544298E-1,-1.9080395E-1,1.5602824E-1,-2.3930361E-3,-2.0827254E-5,-3.745685E-3,-5.917383E-3,3.8105468E-4,-3.2932928E-3,5.261154E-4,2.90657E-3],"categories":[],"categories_nodes":[],"categories_segments":[],"categories_sizes":[],"default_left":[0,0,0,0,0,0,0,0,0,0,0,0,0,0,0],"id":30,"left_children":[1,3,5,7,9,11,13,-1,-1,-1,-1,-1,-1,-1,-1],"loss_changes":[2.0817007E2,6.509833E1,8.2612236E1,1.8005306E1,1.7557037E1,3.1681126E1,3.0599857E1,0E0,0E0,0E0,0E0,0E0,0E0,0E0,0E0],"parents":[2147483647,0,0,1,1,2,2,3,3,4,4,5,5,6,6],"right_children":[2,4,6,8,10,12,14,-1,-1,-1,-1,-1,-1,-1,-1],"split_conditions":[1.5E1,1.2E1,-2E0,6E0,2.3E1,-4.3E0,2.4E1,-2.3930361E-3,-2.0827254E-5,-3.745685E-3,-5.917383E-3,3.8105468E-4,-3.2932928E-3,5.261154E-4,2.90657E-3],"split_indices":[51,80,77,77,80,25,51,0,0,0,0,0,0,0,0],"split_type":[0,0,0,0,0,0,0,0,0,0,0,0,0,0,0],"sum_hessian":[6.291123E3,3.09551E3,3.1956133E3,1.4751959E3,1.620314E3,9.977014E2,2.1979119E3,1.00626013E3,4.6893582E2,1.0268221E3,5.934919E2,3.7641336E2,6.21288E2,1.2438356E3,9.5407635E2],"tree_param":{"num_deleted":"0","num_feature":"106","num_nodes":"15","size_leaf_vector":"1"}},{"base_weights":[1.313161E-1,3.1609562E-1,-4.771805E-2,1.6394824E-1,4.5442986E-1,1.9080396E-1,-1.5602823E-1,2.393036E-3,2.0827387E-5,3.7456858E-3,5.917384E-3,-3.8105462E-4,3.293293E-3,-5.261154E-4,-2.9065697E-3],"categories":[],"categories_nodes":[],"categories_segments":[],"categories_sizes":[],"default_left":[0,0,0,0,0,0,0,0,0,0,0,0,0,0,0],"id":31,"left_children":[1,3,5,7,9,11,13,-1,-1,-1,-1,-1,-1,-1,-1],"loss_changes":[2.081701E2,6.509836E1,8.2612236E1,1.8005299E1,1.7557068E1,3.168113E1,3.059985E1,0E0,0E0,0E0,0E0,0E0,0E0,0E0,0E0],"parents":[2147483647,0,0,1,1,2,2,3,3,4,4,5,5,6,6],"right_children":[2,4,6,8,10,12,14,-1,-1,-1,-1,-1,-1,-1,-1],"split_conditions":[1.5E1,1.2E1,-2E0,6E0,2.3E1,-4.3E0,2.4E1,2.393036E-3,2.0827387E-5,3.7456858E-3,5.917384E-3,-3.8105462E-4,3.293293E-3,-5.261154E-4,-2.9065697E-3],"split_indices":[51,80,77,77,80,25,51,0,0,0,0,0,0,0,0],"split_type":[0,0,0,0,0,0,0,0,0,0,0,0,0,0,0],"sum_hessian":[6.291123E3,3.09551E3,3.1956133E3,1.4751959E3,1.620314E3,9.977014E2,2.1979119E3,1.0062602E3,4.689358E2,1.0268221E3,5.934918E2,3.7641336E2,6.21288E2,1.2438356E3,9.5407635E2],"tree_param":{"num_deleted":"0","num_feature":"106","num_nodes":"15","size_leaf_vector":"1"}},{"base_weights":[-1.3004139E-1,-2.4771842E-1,1.4654574E-1,-1.0731586E-1,-4.084232E-1,-1.511572E-1,2.255421E-1,-2.663752E-3,1.2574533E-4,-5.438903E-3,-3.3523138E-3,-2.6579476E-3,1.0717348E-3,3.703317E-3,1.3777674E-3],"categories":[],"categories_nodes":[],"categories_segments":[],"categories_sizes":[],"default_left":[0,0,0,0,0,0,0,0,0,0,0,0,0,0,0],"id":32,"left_children":[1,3,5,7,9,11,13,-1,-1,-1,-1,-1,-1,-1,-1],"loss_changes":[2.0477507E2,9.953372E1,4.420297E1,4.494601E1,2.0217773E1,1.1710052E1,1.8815521E1,0E0,0E0,0E0,0E0,0E0,0E0,0E0,0E0],"parents":[2147483647,0,0,1,1,2,2,3,3,4,4,5,5,6,6],"right_children":[2,4,6,8,10,12,14,-1,-1,-1,-1,-1,-1,-1,-1],"split_conditions":[2E1,1.4E1,3.6E-1,9E0,8E0,2.7E1,-6.2E0,-2.663752E-3,1.2574533E-4,-5.438903E-3,-3.3523138E-3,-2.6579476E-3,1.0717348E-3,3.703317E-3,1.3777674E-3],"split_indices":[28,80,55,51,51,28,25,0,0,0,0,0,0,0,0],"split_type":[0,0,0,0,0,0,0,0,0,0,0,0,0,0,0],"sum_hessian":[6.2893735E3,4.412241E3,1.8771321E3,2.3557588E3,2.0564824E3,3.9345563E2,1.4836765E3,1.0119613E3,1.3437975E3,7.1910175E2,1.3373807E3,2.7250095E2,1.2095467E2,5.587188E2,9.249577E2],"tree_param":{"num_deleted":"0","num_feature":"106","num_nodes":"15","size_leaf_vector":"1"}},{"base_weights":[1.300414E-1,2.4771844E-1,-1.4654572E-1,1.0731585E-1,4.0842322E-1,1.5115719E-1,-2.2554208E-1,2.663752E-3,-1.257455E-4,5.4389033E-3,3.3523138E-3,2.6579471E-3,-1.0717349E-3,-3.703316E-3,-1.3777678E-3],"categories":[],"categories_nodes":[],"categories_segments":[],"categories_sizes":[],"default_left":[0,0,0,0,0,0,0,0,0,0,0,0,0,0,0],"id":33,"left_children":[1,3,5,7,9,11,13,-1,-1,-1,-1,-1,-1,-1,-1],"loss_changes":[2.0477509E2,9.953375E1,4.4202965E1,4.494602E1,2.0217773E1,1.1710052E1,1.8815506E1,0E0,0E0,0E0,0E0,0E0,0E0,0E0,0E0],"parents":[2147483647,0,0,1,1,2,2,3,3,4,4,5,5,6,6],"right_children":[2,4,6,8,10,12,14,-1,-1,-1,-1,-1,-1,-1,-1],"split_conditions":[2E1,1.4E1,3.6E-1,9E0,8E0,2.7E1,-6.2E0,2.663752E-3,-1.257455E-4,5.4389033E-3,3.3523138E-3,2.6579471E-3,-1.0717349E-3,-3.703316E-3,-1.3777678E-3],"split_indices":[28,80,55,51,51,28,25,0,0,0,0,0,0,0,0],"split_type":[0,0,0,0,0,0,0,0,0,0,0,0,0,0,0],"sum_hessian":[6.2893735E3,4.412241E3,1.8771321E3,2.3557588E3,2.0564824E3,3.9345563E2,1.4836765E3,1.0119613E3,1.3437975E3,7.1910175E2,1.3373807E3,2.7250095E2,1.2095467E2,5.587188E2,9.249577E2],"tree_param":{"num_deleted":"0","num_feature":"106","num_nodes":"15","size_leaf_vector":"1"}},{"base_weights":[-1.2877613E-1,9.443514E-2,-2.7188993E-1,-1.3752005E-1,1.8981905E-1,-3.7583113E-1,-5.433373E-2,6.2237494E-4,-2.8021866E-3,7.164579E-4,2.8442265E-3,-2.8529498E-3,-5.003323E-3,-1.3278595E-3,1.8305792E-3],"categories":[],"categories_nodes":[],"categories_segments":[],"categories_sizes":[],"default_left":[0,0,0,0,0,0,0,0,0,0,0,0,0,0,0],"id":34,"left_children":[1,3,5,7,9,11,13,-1,-1,-1,-1,-1,-1,-1,-1],"loss_changes":[2.009169E2,5.439978E1,8.663614E1,2.0447098E1,1.945327E1,2.908554E1,2.3120089E1,0E0,0E0,0E0,0E0,0E0,0E0,0E0,0E0],"parents":[2147483647,0,0,1,1,2,2,3,3,4,4,5,5,6,6],"right_children":[2,4,6,8,10,12,14,-1,-1,-1,-1,-1,-1,-1,-1],"split_conditions":[4.69E-1,-2.4E0,2.9E0,-4.9E0,2.4E1,2E1,1.4E1,6.2237494E-4,-2.8021866E-3,7.164579E-4,2.8442265E-3,-2.8529498E-3,-5.003323E-3,-1.3278595E-3,1.8305792E-3],"split_indices":[3,77,77,25,51,80,51,0,0,0,0,0,0,0,0],"split_type":[0,0,0,0,0,0,0,0,0,0,0,0,0,0,0],"sum_hessian":[6.287737E3,2.45659E3,3.8311467E3,7.1570135E2,1.7408887E3,2.5920315E3,1.2391152E3,2.984617E2,4.172397E2,7.748051E2,9.660836E2,1.5026265E3,1.089405E3,9.316636E2,3.0745166E2],"tree_param":{"num_deleted":"0","num_feature":"106","num_nodes":"15","size_leaf_vector":"1"}},{"base_weights":[1.2877612E-1,-9.443514E-2,2.718899E-1,1.3752006E-1,-1.8981905E-1,3.7583113E-1,5.4333687E-2,-6.2237476E-4,2.8021862E-3,-7.164578E-4,-2.8442268E-3,2.85295E-3,5.003323E-3,1.3278587E-3,-1.8305792E-3],"categories":[],"categories_nodes":[],"categories_segments":[],"categories_sizes":[],"default_left":[0,0,0,0,0,0,0,0,0,0,0,0,0,0,0],"id":35,"left_children":[1,3,5,7,9,11,13,-1,-1,-1,-1,-1,-1,-1,-1],"loss_changes":[2.0091693E2,5.439978E1,8.663614E1,2.0447098E1,1.9453281E1,2.908551E1,2.312008E1,0E0,0E0,0E0,0E0,0E0,0E0,0E0,0E0],"parents":[2147483647,0,0,1,1,2,2,3,3,4,4,5,5,6,6],"right_children":[2,4,6,8,10,12,14,-1,-1,-1,-1,-1,-1,-1,-1],"split_conditions":[4.69E-1,-2.4E0,2.9E0,-4.9E0,2.4E1,2E1,1.4E1,-6.2237476E-4,2.8021862E-3,-7.164578E-4,-2.8442268E-3,2.85295E-3,5.003323E-3,1.3278587E-3,-1.8305792E-3],"split_indices":[3,77,77,25,51,80,51,0,0,0,0,0,0,0,0],"split_type":[0,0,0,0,0,0,0,0,0,0,0,0,0,0,0],"sum_hessian":[6.287737E3,2.45659E3,3.8311467E3,7.157014E2,1.7408888E3,2.5920315E3,1.2391152E3,2.984617E2,4.172397E2,7.748051E2,9.660836E2,1.5026265E3,1.089405E3,9.316636E2,3.0745166E2],"tree_param":{"num_deleted":"0","num_feature":"106","num_nodes":"15","size_leaf_vector":"1"}},{"base_weights":[-1.275267E-1,-3.076819E-1,4.690508E-2,-1.5919517E-1,-4.4290498E-1,-8.6144E-2,2.3253572E-1,-2.335872E-3,5.343376E-6,-3.6426368E-3,-5.7834857E-3,1.3406111E-3,-1.9903607E-3,4.0431563E-3,1.7672012E-3],"categories":[],"categories_nodes":[],"categories_segments":[],"categories_sizes":[],"default_left":[0,0,0,0,0,0,0,0,0,0,0,0,0,0,0],"id":36,"left_children":[1,3,5,7,9,11,13,-1,-1,-1,-1,-1,-1,-1,-1],"loss_changes":[1.9757938E2,6.2030304E1,7.8931656E1,1.7535164E1,1.7025085E1,4.6311195E1,1.2720978E1,0E0,0E0,0E0,0E0,0E0,0E0,0E0,0E0],"parents":[2147483647,0,0,1,1,2,2,3,3,4,4,5,5,6,6],"right_children":[2,4,6,8,10,12,14,-1,-1,-1,-1,-1,-1,-1,-1],"split_conditions":[1.5E1,1.2E1,5.45E-1,6E0,2.3E1,-4.8E0,-6.1E0,-2.335872E-3,5.343376E-6,-3.6426368E-3,-5.7834857E-3,1.3406111E-3,-1.9903607E-3,4.0431563E-3,1.7672012E-3],"split_indices":[51,80,55,77,80,25,25,0,0,0,0,0,0,0,0],"split_type":[0,0,0,0,0,0,0,0,0,0,0,0,0,0,0],"sum_hessian":[6.2859136E3,3.0918506E3,3.1940632E3,1.4746901E3,1.6171604E3,1.860851E3,1.3332122E3,1.0057924E3,4.6889767E2,1.0254518E3,5.917087E2,6.3060913E2,1.2302418E3,3.2542615E2,1.0077861E3],"tree_param":{"num_deleted":"0","num_feature":"106","num_nodes":"15","size_leaf_vector":"1"}},{"base_weights":[1.2752672E-1,3.076819E-1,-4.6905063E-2,1.591952E-1,4.42905E-1,8.6144E-2,-2.3253568E-1,2.335872E-3,-5.342765E-6,3.6426368E-3,5.783486E-3,-1.3406109E-3,1.9903607E-3,-4.0431563E-3,-1.7672007E-3],"categories":[],"categories_nodes":[],"categories_segments":[],"categories_sizes":[],"default_left":[0,0,0,0,0,0,0,0,0,0,0,0,0,0,0],"id":37,"left_children":[1,3,5,7,9,11,13,-1,-1,-1,-1,-1,-1,-1,-1],"loss_changes":[1.9757938E2,6.2030365E1,7.893163E1,1.7535152E1,1.7025085E1,4.631119E1,1.2720985E1,0E0,0E0,0E0,0E0,0E0,0E0,0E0,0E0],"parents":[2147483647,0,0,1,1,2,2,3,3,4,4,5,5,6,6],"right_children":[2,4,6,8,10,12,14,-1,-1,-1,-1,-1,-1,-1,-1],"split_conditions":[1.5E1,1.2E1,5.45E-1,6E0,2.3E1,-4.8E0,-6.1E0,2.335872E-3,-5.342765E-6,3.6426368E-3,5.783486E-3,-1.3406109E-3,1.9903607E-3,-4.0431563E-3,-1.7672007E-3],"split_indices":[51,80,55,77,80,25,25,0,0,0,0,0,0,0,0],"split_type":[0,0,0,0,0,0,0,0,0,0,0,0,0,0,0],"sum_hessian":[6.2859136E3,3.0918506E3,3.1940632E3,1.4746902E3,1.6171604E3,1.860851E3,1.3332123E3,1.0057925E3,4.6889767E2,1.0254518E3,5.917087E2,6.3060913E2,1.2302418E3,3.2542615E2,1.0077861E3],"tree_param":{"num_deleted":"0","num_feature":"106","num_nodes":"15","size_leaf_vector":"1"}},{"base_weights":[-1.2629075E-1,-2.4097618E-1,1.4313106E-1,-1.04265355E-1,-3.976793E-1,-1.483542E-1,2.2048543E-1,-2.6009243E-3,1.3141317E-4,-5.3117094E-3,-3.256271E-3,-2.6067512E-3,1.0464792E-3,3.617084E-3,1.3493918E-3],"categories":[],"categories_nodes":[],"categories_segments":[],"categories_sizes":[],"default_left":[0,0,0,0,0,0,0,0,0,0,0,0,0,0,0],"id":38,"left_children":[1,3,5,7,9,11,13,-1,-1,-1,-1,-1,-1,-1,-1],"loss_changes":[1.9423422E2,9.440918E1,4.2358982E1,4.310637E1,1.9581848E1,1.123196E1,1.787835E1,0E0,0E0,0E0,0E0,0E0,0E0,0E0,0E0],"parents":[2147483647,0,0,1,1,2,2,3,3,4,4,5,5,6,6],"right_children":[2,4,6,8,10,12,14,-1,-1,-1,-1,-1,-1,-1,-1],"split_conditions":[2E1,1.4E1,3.6E-1,9E0,8E0,2.7E1,-6.2E0,-2.6009243E-3,1.3141317E-4,-5.3117094E-3,-3.256271E-3,-2.6067512E-3,1.0464792E-3,3.617084E-3,1.3493918E-3],"split_indices":[28,80,55,51,51,28,25,0,0,0,0,0,0,0,0],"split_type":[0,0,0,0,0,0,0,0,0,0,0,0,0,0,0],"sum_hessian":[6.284033E3,4.407842E3,1.8761912E3,2.3549785E3,2.0528633E3,3.9328906E2,1.4829021E3,1.011396E3,1.3435826E3,7.1738574E2,1.3354777E3,2.7234882E2,1.2094026E2,5.5819116E2,9.2471094E2],"tree_param":{"num_deleted":"0","num_feature":"106","num_nodes":"15","size_leaf_vector":"1"}},{"base_weights":[1.2629074E-1,2.4097618E-1,-1.4313109E-1,1.0426537E-1,3.976793E-1,1.4835426E-1,-2.204855E-1,2.6009246E-3,-1.314132E-4,5.3117094E-3,3.256271E-3,2.606752E-3,-1.0464793E-3,-3.6170848E-3,-1.3493921E-3],"categories":[],"categories_nodes":[],"categories_segments":[],"categories_sizes":[],"default_left":[0,0,0,0,0,0,0,0,0,0,0,0,0,0,0],"id":39,"left_children":[1,3,5,7,9,11,13,-1,-1,-1,-1,-1,-1,-1,-1],"loss_changes":[1.9423427E2,9.440921E1,4.2359005E1,4.3106384E1,1.9581848E1,1.1231966E1,1.7878365E1,0E0,0E0,0E0,0E0,0E0,0E0,0E0,0E0],"parents":[2147483647,0,0,1,1,2,2,3,3,4,4,5,5,6,6],"right_children":[2,4,6,8,10,12,14,-1,-1,-1,-1,-1,-1,-1,-1],"split_conditions":[2E1,1.4E1,3.6E-1,9E0,8E0,2.7E1,-6.2E0,2.6009246E-3,-1.314132E-4,5.3117094E-3,3.256271E-3,2.606752E-3,-1.0464793E-3,-3.6170848E-3,-1.3493921E-3],"split_indices":[28,80,55,51,51,28,25,0,0,0,0,0,0,0,0],"split_type":[0,0,0,0,0,0,0,0,0,0,0,0,0,0,0],"sum_hessian":[6.284033E3,4.407842E3,1.8761912E3,2.3549785E3,2.0528633E3,3.9328906E2,1.4829021E3,1.011396E3,1.3435826E3,7.1738574E2,1.3354777E3,2.7234882E2,1.2094026E2,5.5819116E2,9.2471094E2],"tree_param":{"num_deleted":"0","num_feature":"106","num_nodes":"15","size_leaf_vector":"1"}},{"base_weights":[-1.2506668E-1,-3.0211163E-1,4.6251778E-2,-1.561408E-1,-4.3520713E-1,-1.8368419E-1,1.5061867E-1,-2.3888296E-3,-1.5184518E-4,-3.5725737E-3,-5.696246E-3,3.583401E-4,-3.167135E-3,5.2245293E-4,2.7882631E-3],"categories":[],"categories_nodes":[],"categories_segments":[],"categories_sizes":[],"default_left":[0,0,0,0,0,0,0,0,0,0,0,0,0,0,0],"id":40,"left_children":[1,3,5,7,9,11,13,-1,-1,-1,-1,-1,-1,-1,-1],"loss_changes":[1.9058902E2,5.9966187E1,7.667851E1,1.7202984E1,1.6726105E1,2.9144268E1,2.770039E1,0E0,0E0,0E0,0E0,0E0,0E0,0E0,0E0],"parents":[2147483647,0,0,1,1,2,2,3,3,4,4,5,5,6,6],"right_children":[2,4,6,8,10,12,14,-1,-1,-1,-1,-1,-1,-1,-1],"split_conditions":[1.5E1,1.2E1,-2E0,5.4E0,2.3E1,-4.3E0,2.4E1,-2.3888296E-3,-1.5184518E-4,-3.5725737E-3,-5.696246E-3,3.583401E-4,-3.167135E-3,5.2245293E-4,2.7882631E-3],"split_indices":[51,80,77,77,80,25,51,0,0,0,0,0,0,0,0],"split_type":[0,0,0,0,0,0,0,0,0,0,0,0,0,0,0],"sum_hessian":[6.2821636E3,3.0890725E3,3.193091E3,1.4743124E3,1.6147603E3,9.966223E2,2.1964688E3,9.2855206E2,5.457603E2,1.0243749E3,5.903854E2,3.7633847E2,6.202839E2,1.2436371E3,9.528317E2],"tree_param":{"num_deleted":"0","num_feature":"106","num_nodes":"15","size_leaf_vector":"1"}},{"base_weights":[1.250667E-1,3.0211166E-1,-4.6251778E-2,1.5614083E-1,4.352072E-1,1.836842E-1,-1.5061869E-1,2.3888298E-3,1.5184571E-4,3.5725746E-3,5.696246E-3,-3.583398E-4,3.167135E-3,-5.2245293E-4,-2.7882636E-3],"categories":[],"categories_nodes":[],"categories_segments":[],"categories_sizes":[],"default_left":[0,0,0,0,0,0,0,0,0,0,0,0,0,0,0],"id":41,"left_children":[1,3,5,7,9,11,13,-1,-1,-1,-1,-1,-1,-1,-1],"loss_changes":[1.9058908E2,5.9966156E1,7.667853E1,1.720298E1,1.6726105E1,2.9144268E1,2.7700397E1,0E0,0E0,0E0,0E0,0E0,0E0,0E0,0E0],"parents":[2147483647,0,0,1,1,2,2,3,3,4,4,5,5,6,6],"right_children":[2,4,6,8,10,12,14,-1,-1,-1,-1,-1,-1,-1,-1],"split_conditions":[1.5E1,1.2E1,-2E0,5.4E0,2.3E1,-4.3E0,2.4E1,2.3888298E-3,1.5184571E-4,3.5725746E-3,5.696246E-3,-3.583398E-4,3.167135E-3,-5.2245293E-4,-2.7882636E-3],"split_indices":[51,80,77,77,80,25,51,0,0,0,0,0,0,0,0],"split_type":[0,0,0,0,0,0,0,0,0,0,0,0,0,0,0],"sum_hessian":[6.2821636E3,3.0890725E3,3.193091E3,1.4743124E3,1.6147603E3,9.966224E2,2.1964688E3,9.2855206E2,5.457603E2,1.0243749E3,5.903854E2,3.7633847E2,6.202839E2,1.2436371E3,9.528317E2],"tree_param":{"num_deleted":"0","num_feature":"106","num_nodes":"15","size_leaf_vector":"1"}},{"base_weights":[-1.2386038E-1,-2.3656626E-1,1.4081967E-1,-1.4672406E-1,-4.6890497E-1,-1.4577565E-1,2.1688178E-1,-2.70955E-4,-2.8958463E-3,-4.0461156E-3,-6.114267E-3,-2.5643397E-3,1.0338156E-3,3.5595736E-3,1.3267858E-3],"categories":[],"categories_nodes":[],"categories_segments":[],"categories_sizes":[],"default_left":[0,0,0,0,0,0,0,0,0,0,0,0,0,0,0],"id":42,"left_children":[1,3,5,7,9,11,13,-1,-1,-1,-1,-1,-1,-1,-1],"loss_changes":[1.8740277E2,9.189258E1,4.0936447E1,5.431359E1,1.1005646E1,1.0893916E1,1.7323044E1,0E0,0E0,0E0,0E0,0E0,0E0,0E0,0E0],"parents":[2147483647,0,0,1,1,2,2,3,3,4,4,5,5,6,6],"right_children":[2,4,6,8,10,12,14,-1,-1,-1,-1,-1,-1,-1,-1],"split_conditions":[2E1,2E1,3.6E-1,2.9E0,3.7E1,2.7E1,-6.2E0,-2.70955E-4,-2.8958463E-3,-4.0461156E-3,-6.114267E-3,-2.5643397E-3,1.0338156E-3,3.5595736E-3,1.3267858E-3],"split_indices":[28,80,55,25,54,28,25,0,0,0,0,0,0,0,0],"split_type":[0,0,0,0,0,0,0,0,0,0,0,0,0,0,0],"sum_hessian":[6.2800327E3,4.4045825E3,1.8754503E3,3.1775132E3,1.2270693E3,3.931562E2,1.4822941E3,1.7300194E3,1.4474938E3,8.482513E2,3.7881808E2,2.72224E2,1.2093219E2,5.577877E2,9.2450635E2],"tree_param":{"num_deleted":"0","num_feature":"106","num_nodes":"15","size_leaf_vector":"1"}},{"base_weights":[1.2386038E-1,2.3656628E-1,-1.4081967E-1,1.4672406E-1,4.68905E-1,1.4577569E-1,-2.1688181E-1,2.709549E-4,2.8958463E-3,4.046116E-3,6.1142677E-3,2.5643401E-3,-1.0338149E-3,-3.5595738E-3,-1.3267858E-3],"categories":[],"categories_nodes":[],"categories_segments":[],"categories_sizes":[],"default_left":[0,0,0,0,0,0,0,0,0,0,0,0,0,0,0],"id":43,"left_children":[1,3,5,7,9,11,13,-1,-1,-1,-1,-1,-1,-1,-1],"loss_changes":[1.8740283E2,9.189255E1,4.093646E1,5.4313606E1,1.1005646E1,1.0893914E1,1.7323051E1,0E0,0E0,0E0,0E0,0E0,0E0,0E0,0E0],"parents":[2147483647,0,0,1,1,2,2,3,3,4,4,5,5,6,6],"right_children":[2,4,6,8,10,12,14,-1,-1,-1,-1,-1,-1,-1,-1],"split_conditions":[2E1,2E1,3.6E-1,2.9E0,3.7E1,2.7E1,-6.2E0,2.709549E-4,2.8958463E-3,4.046116E-3,6.1142677E-3,2.5643401E-3,-1.0338149E-3,-3.5595738E-3,-1.3267858E-3],"split_indices":[28,80,55,25,54,28,25,0,0,0,0,0,0,0,0],"split_type":[0,0,0,0,0,0,0,0,0,0,0,0,0,0,0],"sum_hessian":[6.2800327E3,4.4045825E3,1.8754502E3,3.1775132E3,1.2270693E3,3.931562E2,1.4822941E3,1.7300194E3,1.4474938E3,8.482513E2,3.7881808E2,2.72224E2,1.209322E2,5.577877E2,9.2450635E2],"tree_param":{"num_deleted":"0","num_feature":"106","num_nodes":"15","size_leaf_vector":"1"}},{"base_weights":[-1.22662626E-1,-2.9669458E-1,4.564345E-2,-1.5269884E-1,-4.281519E-1,-8.399985E-2,2.2649632E-1,-2.2578847E-3,4.1317668E-5,-3.5143786E-3,-5.606464E-3,1.2850374E-3,-1.9296627E-3,3.919375E-3,1.7281529E-3],"categories":[],"categories_nodes":[],"categories_segments":[],"categories_sizes":[],"default_left":[0,0,0,0,0,0,0,0,0,0,0,0,0,0,0],"id":44,"left_children":[1,3,5,7,9,11,13,-1,-1,-1,-1,-1,-1,-1,-1],"loss_changes":[1.8393083E2,5.83721E1,7.488094E1,1.6906857E1,1.6200653E1,4.3105606E1,1.1774452E1,0E0,0E0,0E0,0E0,0E0,0E0,0E0,0E0],"parents":[2147483647,0,0,1,1,2,2,3,3,4,4,5,5,6,6],"right_children":[2,4,6,8,10,12,14,-1,-1,-1,-1,-1,-1,-1,-1],"split_conditions":[1.5E1,1.2E1,5.45E-1,6E0,2.3E1,-4.8E0,-6.1E0,-2.2578847E-3,4.1317668E-5,-3.5143786E-3,-5.606464E-3,1.2850374E-3,-1.9296627E-3,3.919375E-3,1.7281529E-3],"split_indices":[51,80,55,77,80,25,25,0,0,0,0,0,0,0,0],"split_type":[0,0,0,0,0,0,0,0,0,0,0,0,0,0,0],"sum_hessian":[6.2780464E3,3.0861455E3,3.1919011E3,1.4738649E3,1.6122806E3,1.8594797E3,1.3324213E3,1.00503625E3,4.688287E2,1.02339154E3,5.888891E2,6.3023395E2,1.2292457E3,3.248757E2,1.0075456E3],"tree_param":{"num_deleted":"0","num_feature":"106","num_nodes":"15","size_leaf_vector":"1"}},{"base_weights":[1.2266264E-1,2.9669458E-1,-4.5643415E-2,1.5269881E-1,4.2815194E-1,8.3999865E-2,-2.2649626E-1,2.2578845E-3,-4.13183E-5,3.5143786E-3,5.6064646E-3,-1.285037E-3,1.9296628E-3,-3.919374E-3,-1.7281524E-3],"categories":[],"categories_nodes":[],"categories_segments":[],"categories_sizes":[],"default_left":[0,0,0,0,0,0,0,0,0,0,0,0,0,0,0],"id":45,"left_children":[1,3,5,7,9,11,13,-1,-1,-1,-1,-1,-1,-1,-1],"loss_changes":[1.8393076E2,5.83721E1,7.488092E1,1.6906868E1,1.6200684E1,4.3105606E1,1.177446E1,0E0,0E0,0E0,0E0,0E0,0E0,0E0,0E0],"parents":[2147483647,0,0,1,1,2,2,3,3,4,4,5,5,6,6],"right_children":[2,4,6,8,10,12,14,-1,-1,-1,-1,-1,-1,-1,-1],"split_conditions":[1.5E1,1.2E1,5.45E-1,6E0,2.3E1,-4.8E0,-6.1E0,2.2578845E-3,-4.13183E-5,3.5143786E-3,5.6064646E-3,-1.285037E-3,1.9296628E-3,-3.919374E-3,-1.7281524E-3],"split_indices":[51,80,55,77,80,25,25,0,0,0,0,0,0,0,0],"split_type":[0,0,0,0,0,0,0,0,0,0,0,0,0,0,0],"sum_hessian":[6.278047E3,3.0861458E3,3.1919011E3,1.473865E3,1.6122808E3,1.8594797E3,1.3324214E3,1.00503625E3,4.688287E2,1.0233916E3,5.888891E2,6.302339E2,1.2292457E3,3.248757E2,1.0075456E3],"tree_param":{"num_deleted":"0","num_feature":"106","num_nodes":"15","size_leaf_vector":"1"}},{"base_weights":[-1.21479444E-1,-2.3229477E-1,1.3865642E-1,-1.4393398E-1,-4.611335E-1,-1.439494E-1,2.136664E-1,-2.6137574E-4,-2.846738E-3,-3.9738934E-3,-6.0253483E-3,-2.529416E-3,1.0137964E-3,3.5006255E-3,1.3113937E-3],"categories":[],"categories_nodes":[],"categories_segments":[],"categories_sizes":[],"default_left":[0,0,0,0,0,0,0,0,0,0,0,0,0,0,0],"id":46,"left_children":[1,3,5,7,9,11,13,-1,-1,-1,-1,-1,-1,-1,-1],"loss_changes":[1.8097614E2,8.894664E1,3.9793114E1,5.2668114E1,1.080957E1,1.056169E1,1.6643951E1,0E0,0E0,0E0,0E0,0E0,0E0,0E0,0E0],"parents":[2147483647,0,0,1,1,2,2,3,3,4,4,5,5,6,6],"right_children":[2,4,6,8,10,12,14,-1,-1,-1,-1,-1,-1,-1,-1],"split_conditions":[2E1,2E1,3.6E-1,2.9E0,3.7E1,2.7E1,-6.2E0,-2.6137574E-4,-2.846738E-3,-3.9738934E-3,-6.0253483E-3,-2.529416E-3,1.0137964E-3,3.5006255E-3,1.3113937E-3],"split_indices":[28,80,55,25,54,28,25,0,0,0,0,0,0,0,0],"split_type":[0,0,0,0,0,0,0,0,0,0,0,0,0,0,0],"sum_hessian":[6.2758823E3,4.401145E3,1.8747374E3,3.1763137E3,1.2248312E3,3.9303366E2,1.4817037E3,1.7297411E3,1.4465726E3,8.4686993E2,3.779612E2,2.7211172E2,1.2092195E2,5.5733276E2,9.2437103E2],"tree_param":{"num_deleted":"0","num_feature":"106","num_nodes":"15","size_leaf_vector":"1"}},{"base_weights":[1.2147943E-1,2.3229475E-1,-1.3865645E-1,1.4393397E-1,4.6113348E-1,1.4394942E-1,-2.1366642E-1,2.6137548E-4,2.846738E-3,3.9738934E-3,6.0253483E-3,2.529416E-3,-1.0137963E-3,-3.5006257E-3,-1.3113938E-3],"categories":[],"categories_nodes":[],"categories_segments":[],"categories_sizes":[],"default_left":[0,0,0,0,0,0,0,0,0,0,0,0,0,0,0],"id":47,"left_children":[1,3,5,7,9,11,13,-1,-1,-1,-1,-1,-1,-1,-1],"loss_changes":[1.8097615E2,8.8946655E1,3.979312E1,5.266813E1,1.080957E1,1.056169E1,1.6643959E1,0E0,0E0,0E0,0E0,0E0,0E0,0E0,0E0],"parents":[2147483647,0,0,1,1,2,2,3,3,4,4,5,5,6,6],"right_children":[2,4,6,8,10,12,14,-1,-1,-1,-1,-1,-1,-1,-1],"split_conditions":[2E1,2E1,3.6E-1,2.9E0,3.7E1,2.7E1,-6.2E0,2.6137548E-4,2.846738E-3,3.9738934E-3,6.0253483E-3,2.529416E-3,-1.0137963E-3,-3.5006257E-3,-1.3113938E-3],"split_indices":[28,80,55,25,54,28,25,0,0,0,0,0,0,0,0],"split_type":[0,0,0,0,0,0,0,0,0,0,0,0,0,0,0],"sum_hessian":[6.2758823E3,4.401145E3,1.8747374E3,3.1763137E3,1.2248312E3,3.9303366E2,1.4817037E3,1.7297411E3,1.4465726E3,8.4686993E2,3.7796118E2,2.7211172E2,1.2092194E2,5.5733276E2,9.24371E2],"tree_param":{"num_deleted":"0","num_feature":"106","num_nodes":"15","size_leaf_vector":"1"}},{"base_weights":[-1.2030742E-1,8.9672476E-2,-2.5515193E-1,-1.304328E-1,1.8017034E-1,-3.5490263E-1,-4.703625E-2,5.734982E-4,-2.6482898E-3,6.966049E-4,2.6879099E-3,-2.9068058E-3,-5.127861E-3,8.759259E-4,-1.7340775E-3],"categories":[],"categories_nodes":[],"categories_segments":[],"categories_sizes":[],"default_left":[0,0,0,0,0,0,0,0,0,0,0,0,0,0,0],"id":48,"left_children":[1,3,5,7,9,11,13,-1,-1,-1,-1,-1,-1,-1,-1],"loss_changes":[1.776904E2,4.891485E1,7.93114E1,1.80782E1,1.7019672E1,2.6041504E1,2.109911E1,0E0,0E0,0E0,0E0,0E0,0E0,0E0,0E0],"parents":[2147483647,0,0,1,1,2,2,3,3,4,4,5,5,6,6],"right_children":[2,4,6,8,10,12,14,-1,-1,-1,-1,-1,-1,-1,-1],"split_conditions":[4.69E-1,-2.4E0,2.9E0,-4.9E0,2.4E1,2.3E1,3.1E0,5.734982E-4,-2.6482898E-3,6.966049E-4,2.6879099E-3,-2.9068058E-3,-5.127861E-3,8.759259E-4,-1.7340775E-3],"split_indices":[3,77,77,25,51,80,25,0,0,0,0,0,0,0,0],"split_type":[0,0,0,0,0,0,0,0,0,0,0,0,0,0,0],"sum_hessian":[6.2737583E3,2.4535012E3,3.8202573E3,7.147277E2,1.7387734E3,2.5819924E3,1.2382648E3,2.9838623E2,4.1634146E2,7.7461523E2,9.641582E2,1.8374265E3,7.445659E2,5.996933E2,6.385715E2],"tree_param":{"num_deleted":"0","num_feature":"106","num_nodes":"15","size_leaf_vector":"1"}},{"base_weights":[1.2030742E-1,-8.967246E-2,2.5515193E-1,1.304328E-1,-1.8017031E-1,3.5490265E-1,4.7036204E-2,-5.734982E-4,2.6482898E-3,-6.9660513E-4,-2.6879092E-3,2.9068058E-3,5.127862E-3,-8.759262E-4,1.7340769E-3],"categories":[],"categories_nodes":[],"categories_segments":[],"categories_sizes":[],"default_left":[0,0,0,0,0,0,0,0,0,0,0,0,0,0,0],"id":49,"left_children":[1,3,5,7,9,11,13,-1,-1,-1,-1,-1,-1,-1,-1],"loss_changes":[1.7769037E2,4.8914845E1,7.931145E1,1.8078201E1,1.701966E1,2.6041473E1,2.1099108E1,0E0,0E0,0E0,0E0,0E0,0E0,0E0,0E0],"parents":[2147483647,0,0,1,1,2,2,3,3,4,4,5,5,6,6],"right_children":[2,4,6,8,10,12,14,-1,-1,-1,-1,-1,-1,-1,-1],"split_conditions":[4.69E-1,-2.4E0,2.9E0,-4.9E0,2.4E1,2.3E1,3.1E0,-5.734982E-4,2.6482898E-3,-6.9660513E-4,-2.6879092E-3,2.9068058E-3,5.127862E-3,-8.759262E-4,1.7340769E-3],"split_indices":[3,77,77,25,51,80,25,0,0,0,0,0,0,0,0],"split_type":[0,0,0,0,0,0,0,0,0,0,0,0,0,0,0],"sum_hessian":[6.2737583E3,2.4535012E3,3.8202573E3,7.147277E2,1.7387734E3,2.5819924E3,1.2382648E3,2.9838623E2,4.1634146E2,7.7461523E2,9.641582E2,1.8374265E3,7.445659E2,5.996933E2,6.385715E2],"tree_param":{"num_deleted":"0","num_feature":"106","num_nodes":"15","size_leaf_vector":"1"}},{"base_weights":[-1.1915003E-1,4.054293E-2,-2.937266E-1,-1.8612139E-1,1.4296415E-1,-1.6245355E-1,-4.3048218E-1,3.353826E-4,-3.1449872E-3,5.2008923E-4,2.6756024E-3,-2.3541884E-3,5.6501347E-5,-3.5879158E-3,-5.4113274E-3],"categories":[],"categories_nodes":[],"categories_segments":[],"categories_sizes":[],"default_left":[0,0,0,0,0,0,0,0,0,0,0,0,0,0,0],"id":50,"left_children":[1,3,5,7,9,11,13,-1,-1,-1,-1,-1,-1,-1,-1],"loss_changes":[1.7487918E2,7.6097E1,5.3727814E1,2.8781036E1,2.5569454E1,1.8775333E1,1.1443726E1,0E0,0E0,0E0,0E0,0E0,0E0,0E0,0E0],"parents":[2147483647,0,0,1,1,2,2,3,3,4,4,5,5,6,6],"right_children":[2,4,6,8,10,12,14,-1,-1,-1,-1,-1,-1,-1,-1],"split_conditions":[6E-1,-2E0,1.3E1,-4.3E0,2.4E1,6E0,2.3E1,3.353826E-4,-3.1449872E-3,5.2008923E-4,2.6756024E-3,-2.3541884E-3,5.6501347E-5,-3.5879158E-3,-5.4113274E-3],"split_indices":[25,77,80,25,51,77,80,0,0,0,0,0,0,0,0],"split_type":[0,0,0,0,0,0,0,0,0,0,0,0,0,0,0],"sum_hessian":[6.271445E3,3.275744E3,2.995701E3,1.01925464E3,2.256489E3,1.5296055E3,1.4660955E3,3.7623593E2,6.4301874E2,1.3051478E3,9.513413E2,1.0663545E3,4.6325098E2,8.9224927E2,5.7384625E2],"tree_param":{"num_deleted":"0","num_feature":"106","num_nodes":"15","size_leaf_vector":"1"}},{"base_weights":[1.19150035E-1,-4.0542927E-2,2.937266E-1,1.8612139E-1,-1.4296414E-1,1.6245356E-1,4.3048218E-1,-3.3538294E-4,3.1449872E-3,-5.200892E-4,-2.6756024E-3,2.3541886E-3,-5.65008E-5,3.5879158E-3,5.411328E-3],"categories":[],"categories_nodes":[],"categories_segments":[],"categories_sizes":[],"default_left":[0,0,0,0,0,0,0,0,0,0,0,0,0,0,0],"id":51,"left_children":[1,3,5,7,9,11,13,-1,-1,-1,-1,-1,-1,-1,-1],"loss_changes":[1.748792E2,7.609699E1,5.3727783E1,2.8781036E1,2.556945E1,1.8775326E1,1.1443726E1,0E0,0E0,0E0,0E0,0E0,0E0,0E0,0E0],"parents":[2147483647,0,0,1,1,2,2,3,3,4,4,5,5,6,6],"right_children":[2,4,6,8,10,12,14,-1,-1,-1,-1,-1,-1,-1,-1],"split_conditions":[6E-1,-2E0,1.3E1,-4.3E0,2.4E1,6E0,2.3E1,-3.3538294E-4,3.1449872E-3,-5.200892E-4,-2.6756024E-3,2.3541886E-3,-5.65008E-5,3.5879158E-3,5.411328E-3],"split_indices":[25,77,80,25,51,77,80,0,0,0,0,0,0,0,0],"split_type":[0,0,0,0,0,0,0,0,0,0,0,0,0,0,0],"sum_hessian":[6.271445E3,3.2757437E3,2.995701E3,1.01925464E3,2.256489E3,1.5296055E3,1.4660955E3,3.7623593E2,6.4301874E2,1.3051478E3,9.513413E2,1.0663545E3,4.6325095E2,8.9224927E2,5.7384625E2],"tree_param":{"num_deleted":"0","num_feature":"106","num_nodes":"15","size_leaf_vector":"1"}},{"base_weights":[-1.1800683E-1,-2.8635734E-1,4.4597354E-2,-1.4647862E-1,-4.1440687E-1,-8.167628E-2,2.2071443E-1,-2.26711E-3,-9.948954E-5,-3.4009274E-3,-5.4320865E-3,1.2300762E-3,-1.8667057E-3,1.1723334E-3,3.008511E-3],"categories":[],"categories_nodes":[],"categories_segments":[],"categories_sizes":[],"default_left":[0,0,0,0,0,0,0,0,0,0,0,0,0,0,0],"id":52,"left_children":[1,3,5,7,9,11,13,-1,-1,-1,-1,-1,-1,-1,-1],"loss_changes":[1.7165091E2,5.5119034E1,7.09669E1,1.6142895E1,1.5204895E1,3.996998E1,1.1014572E1,0E0,0E0,0E0,0E0,0E0,0E0,0E0,0E0],"parents":[2147483647,0,0,1,1,2,2,3,3,4,4,5,5,6,6],"right_children":[2,4,6,8,10,12,14,-1,-1,-1,-1,-1,-1,-1,-1],"split_conditions":[1.5E1,1.2E1,5.45E-1,5.4E0,2.3E1,-4.8E0,2E1,-2.26711E-3,-9.948954E-5,-3.4009274E-3,-5.4320865E-3,1.2300762E-3,-1.8667057E-3,1.1723334E-3,3.008511E-3],"split_indices":[51,80,55,77,80,25,28,0,0,0,0,0,0,0,0],"split_type":[0,0,0,0,0,0,0,0,0,0,0,0,0,0,0],"sum_hessian":[6.269002E3,3.0797031E3,3.1892988E3,1.4728909E3,1.6068123E3,1.8578097E3,1.331489E3,9.272985E2,5.455923E2,1.02123553E3,5.855768E2,6.2981964E2,1.2279901E3,5.821794E2,7.4930963E2],"tree_param":{"num_deleted":"0","num_feature":"106","num_nodes":"15","size_leaf_vector":"1"}},{"base_weights":[1.1800685E-1,2.8635734E-1,-4.4597346E-2,1.464786E-1,4.1440693E-1,8.167629E-2,-2.2071443E-1,2.2671095E-3,9.9489516E-5,3.400928E-3,5.4320865E-3,-1.2300763E-3,1.8667058E-3,-1.1723336E-3,-3.008511E-3],"categories":[],"categories_nodes":[],"categories_segments":[],"categories_sizes":[],"default_left":[0,0,0,0,0,0,0,0,0,0,0,0,0,0,0],"id":53,"left_children":[1,3,5,7,9,11,13,-1,-1,-1,-1,-1,-1,-1,-1],"loss_changes":[1.7165091E2,5.511908E1,7.09669E1,1.6142881E1,1.52048645E1,3.9969982E1,1.10145645E1,0E0,0E0,0E0,0E0,0E0,0E0,0E0,0E0],"parents":[2147483647,0,0,1,1,2,2,3,3,4,4,5,5,6,6],"right_children":[2,4,6,8,10,12,14,-1,-1,-1,-1,-1,-1,-1,-1],"split_conditions":[1.5E1,1.2E1,5.45E-1,5.4E0,2.3E1,-4.8E0,2E1,2.2671095E-3,9.9489516E-5,3.400928E-3,5.4320865E-3,-1.2300763E-3,1.8667058E-3,-1.1723336E-3,-3.008511E-3],"split_indices":[51,80,55,77,80,25,28,0,0,0,0,0,0,0,0],"split_type":[0,0,0,0,0,0,0,0,0,0,0,0,0,0,0],"sum_hessian":[6.269002E3,3.0797031E3,3.1892986E3,1.4728909E3,1.6068123E3,1.8578098E3,1.3314889E3,9.272985E2,5.455923E2,1.02123553E3,5.855768E2,6.2981964E2,1.2279901E3,5.821793E2,7.493096E2],"tree_param":{"num_deleted":"0","num_feature":"106","num_nodes":"15","size_leaf_vector":"1"}},{"base_weights":[-1.16873465E-1,-2.2399509E-1,1.3438514E-1,-1.3837634E-1,-4.4643012E-1,-1.401883E-1,2.0727603E-1,-3.0204845E-3,-4.2005882E-4,-3.8329763E-3,-5.866447E-3,-2.4646432E-3,9.88323E-4,3.40261E-3,1.268938E-3],"categories":[],"categories_nodes":[],"categories_segments":[],"categories_sizes":[],"default_left":[0,0,0,0,0,0,0,0,0,0,0,0,0,0,0],"id":54,"left_children":[1,3,5,7,9,11,13,-1,-1,-1,-1,-1,-1,-1,-1],"loss_changes":[1.6872382E2,8.363078E1,3.7535908E1,5.0060856E1,1.0583084E1,1.0025993E1,1.5791454E1,0E0,0E0,0E0,0E0,0E0,0E0,0E0,0E0],"parents":[2147483647,0,0,1,1,2,2,3,3,4,4,5,5,6,6],"right_children":[2,4,6,8,10,12,14,-1,-1,-1,-1,-1,-1,-1,-1],"split_conditions":[2E1,2E1,3.6E-1,8E0,3.7E1,2.7E1,-6.2E0,-3.0204845E-3,-4.2005882E-4,-3.8329763E-3,-5.866447E-3,-2.4646432E-3,9.88323E-4,3.40261E-3,1.268938E-3],"split_indices":[28,80,55,51,54,28,25,0,0,0,0,0,0,0,0],"split_type":[0,0,0,0,0,0,0,0,0,0,0,0,0,0,0],"sum_hessian":[6.2665938E3,4.3935537E3,1.8730398E3,3.1736052E3,1.2199486E3,3.927317E2,1.4803081E3,1.1753312E3,1.998274E3,8.437699E2,3.7617868E2,2.7183444E2,1.2089724E2,5.564613E2,9.2384674E2],"tree_param":{"num_deleted":"0","num_feature":"106","num_nodes":"15","size_leaf_vector":"1"}},{"base_weights":[1.1687346E-1,2.2399507E-1,-1.3438514E-1,1.3837634E-1,4.4643012E-1,1.4018826E-1,-2.0727603E-1,3.020484E-3,4.2005882E-4,3.832976E-3,5.8664475E-3,2.4646425E-3,-9.883227E-4,-3.4026098E-3,-1.268938E-3],"categories":[],"categories_nodes":[],"categories_segments":[],"categories_sizes":[],"default_left":[0,0,0,0,0,0,0,0,0,0,0,0,0,0,0],"id":55,"left_children":[1,3,5,7,9,11,13,-1,-1,-1,-1,-1,-1,-1,-1],"loss_changes":[1.6872382E2,8.363078E1,3.7535896E1,5.006085E1,1.0583084E1,1.0025988E1,1.57914505E1,0E0,0E0,0E0,0E0,0E0,0E0,0E0,0E0],"parents":[2147483647,0,0,1,1,2,2,3,3,4,4,5,5,6,6],"right_children":[2,4,6,8,10,12,14,-1,-1,-1,-1,-1,-1,-1,-1],"split_conditions":[2E1,2E1,3.6E-1,8E0,3.7E1,2.7E1,-6.2E0,3.020484E-3,4.2005882E-4,3.832976E-3,5.8664475E-3,2.4646425E-3,-9.883227E-4,-3.4026098E-3,-1.268938E-3],"split_indices":[28,80,55,51,54,28,25,0,0,0,0,0,0,0,0],"split_type":[0,0,0,0,0,0,0,0,0,0,0,0,0,0,0],"sum_hessian":[6.2665938E3,4.3935537E3,1.8730397E3,3.1736052E3,1.2199486E3,3.9273166E2,1.480308E3,1.1753312E3,1.9982742E3,8.437699E2,3.7617868E2,2.7183444E2,1.2089724E2,5.564613E2,9.2384674E2],"tree_param":{"num_deleted":"0","num_feature":"106","num_nodes":"15","size_leaf_vector":"1"}},{"base_weights":[-1.15750186E-1,3.978008E-2,-2.859572E-1,-1.8196882E-1,1.3993473E-1,-1.5759346E-1,-4.199886E-1,3.1958046E-4,-3.0715135E-3,5.1477173E-4,2.6121633E-3,-2.2926715E-3,7.416047E-5,-3.4999254E-3,-5.2831895E-3],"categories":[],"categories_nodes":[],"categories_segments":[],"categories_sizes":[],"default_left":[0,0,0,0,0,0,0,0,0,0,0,0,0,0,0],"id":56,"left_children":[1,3,5,7,9,11,13,-1,-1,-1,-1,-1,-1,-1,-1],"loss_changes":[1.6586717E2,7.275274E1,5.140361E1,2.7306152E1,2.4193443E1,1.8093327E1,1.0907745E1,0E0,0E0,0E0,0E0,0E0,0E0,0E0,0E0],"parents":[2147483647,0,0,1,1,2,2,3,3,4,4,5,5,6,6],"right_children":[2,4,6,8,10,12,14,-1,-1,-1,-1,-1,-1,-1,-1],"split_conditions":[6E-1,-2E0,1.3E1,-4.3E0,2.4E1,6E0,2.3E1,3.1958046E-4,-3.0715135E-3,5.1477173E-4,2.6121633E-3,-2.2926715E-3,7.416047E-5,-3.4999254E-3,-5.2831895E-3],"split_indices":[25,77,80,25,51,77,80,0,0,0,0,0,0,0,0],"split_type":[0,0,0,0,0,0,0,0,0,0,0,0,0,0,0],"sum_hessian":[6.264248E3,3.2736484E3,2.9905996E3,1.01828424E3,2.2553643E3,1.5287092E3,1.4618903E3,3.761754E2,6.421088E2,1.3049873E3,9.5037695E2,1.0655056E3,4.6320352E2,8.906444E2,5.712459E2],"tree_param":{"num_deleted":"0","num_feature":"106","num_nodes":"15","size_leaf_vector":"1"}},{"base_weights":[1.15750186E-1,-3.9780073E-2,2.859572E-1,1.8196884E-1,-1.3993473E-1,1.5759346E-1,4.1998857E-1,-3.1958031E-4,3.0715135E-3,-5.147716E-4,-2.6121633E-3,2.2926717E-3,-7.4160846E-5,3.4999254E-3,5.2831885E-3],"categories":[],"categories_nodes":[],"categories_segments":[],"categories_sizes":[],"default_left":[0,0,0,0,0,0,0,0,0,0,0,0,0,0,0],"id":57,"left_children":[1,3,5,7,9,11,13,-1,-1,-1,-1,-1,-1,-1,-1],"loss_changes":[1.6586713E2,7.275274E1,5.140361E1,2.7306152E1,2.419345E1,1.8093338E1,1.0907745E1,0E0,0E0,0E0,0E0,0E0,0E0,0E0,0E0],"parents":[2147483647,0,0,1,1,2,2,3,3,4,4,5,5,6,6],"right_children":[2,4,6,8,10,12,14,-1,-1,-1,-1,-1,-1,-1,-1],"split_conditions":[6E-1,-2E0,1.3E1,-4.3E0,2.4E1,6E0,2.3E1,-3.1958031E-4,3.0715135E-3,-5.147716E-4,-2.6121633E-3,2.2926717E-3,-7.4160846E-5,3.4999254E-3,5.2831885E-3],"split_indices":[25,77,80,25,51,77,80,0,0,0,0,0,0,0,0],"split_type":[0,0,0,0,0,0,0,0,0,0,0,0,0,0,0],"sum_hessian":[6.264248E3,3.2736484E3,2.9905996E3,1.01828424E3,2.2553643E3,1.5287092E3,1.4618904E3,3.7617545E2,6.421088E2,1.3049873E3,9.5037695E2,1.0655056E3,4.6320352E2,8.906444E2,5.712459E2],"tree_param":{"num_deleted":"0","num_feature":"106","num_nodes":"15","size_leaf_vector":"1"}},{"base_weights":[-1.1464295E-1,-2.1993907E-1,1.3223083E-1,-9.32504E-2,-3.6601394E-1,-1.3774027E-1,2.039062E-1,-2.3912536E-3,1.6439256E-4,-4.93919E-3,-2.9724021E-3,-2.4246012E-3,9.766053E-4,3.349351E-3,1.2475919E-3],"categories":[],"categories_nodes":[],"categories_segments":[],"categories_sizes":[],"default_left":[0,0,0,0,0,0,0,0,0,0,0,0,0,0,0],"id":58,"left_children":[1,3,5,7,9,11,13,-1,-1,-1,-1,-1,-1,-1,-1],"loss_changes":[1.6282516E2,8.121706E1,3.6273144E1,3.7648293E1,1.7788391E1,9.725443E0,1.5312218E1,0E0,0E0,0E0,0E0,0E0,0E0,0E0,0E0],"parents":[2147483647,0,0,1,1,2,2,3,3,4,4,5,5,6,6],"right_children":[2,4,6,8,10,12,14,-1,-1,-1,-1,-1,-1,-1,-1],"split_conditions":[2E1,1.4E1,3.6E-1,9E0,8E0,2.7E1,-6.2E0,-2.3912536E-3,1.6439256E-4,-4.93919E-3,-2.9724021E-3,-2.4246012E-3,9.766053E-4,3.349351E-3,1.2475919E-3],"split_indices":[28,80,55,51,51,28,25,0,0,0,0,0,0,0,0],"split_type":[0,0,0,0,0,0,0,0,0,0,0,0,0,0,0],"sum_hessian":[6.2616284E3,4.389526E3,1.8721028E3,2.3516294E3,2.0378965E3,3.925624E2,1.4795404E3,1.0088251E3,1.3428043E3,7.104403E2,1.327456E3,2.7167548E2,1.2088692E2,5.559409E2,9.235995E2],"tree_param":{"num_deleted":"0","num_feature":"106","num_nodes":"15","size_leaf_vector":"1"}},{"base_weights":[1.1464297E-1,2.1993908E-1,-1.3223082E-1,9.3250416E-2,3.6601397E-1,1.3774033E-1,-2.0390616E-1,2.3912536E-3,-1.6439246E-4,4.93919E-3,2.9724026E-3,2.424602E-3,-9.766055E-4,-3.3493515E-3,-1.2475913E-3],"categories":[],"categories_nodes":[],"categories_segments":[],"categories_sizes":[],"default_left":[0,0,0,0,0,0,0,0,0,0,0,0,0,0,0],"id":59,"left_children":[1,3,5,7,9,11,13,-1,-1,-1,-1,-1,-1,-1,-1],"loss_changes":[1.628252E2,8.121706E1,3.6273148E1,3.76483E1,1.778833E1,9.725447E0,1.5312237E1,0E0,0E0,0E0,0E0,0E0,0E0,0E0,0E0],"parents":[2147483647,0,0,1,1,2,2,3,3,4,4,5,5,6,6],"right_children":[2,4,6,8,10,12,14,-1,-1,-1,-1,-1,-1,-1,-1],"split_conditions":[2E1,1.4E1,3.6E-1,9E0,8E0,2.7E1,-6.2E0,2.3912536E-3,-1.6439246E-4,4.93919E-3,2.9724026E-3,2.424602E-3,-9.766055E-4,-3.3493515E-3,-1.2475913E-3],"split_indices":[28,80,55,51,51,28,25,0,0,0,0,0,0,0,0],"split_type":[0,0,0,0,0,0,0,0,0,0,0,0,0,0,0],"sum_hessian":[6.2616284E3,4.389526E3,1.8721028E3,2.3516294E3,2.0378965E3,3.9256238E2,1.4795404E3,1.0088251E3,1.3428042E3,7.1044037E2,1.327456E3,2.7167548E2,1.2088691E2,5.559409E2,9.235995E2],"tree_param":{"num_deleted":"0","num_feature":"106","num_nodes":"15","size_leaf_vector":"1"}},{"base_weights":[-1.1354335E-1,-2.7638182E-1,4.3511126E-2,-1.4057353E-1,-4.010858E-1,-7.957048E-2,2.1514466E-1,-2.1076687E-3,9.800742E-5,-3.2846315E-3,-5.273949E-3,1.1785516E-3,-1.8086925E-3,3.700129E-3,1.6505322E-3],"categories":[],"categories_nodes":[],"categories_segments":[],"categories_sizes":[],"default_left":[0,0,0,0,0,0,0,0,0,0,0,0,0,0,0],"id":60,"left_children":[1,3,5,7,9,11,13,-1,-1,-1,-1,-1,-1,-1,-1],"loss_changes":[1.6011197E2,5.199774E1,6.735342E1,1.5548275E1,1.4519684E1,3.716048E1,1.0267929E1,0E0,0E0,0E0,0E0,0E0,0E0,0E0,0E0],"parents":[2147483647,0,0,1,1,2,2,3,3,4,4,5,5,6,6],"right_children":[2,4,6,8,10,12,14,-1,-1,-1,-1,-1,-1,-1,-1],"split_conditions":[1.5E1,1.2E1,5.45E-1,6E0,2.3E1,-4.8E0,-6.1E0,-2.1076687E-3,9.800742E-5,-3.2846315E-3,-5.273949E-3,1.1785516E-3,-1.8086925E-3,3.700129E-3,1.6505322E-3],"split_indices":[51,80,55,77,80,25,25,0,0,0,0,0,0,0,0],"split_type":[0,0,0,0,0,0,0,0,0,0,0,0,0,0,0],"sum_hessian":[6.2591367E3,3.0726094E3,3.1865273E3,1.4718381E3,1.6007714E3,1.8560532E3,1.330474E3,1.0031672E3,4.6867102E2,1.01867487E3,5.8209644E2,6.2934045E2,1.2267128E3,3.2360223E2,1.00687177E3],"tree_param":{"num_deleted":"0","num_feature":"106","num_nodes":"15","size_leaf_vector":"1"}},{"base_weights":[1.1354334E-1,2.7638182E-1,-4.3511126E-2,1.4057353E-1,4.010858E-1,7.9570465E-2,-2.1514465E-1,2.1076687E-3,-9.800744E-5,3.2846315E-3,5.2739484E-3,-1.178552E-3,1.8086925E-3,-3.70013E-3,-1.650532E-3],"categories":[],"categories_nodes":[],"categories_segments":[],"categories_sizes":[],"default_left":[0,0,0,0,0,0,0,0,0,0,0,0,0,0,0],"id":61,"left_children":[1,3,5,7,9,11,13,-1,-1,-1,-1,-1,-1,-1,-1],"loss_changes":[1.6011194E2,5.1997772E1,6.73534E1,1.5548275E1,1.4519653E1,3.7160492E1,1.02679405E1,0E0,0E0,0E0,0E0,0E0,0E0,0E0,0E0],"parents":[2147483647,0,0,1,1,2,2,3,3,4,4,5,5,6,6],"right_children":[2,4,6,8,10,12,14,-1,-1,-1,-1,-1,-1,-1,-1],"split_conditions":[1.5E1,1.2E1,5.45E-1,6E0,2.3E1,-4.8E0,-6.1E0,2.1076687E-3,-9.800744E-5,3.2846315E-3,5.2739484E-3,-1.178552E-3,1.8086925E-3,-3.70013E-3,-1.650532E-3],"split_indices":[51,80,55,77,80,25,25,0,0,0,0,0,0,0,0],"split_type":[0,0,0,0,0,0,0,0,0,0,0,0,0,0,0],"sum_hessian":[6.2591367E3,3.0726094E3,3.1865273E3,1.4718381E3,1.6007712E3,1.8560533E3,1.330474E3,1.0031672E3,4.6867102E2,1.0186748E3,5.8209644E2,6.2934045E2,1.2267128E3,3.2360223E2,1.00687177E3],"tree_param":{"num_deleted":"0","num_feature":"106","num_nodes":"15","size_leaf_vector":"1"}},{"base_weights":[-1.1245671E-1,8.521847E-2,-2.3964654E-1,-1.23095945E-1,1.708514E-1,-3.352512E-1,-4.0980402E-2,5.292909E-4,-2.4938236E-3,4.7696635E-4,2.417271E-3,-2.7442111E-3,-4.8573506E-3,8.825694E-4,-1.624225E-3],"categories":[],"categories_nodes":[],"categories_segments":[],"categories_sizes":[],"default_left":[0,0,0,0,0,0,0,0,0,0,0,0,0,0,0],"id":62,"left_children":[1,3,5,7,9,11,13,-1,-1,-1,-1,-1,-1,-1,-1],"loss_changes":[1.5734836E2,4.3737152E1,7.2310394E1,1.5896375E1,1.5151455E1,2.3397797E1,1.9448656E1,0E0,0E0,0E0,0E0,0E0,0E0,0E0,0E0],"parents":[2147483647,0,0,1,1,2,2,3,3,4,4,5,5,6,6],"right_children":[2,4,6,8,10,12,14,-1,-1,-1,-1,-1,-1,-1,-1],"split_conditions":[4.69E-1,-2.4E0,2.9E0,-4.9E0,1.7E1,2.3E1,3.1E0,5.292909E-4,-2.4938236E-3,4.7696635E-4,2.417271E-3,-2.7442111E-3,-4.8573506E-3,8.825694E-4,-1.624225E-3],"split_indices":[3,77,77,25,47,80,25,0,0,0,0,0,0,0,0],"split_type":[0,0,0,0,0,0,0,0,0,0,0,0,0,0,0],"sum_hessian":[6.2565063E3,2.4496511E3,3.806855E3,7.135065E2,1.7361445E3,2.5695945E3,1.2372606E3,2.9830014E2,4.1520636E2,6.3479224E2,1.1013524E3,1.8319067E3,7.376877E2,5.995255E2,6.377351E2],"tree_param":{"num_deleted":"0","num_feature":"106","num_nodes":"15","size_leaf_vector":"1"}},{"base_weights":[1.1245671E-1,-8.5218474E-2,2.3964654E-1,1.2309592E-1,-1.708514E-1,3.3525118E-1,4.098042E-2,-5.292909E-4,2.4938234E-3,-4.769663E-4,-2.417271E-3,2.744211E-3,4.8573506E-3,-8.8256906E-4,1.6242252E-3],"categories":[],"categories_nodes":[],"categories_segments":[],"categories_sizes":[],"default_left":[0,0,0,0,0,0,0,0,0,0,0,0,0,0,0],"id":63,"left_children":[1,3,5,7,9,11,13,-1,-1,-1,-1,-1,-1,-1,-1],"loss_changes":[1.5734836E2,4.3737144E1,7.231036E1,1.589637E1,1.5151447E1,2.3397827E1,1.9448652E1,0E0,0E0,0E0,0E0,0E0,0E0,0E0,0E0],"parents":[2147483647,0,0,1,1,2,2,3,3,4,4,5,5,6,6],"right_children":[2,4,6,8,10,12,14,-1,-1,-1,-1,-1,-1,-1,-1],"split_conditions":[4.69E-1,-2.4E0,2.9E0,-4.9E0,1.7E1,2.3E1,3.1E0,-5.292909E-4,2.4938234E-3,-4.769663E-4,-2.417271E-3,2.744211E-3,4.8573506E-3,-8.8256906E-4,1.6242252E-3],"split_indices":[3,77,77,25,47,80,25,0,0,0,0,0,0,0,0],"split_type":[0,0,0,0,0,0,0,0,0,0,0,0,0,0,0],"sum_hessian":[6.2565063E3,2.4496511E3,3.806855E3,7.135065E2,1.7361445E3,2.5695945E3,1.2372606E3,2.9830014E2,4.1520636E2,6.3479224E2,1.1013524E3,1.8319069E3,7.376876E2,5.995255E2,6.377351E2],"tree_param":{"num_deleted":"0","num_feature":"106","num_nodes":"15","size_leaf_vector":"1"}},{"base_weights":[-1.1138029E-1,3.891414E-2,-2.7610922E-1,-1.7652056E-1,1.3615628E-1,-1.5187372E-1,-4.0626758E-1,3.023846E-4,-2.9772148E-3,5.0782604E-4,2.5334524E-3,-2.2193752E-3,9.275256E-5,-3.3789405E-3,-5.1247E-3],"categories":[],"categories_nodes":[],"categories_segments":[],"categories_sizes":[],"default_left":[0,0,0,0,0,0,0,0,0,0,0,0,0,0,0],"id":64,"left_children":[1,3,5,7,9,11,13,-1,-1,-1,-1,-1,-1,-1,-1],"loss_changes":[1.5486864E2,6.856247E1,4.819487E1,2.5517159E1,2.2545288E1,1.7259624E1,1.0405304E1,0E0,0E0,0E0,0E0,0E0,0E0,0E0,0E0],"parents":[2147483647,0,0,1,1,2,2,3,3,4,4,5,5,6,6],"right_children":[2,4,6,8,10,12,14,-1,-1,-1,-1,-1,-1,-1,-1],"split_conditions":[6E-1,-2E0,1.3E1,-4.3E0,2.4E1,6E0,2.3E1,3.023846E-4,-2.9772148E-3,5.0782604E-4,2.5334524E-3,-2.2193752E-3,9.275256E-5,-3.3789405E-3,-5.1247E-3],"split_indices":[25,77,80,25,51,77,80,0,0,0,0,0,0,0,0],"split_type":[0,0,0,0,0,0,0,0,0,0,0,0,0,0,0],"sum_hessian":[6.253903E3,3.270629E3,2.983274E3,1.01690826E3,2.2537207E3,1.5274744E3,1.4557996E3,3.760861E2,6.4082214E2,1.3046787E3,9.4904193E2,1.0643448E3,4.6312946E2,8.881725E2,5.676271E2],"tree_param":{"num_deleted":"0","num_feature":"106","num_nodes":"15","size_leaf_vector":"1"}},{"base_weights":[1.1138028E-1,-3.8914137E-2,2.761092E-1,1.7652056E-1,-1.3615626E-1,1.5187368E-1,4.0626755E-1,-3.023846E-4,2.9772148E-3,-5.0782616E-4,-2.5334521E-3,2.219375E-3,-9.2752925E-5,3.37894E-3,5.1247E-3],"categories":[],"categories_nodes":[],"categories_segments":[],"categories_sizes":[],"default_left":[0,0,0,0,0,0,0,0,0,0,0,0,0,0,0],"id":65,"left_children":[1,3,5,7,9,11,13,-1,-1,-1,-1,-1,-1,-1,-1],"loss_changes":[1.5486859E2,6.856246E1,4.8194885E1,2.5517153E1,2.2545269E1,1.725962E1,1.0405304E1,0E0,0E0,0E0,0E0,0E0,0E0,0E0,0E0],"parents":[2147483647,0,0,1,1,2,2,3,3,4,4,5,5,6,6],"right_children":[2,4,6,8,10,12,14,-1,-1,-1,-1,-1,-1,-1,-1],"split_conditions":[6E-1,-2E0,1.3E1,-4.3E0,2.4E1,6E0,2.3E1,-3.023846E-4,2.9772148E-3,-5.0782616E-4,-2.5334521E-3,2.219375E-3,-9.2752925E-5,3.37894E-3,5.1247E-3],"split_indices":[25,77,80,25,51,77,80,0,0,0,0,0,0,0,0],"split_type":[0,0,0,0,0,0,0,0,0,0,0,0,0,0,0],"sum_hessian":[6.253903E3,3.270629E3,2.983274E3,1.01690826E3,2.2537207E3,1.5274744E3,1.4557996E3,3.760861E2,6.4082214E2,1.3046788E3,9.4904193E2,1.0643448E3,4.6312946E2,8.881725E2,5.676271E2],"tree_param":{"num_deleted":"0","num_feature":"106","num_nodes":"15","size_leaf_vector":"1"}},{"base_weights":[-1.1031862E-1,-2.1226983E-1,1.2847428E-1,-1.3042395E-1,-4.259962E-1,-1.3312463E-4,2.7101544E-1,-2.8819903E-3,-3.7683203E-4,-3.6336454E-3,-5.653501E-3,1.1778309E-3,-1.2479742E-3,3.994907E-3,1.9627954E-3],"categories":[],"categories_nodes":[],"categories_segments":[],"categories_sizes":[],"default_left":[0,0,0,0,0,0,0,0,0,0,0,0,0,0,0],"id":66,"left_children":[1,3,5,7,9,11,13,-1,-1,-1,-1,-1,-1,-1,-1],"loss_changes":[1.522355E2,7.6593994E1,3.4303596E1,4.637181E1,1.0380859E1,1.4489832E1,8.443565E0,0E0,0E0,0E0,0E0,0E0,0E0,0E0,0E0],"parents":[2147483647,0,0,1,1,2,2,3,3,4,4,5,5,6,6],"right_children":[2,4,6,8,10,12,14,-1,-1,-1,-1,-1,-1,-1,-1],"split_conditions":[2E1,2E1,5.14E-1,8E0,3.7E1,-4.8E0,-6.2E0,-2.8819903E-3,-3.7683203E-4,-3.6336454E-3,-5.653501E-3,1.1778309E-3,-1.2479742E-3,3.994907E-3,1.9627954E-3],"split_indices":[28,80,55,51,54,25,25,0,0,0,0,0,0,0,0],"split_type":[0,0,0,0,0,0,0,0,0,0,0,0,0,0,0],"sum_hessian":[6.251077E3,4.3808223E3,1.8702548E3,3.1689084E3,1.2119138E3,9.837068E2,8.86548E2,1.1723469E3,1.9965616E3,8.3861255E2,3.7330127E2,5.0556412E2,4.7814267E2,3.2445172E2,5.620962E2],"tree_param":{"num_deleted":"0","num_feature":"106","num_nodes":"15","size_leaf_vector":"1"}},{"base_weights":[1.1031863E-1,2.1226983E-1,-1.2847425E-1,1.3042395E-1,4.259962E-1,1.3313077E-4,-2.710154E-1,2.88199E-3,3.7683218E-4,3.6336451E-3,5.653501E-3,-1.1778306E-3,1.2479741E-3,-3.9949063E-3,-1.962795E-3],"categories":[],"categories_nodes":[],"categories_segments":[],"categories_sizes":[],"default_left":[0,0,0,0,0,0,0,0,0,0,0,0,0,0,0],"id":67,"left_children":[1,3,5,7,9,11,13,-1,-1,-1,-1,-1,-1,-1,-1],"loss_changes":[1.5223546E2,7.659401E1,3.430359E1,4.6371788E1,1.0380844E1,1.4489828E1,8.443565E0,0E0,0E0,0E0,0E0,0E0,0E0,0E0,0E0],"parents":[2147483647,0,0,1,1,2,2,3,3,4,4,5,5,6,6],"right_children":[2,4,6,8,10,12,14,-1,-1,-1,-1,-1,-1,-1,-1],"split_conditions":[2E1,2E1,5.14E-1,8E0,3.7E1,-4.8E0,-6.2E0,2.88199E-3,3.7683218E-4,3.6336451E-3,5.653501E-3,-1.1778306E-3,1.2479741E-3,-3.9949063E-3,-1.962795E-3],"split_indices":[28,80,55,51,54,25,25,0,0,0,0,0,0,0,0],"split_type":[0,0,0,0,0,0,0,0,0,0,0,0,0,0,0],"sum_hessian":[6.251077E3,4.3808223E3,1.8702548E3,3.1689084E3,1.2119138E3,9.837068E2,8.865479E2,1.1723469E3,1.9965616E3,8.3861255E2,3.733013E2,5.0556415E2,4.7814267E2,3.2445172E2,5.620962E2],"tree_param":{"num_deleted":"0","num_feature":"106","num_nodes":"15","size_leaf_vector":"1"}},{"base_weights":[-1.0926323E-1,-2.66932E-1,4.2570096E-2,-1.3495831E-1,-3.8851324E-1,-7.7052616E-2,2.0935965E-1,-2.1206504E-3,-3.9691993E-5,-3.180421E-3,-5.116016E-3,1.1323149E-3,-1.7474184E-3,3.5935193E-3,1.6093644E-3],"categories":[],"categories_nodes":[],"categories_segments":[],"categories_sizes":[],"default_left":[0,0,0,0,0,0,0,0,0,0,0,0,0,0,0],"id":68,"left_children":[1,3,5,7,9,11,13,-1,-1,-1,-1,-1,-1,-1,-1],"loss_changes":[1.4961896E2,4.9142197E1,6.35526E1,1.4863235E1,1.3674927E1,3.4505424E1,9.604301E0,0E0,0E0,0E0,0E0,0E0,0E0,0E0,0E0],"parents":[2147483647,0,0,1,1,2,2,3,3,4,4,5,5,6,6],"right_children":[2,4,6,8,10,12,14,-1,-1,-1,-1,-1,-1,-1,-1],"split_conditions":[1.5E1,1.2E1,5.45E-1,5.4E0,2.3E1,-4.8E0,-6.1E0,-2.1206504E-3,-3.9691993E-5,-3.180421E-3,-5.116016E-3,1.1323149E-3,-1.7474184E-3,3.5935193E-3,1.6093644E-3],"split_indices":[51,80,55,77,80,25,25,0,0,0,0,0,0,0,0],"split_type":[0,0,0,0,0,0,0,0,0,0,0,0,0,0,0],"sum_hessian":[6.248436E3,3.064941E3,3.183495E3,1.4706708E3,1.5942703E3,1.8541925E3,1.3293027E3,9.253467E2,5.4532404E2,1.0161074E3,5.781629E2,6.28944E2,1.2252485E3,3.228486E2,1.0064541E3],"tree_param":{"num_deleted":"0","num_feature":"106","num_nodes":"15","size_leaf_vector":"1"}},{"base_weights":[1.0926325E-1,2.6693204E-1,-4.2570077E-2,1.3495834E-1,3.8851327E-1,7.705264E-2,-2.0935963E-1,2.1206506E-3,3.969209E-5,3.180421E-3,5.1160166E-3,-1.1323149E-3,1.7474188E-3,-3.5935184E-3,-1.6093644E-3],"categories":[],"categories_nodes":[],"categories_segments":[],"categories_sizes":[],"default_left":[0,0,0,0,0,0,0,0,0,0,0,0,0,0,0],"id":69,"left_children":[1,3,5,7,9,11,13,-1,-1,-1,-1,-1,-1,-1,-1],"loss_changes":[1.4961899E2,4.9142212E1,6.3552597E1,1.4863241E1,1.3674927E1,3.4505424E1,9.60429E0,0E0,0E0,0E0,0E0,0E0,0E0,0E0,0E0],"parents":[2147483647,0,0,1,1,2,2,3,3,4,4,5,5,6,6],"right_children":[2,4,6,8,10,12,14,-1,-1,-1,-1,-1,-1,-1,-1],"split_conditions":[1.5E1,1.2E1,5.45E-1,5.4E0,2.3E1,-4.8E0,-6.1E0,2.1206506E-3,3.969209E-5,3.180421E-3,5.1160166E-3,-1.1323149E-3,1.7474188E-3,-3.5935184E-3,-1.6093644E-3],"split_indices":[51,80,55,77,80,25,25,0,0,0,0,0,0,0,0],"split_type":[0,0,0,0,0,0,0,0,0,0,0,0,0,0,0],"sum_hessian":[6.248436E3,3.0649412E3,3.183495E3,1.4706708E3,1.5942703E3,1.8541925E3,1.3293027E3,9.253467E2,5.4532404E2,1.0161074E3,5.781629E2,6.28944E2,1.2252485E3,3.2284863E2,1.0064541E3],"tree_param":{"num_deleted":"0","num_feature":"106","num_nodes":"15","size_leaf_vector":"1"}},{"base_weights":[-1.0822101E-1,-2.08493E-1,1.2651785E-1,-1.2796168E-1,-4.1919643E-1,-1.3375214E-1,1.9564393E-1,-2.8358134E-3,-3.6551256E-4,-3.5702405E-3,-5.5766962E-3,-2.3496829E-3,9.350671E-4,1.0391511E-3,2.9888588E-3],"categories":[],"categories_nodes":[],"categories_segments":[],"categories_sizes":[],"default_left":[0,0,0,0,0,0,0,0,0,0,0,0,0,0,0],"id":70,"left_children":[1,3,5,7,9,11,13,-1,-1,-1,-1,-1,-1,-1,-1],"loss_changes":[1.4705756E2,7.422171E1,3.3675476E1,4.506034E1,1.0217743E1,9.063896E0,1.3967949E1,0E0,0E0,0E0,0E0,0E0,0E0,0E0,0E0],"parents":[2147483647,0,0,1,1,2,2,3,3,4,4,5,5,6,6],"right_children":[2,4,6,8,10,12,14,-1,-1,-1,-1,-1,-1,-1,-1],"split_conditions":[2E1,2E1,3.6E-1,8E0,3.7E1,2.7E1,5.61E-1,-2.8358134E-3,-3.6551256E-4,-3.5702405E-3,-5.5766962E-3,-2.3496829E-3,9.350671E-4,1.0391511E-3,2.9888588E-3],"split_indices":[28,80,55,51,54,28,55,0,0,0,0,0,0,0,0],"split_type":[0,0,0,0,0,0,0,0,0,0,0,0,0,0,0],"sum_hessian":[6.2456157E3,4.376321E3,1.8692949E3,3.1673572E3,1.2089636E3,3.9208847E2,1.4772064E3,1.1712634E3,1.9960938E3,8.368216E2,3.72142E2,2.7124704E2,1.20841446E2,7.8328064E2,6.939258E2],"tree_param":{"num_deleted":"0","num_feature":"106","num_nodes":"15","size_leaf_vector":"1"}},{"base_weights":[1.0822102E-1,2.0849301E-1,-1.2651783E-1,1.2796168E-1,4.1919643E-1,1.3375215E-1,-1.9564392E-1,2.8358132E-3,3.6551274E-4,3.5702405E-3,5.5766962E-3,2.349683E-3,-9.3506713E-4,-1.0391511E-3,-2.9888584E-3],"categories":[],"categories_nodes":[],"categories_segments":[],"categories_sizes":[],"default_left":[0,0,0,0,0,0,0,0,0,0,0,0,0,0,0],"id":71,"left_children":[1,3,5,7,9,11,13,-1,-1,-1,-1,-1,-1,-1,-1],"loss_changes":[1.4705754E2,7.4221725E1,3.3675476E1,4.5060326E1,1.0217743E1,9.063898E0,1.3967941E1,0E0,0E0,0E0,0E0,0E0,0E0,0E0,0E0],"parents":[2147483647,0,0,1,1,2,2,3,3,4,4,5,5,6,6],"right_children":[2,4,6,8,10,12,14,-1,-1,-1,-1,-1,-1,-1,-1],"split_conditions":[2E1,2E1,3.6E-1,8E0,3.7E1,2.7E1,5.61E-1,2.8358132E-3,3.6551274E-4,3.5702405E-3,5.5766962E-3,2.349683E-3,-9.3506713E-4,-1.0391511E-3,-2.9888584E-3],"split_indices":[28,80,55,51,54,28,55,0,0,0,0,0,0,0,0],"split_type":[0,0,0,0,0,0,0,0,0,0,0,0,0,0,0],"sum_hessian":[6.2456157E3,4.376321E3,1.8692949E3,3.1673572E3,1.2089636E3,3.9208847E2,1.4772064E3,1.1712634E3,1.9960938E3,8.368216E2,3.7214203E2,2.7124704E2,1.20841446E2,7.8328064E2,6.939258E2],"tree_param":{"num_deleted":"0","num_feature":"106","num_nodes":"15","size_leaf_vector":"1"}},{"base_weights":[-1.07187346E-1,3.810452E-2,-2.6668543E-1,-1.7110002E-1,1.3246652E-1,-1.4571941E-1,-3.938521E-1,7.4166725E-5,-3.0256195E-3,5.010857E-4,2.4566501E-3,-2.1456373E-3,1.2461195E-4,-3.4787797E-3,-5.4435027E-3],"categories":[],"categories_nodes":[],"categories_segments":[],"categories_sizes":[],"default_left":[0,0,0,0,0,0,0,0,0,0,0,0,0,0,0],"id":72,"left_children":[1,3,5,7,9,11,13,-1,-1,-1,-1,-1,-1,-1,-1],"loss_changes":[1.447052E2,6.4542946E1,4.5730682E1,2.3854895E1,2.0991596E1,1.6632133E1,9.846725E0,0E0,0E0,0E0,0E0,0E0,0E0,0E0,0E0],"parents":[2147483647,0,0,1,1,2,2,3,3,4,4,5,5,6,6],"right_children":[2,4,6,8,10,12,14,-1,-1,-1,-1,-1,-1,-1,-1],"split_conditions":[6E-1,-2E0,1.3E1,-3.7E0,2.4E1,6E0,2.7E1,7.4166725E-5,-3.0256195E-3,5.010857E-4,2.4566501E-3,-2.1456373E-3,1.2461195E-4,-3.4787797E-3,-5.4435027E-3],"split_indices":[25,77,80,25,51,77,103,0,0,0,0,0,0,0,0],"split_type":[0,0,0,0,0,0,0,0,0,0,0,0,0,0,0],"sum_hessian":[6.2429136E3,3.2673457E3,2.9755679E3,1.01538385E3,2.251962E3,1.5260625E3,1.4495055E3,4.3102444E2,5.843594E2,1.3043907E3,9.4757117E2,1.0630422E3,4.630202E2,1.1128607E3,3.3664474E2],"tree_param":{"num_deleted":"0","num_feature":"106","num_nodes":"15","size_leaf_vector":"1"}},{"base_weights":[1.07187346E-1,-3.810452E-2,2.6668543E-1,1.7110002E-1,-1.3246652E-1,1.4571941E-1,3.938521E-1,-7.416696E-5,3.0256195E-3,-5.010859E-4,-2.45665E-3,2.1456373E-3,-1.2461185E-4,3.4787797E-3,5.4435027E-3],"categories":[],"categories_nodes":[],"categories_segments":[],"categories_sizes":[],"default_left":[0,0,0,0,0,0,0,0,0,0,0,0,0,0,0],"id":73,"left_children":[1,3,5,7,9,11,13,-1,-1,-1,-1,-1,-1,-1,-1],"loss_changes":[1.447052E2,6.4542946E1,4.5730682E1,2.3854898E1,2.0991589E1,1.6632137E1,9.846725E0,0E0,0E0,0E0,0E0,0E0,0E0,0E0,0E0],"parents":[2147483647,0,0,1,1,2,2,3,3,4,4,5,5,6,6],"right_children":[2,4,6,8,10,12,14,-1,-1,-1,-1,-1,-1,-1,-1],"split_conditions":[6E-1,-2E0,1.3E1,-3.7E0,2.4E1,6E0,2.7E1,-7.416696E-5,3.0256195E-3,-5.010859E-4,-2.45665E-3,2.1456373E-3,-1.2461185E-4,3.4787797E-3,5.4435027E-3],"split_indices":[25,77,80,25,51,77,103,0,0,0,0,0,0,0,0],"split_type":[0,0,0,0,0,0,0,0,0,0,0,0,0,0,0],"sum_hessian":[6.2429136E3,3.2673457E3,2.9755679E3,1.0153838E3,2.251962E3,1.5260625E3,1.4495055E3,4.3102444E2,5.843594E2,1.3043907E3,9.4757117E2,1.0630422E3,4.630202E2,1.1128607E3,3.3664474E2],"tree_param":{"num_deleted":"0","num_feature":"106","num_nodes":"15","size_leaf_vector":"1"}},{"base_weights":[-1.0616814E-1,3.7732966E-2,-2.642128E-1,-1.6945791E-1,1.3116854E-1,-1.4429726E-1,-3.904005E-1,2.8557403E-4,-2.8583836E-3,4.960799E-4,2.433215E-3,-2.1249177E-3,1.233677E-4,-3.2428529E-3,-4.936183E-3],"categories":[],"categories_nodes":[],"categories_segments":[],"categories_sizes":[],"default_left":[0,0,0,0,0,0,0,0,0,0,0,0,0,0,0],"id":74,"left_children":[1,3,5,7,9,11,13,-1,-1,-1,-1,-1,-1,-1,-1],"loss_changes":[1.4194684E2,6.3278183E1,4.495244E1,2.3421799E1,2.0592407E1,1.6310276E1,9.726456E0,0E0,0E0,0E0,0E0,0E0,0E0,0E0,0E0],"parents":[2147483647,0,0,1,1,2,2,3,3,4,4,5,5,6,6],"right_children":[2,4,6,8,10,12,14,-1,-1,-1,-1,-1,-1,-1,-1],"split_conditions":[6E-1,-2E0,1.3E1,-4.3E0,2.4E1,6E0,2.3E1,2.8557403E-4,-2.8583836E-3,4.960799E-4,2.433215E-3,-2.1249177E-3,1.233677E-4,-3.2428529E-3,-4.936183E-3],"split_indices":[25,77,80,25,51,77,80,0,0,0,0,0,0,0,0],"split_type":[0,0,0,0,0,0,0,0,0,0,0,0,0,0,0],"sum_hessian":[6.239959E3,3.2665217E3,2.9734373E3,1.01499164E3,2.2515303E3,1.5257083E3,1.447729E3,3.760006E2,6.38991E2,1.3043877E3,9.4714246E2,1.0626853E3,4.63023E2,8.849953E2,5.6273364E2],"tree_param":{"num_deleted":"0","num_feature":"106","num_nodes":"15","size_leaf_vector":"1"}},{"base_weights":[1.0616815E-1,-3.7732955E-2,2.642128E-1,1.6945791E-1,-1.3116853E-1,1.4429727E-1,3.904005E-1,-2.8557412E-4,2.8583836E-3,-4.9607974E-4,-2.4332148E-3,2.1249177E-3,-1.2336734E-4,3.2428526E-3,4.9361833E-3],"categories":[],"categories_nodes":[],"categories_segments":[],"categories_sizes":[],"default_left":[0,0,0,0,0,0,0,0,0,0,0,0,0,0,0],"id":75,"left_children":[1,3,5,7,9,11,13,-1,-1,-1,-1,-1,-1,-1,-1],"loss_changes":[1.4194684E2,6.327817E1,4.495244E1,2.34218E1,2.0592403E1,1.631028E1,9.726456E0,0E0,0E0,0E0,0E0,0E0,0E0,0E0,0E0],"parents":[2147483647,0,0,1,1,2,2,3,3,4,4,5,5,6,6],"right_children":[2,4,6,8,10,12,14,-1,-1,-1,-1,-1,-1,-1,-1],"split_conditions":[6E-1,-2E0,1.3E1,-4.3E0,2.4E1,6E0,2.3E1,-2.8557412E-4,2.8583836E-3,-4.9607974E-4,-2.4332148E-3,2.1249177E-3,-1.2336734E-4,3.2428526E-3,4.9361833E-3],"split_indices":[25,77,80,25,51,77,80,0,0,0,0,0,0,0,0],"split_type":[0,0,0,0,0,0,0,0,0,0,0,0,0,0,0],"sum_hessian":[6.239959E3,3.2665217E3,2.9734373E3,1.01499164E3,2.2515303E3,1.5257083E3,1.447729E3,3.760006E2,6.38991E2,1.3043877E3,9.4714246E2,1.0626852E3,4.63023E2,8.849953E2,5.6273364E2],"tree_param":{"num_deleted":"0","num_feature":"106","num_nodes":"15","size_leaf_vector":"1"}},{"base_weights":[-1.0516007E-1,-2.0299765E-1,1.23704776E-1,-1.2433583E-1,-4.0942684E-1,-1.3047788E-1,1.912234E-1,-2.7706733E-3,-3.4714866E-4,-3.4772716E-3,-5.470372E-3,-2.2979232E-3,9.2307566E-4,3.1522317E-3,1.165304E-3],"categories":[],"categories_nodes":[],"categories_segments":[],"categories_sizes":[],"default_left":[0,0,0,0,0,0,0,0,0,0,0,0,0,0,0],"id":76,"left_children":[1,3,5,7,9,11,13,-1,-1,-1,-1,-1,-1,-1,-1],"loss_changes":[1.3970183E2,7.091321E1,3.20955E1,4.332416E1,1.0044144E1,8.712111E0,1.3642143E1,0E0,0E0,0E0,0E0,0E0,0E0,0E0,0E0],"parents":[2147483647,0,0,1,1,2,2,3,3,4,4,5,5,6,6],"right_children":[2,4,6,8,10,12,14,-1,-1,-1,-1,-1,-1,-1,-1],"split_conditions":[2E1,2E1,3.6E-1,8E0,3.7E1,2.7E1,-6.2E0,-2.7706733E-3,-3.4714866E-4,-3.4772716E-3,-5.470372E-3,-2.2979232E-3,9.2307566E-4,3.1522317E-3,1.165304E-3],"split_indices":[28,80,55,51,54,28,25,0,0,0,0,0,0,0,0],"split_type":[0,0,0,0,0,0,0,0,0,0,0,0,0,0,0],"sum_hessian":[6.236912E3,4.3692236E3,1.867689E3,3.1648352E3,1.2043883E3,3.917946E2,1.4758944E3,1.16957E3,1.9952653E3,8.3398535E2,3.704029E2,2.7096912E2,1.20825455E2,5.536106E2,9.2228375E2],"tree_param":{"num_deleted":"0","num_feature":"106","num_nodes":"15","size_leaf_vector":"1"}},{"base_weights":[1.0516008E-1,2.0299764E-1,-1.2370476E-1,1.2433583E-1,4.0942687E-1,1.304779E-1,-1.9122338E-1,2.7706733E-3,3.471485E-4,3.477272E-3,5.470372E-3,2.297923E-3,-9.2307484E-4,-3.1522317E-3,-1.165304E-3],"categories":[],"categories_nodes":[],"categories_segments":[],"categories_sizes":[],"default_left":[0,0,0,0,0,0,0,0,0,0,0,0,0,0,0],"id":77,"left_children":[1,3,5,7,9,11,13,-1,-1,-1,-1,-1,-1,-1,-1],"loss_changes":[1.3970181E2,7.091321E1,3.2095505E1,4.3324165E1,1.0044159E1,8.712105E0,1.3642132E1,0E0,0E0,0E0,0E0,0E0,0E0,0E0,0E0],"parents":[2147483647,0,0,1,1,2,2,3,3,4,4,5,5,6,6],"right_children":[2,4,6,8,10,12,14,-1,-1,-1,-1,-1,-1,-1,-1],"split_conditions":[2E1,2E1,3.6E-1,8E0,3.7E1,2.7E1,-6.2E0,2.7706733E-3,