{"learner":{"attributes":{},"feature_names":[],"feature_types":[],"gradient_booster":{"model":{"gbtree_model_param":{"num_parallel_tree":"1","num_trees":"400"},"iteration_indptr":[0,2,4,6,8,10,12,14,16,18,20,22,24,26,28,30,32,34,36,38,40,42,44,46,48,50,52,54,56,58,60,62,64,66,68,70,72,74,76,78,80,82,84,86,88,90,92,94,96,98,100,102,104,106,108,110,112,114,116,118,120,122,124,126,128,130,132,134,136,138,140,142,144,146,148,150,152,154,156,158,160,162,164,166,168,170,172,174,176,178,180,182,184,186,188,190,192,194,196,198,200,202,204,206,208,210,212,214,216,218,220,222,224,226,228,230,232,234,236,238,240,242,244,246,248,250,252,254,256,258,260,262,264,266,268,270,272,274,276,278,280,282,284,286,288,290,292,294,296,298,300,302,304,306,308,310,312,314,316,318,320,322,324,326,328,330,332,334,336,338,340,342,344,346,348,350,352,354,356,358,360,362,364,366,368,370,372,374,376,378,380,382,384,386,388,390,392,394,396,398,400],"tree_info":[0,1,0,1,0,1,0,1,0,1,0,1,0,1,0,1,0,1,0,1,0,1,0,1,0,1,0,1,0,1,0,1,0,1,0,1,0,1,0,1,0,1,0,1,0,1,0,1,0,1,0,1,0,1,0,1,0,1,0,1,0,1,0,1,0,1,0,1,0,1,0,1,0,1,0,1,0,1,0,1,0,1,0,1,0,1,0,1,0,1,0,1,0,1,0,1,0,1,0,1,0,1,0,1,0,1,0,1,0,1,0,1,0,1,0,1,0,1,0,1,0,1,0,1,0,1,0,1,0,1,0,1,0,1,0,1,0,1,0,1,0,1,0,1,0,1,0,1,0,1,0,1,0,1,0,1,0,1,0,1,0,1,0,1,0,1,0,1,0,1,0,1,0,1,0,1,0,1,0,1,0,1,0,1,0,1,0,1,0,1,0,1,0,1,0,1,0,1,0,1,0,1,0,1,0,1,0,1,0,1,0,1,0,1,0,1,0,1,0,1,0,1,0,1,0,1,0,1,0,1,0,1,0,1,0,1,0,1,0,1,0,1,0,1,0,1,0,1,0,1,0,1,0,1,0,1,0,1,0,1,0,1,0,1,0,1,0,1,0,1,0,1,0,1,0,1,0,1,0,1,0,1,0,1,0,1,0,1,0,1,0,1,0,1,0,1,0,1,0,1,0,1,0,1,0,1,0,1,0,1,0,1,0,1,0,1,0,1,0,1,0,1,0,1,0,1,0,1,0,1,0,1,0,1,0,1,0,1,0,1,0,1,0,1,0,1,0,1,0,1,0,1,0,1,0,1,0,1,0,1,0,1,0,1,0,1,0,1,0,1,0,1,0,1,0,1,0,1,0,1,0,1,0,1,0,1,0,1,0,1,0,1,0,1,0,1,0,1,0,1],"trees":[{"base_weights":[-1.4535183E-1,-2.4921136E-1,3.0769232E-1,-5.54007E-1,-1.8153846E-1,4.3609023E-1,-4E-2,3E-3,-6.133829E-3,-4.034091E-3,-9.894737E-4,4.878049E-3,-1.8181818E-3,-6.363636E-3,1.25E-3],"categories":[],"categories_nodes":[],"categories_segments":[],"categories_sizes":[],"default_left":[0,0,0,0,0,0,0,0,0,0,0,0,0,0,0],"id":0,"left_children":[1,3,5,7,9,11,13,-1,-1,-1,-1,-1,-1,-1,-1],"loss_changes":[4.588273E1,1.6245846E1,8.142464E0,7.460537E0,1.1871033E1,4.3386955E0,4.9995456E0,0E0,0E0,0E0,0E0,0E0,0E0,0E0,0E0],"parents":[2147483647,0,0,1,1,2,2,3,3,4,4,5,5,6,6],"right_children":[2,4,6,8,10,12,14,-1,-1,-1,-1,-1,-1,-1,-1],"split_conditions":[2.5E1,-4.6E0,2.1E1,3.83E-1,6E0,-2.7E0,1.01E1,3E-3,-6.133829E-3,-4.034091E-3,-9.894737E-4,4.878049E-3,-1.8181818E-3,-6.363636E-3,1.25E-3],"split_indices":[51,77,74,3,28,25,8,0,0,0,0,0,0,0,0],"split_type":[0,0,0,0,0,0,0,0,0,0,0,0,0,0,0],"sum_hessian":[9.725E2,7.915E2,1.81E2,1.425E2,6.49E2,1.32E2,4.9E1,9E0,1.335E2,1.75E2,4.74E2,1.22E2,1E1,1E1,3.9E1],"tree_param":{"num_deleted":"0","num_feature":"106","num_nodes":"15","size_leaf_vector":"1"}},{"base_weights":[1.4535183E-1,2.4921136E-1,-3.0769232E-1,5.54007E-1,1.8153846E-1,-4.3609023E-1,4E-2,-3E-3,6.133829E-3,4.034091E-3,9.894737E-4,-4.878049E-3,1.8181818E-3,6.363636E-3,-1.25E-3],"categories":[],"categories_nodes":[],"categories_segments":[],"categories_sizes":[],"default_left":[0,0,0,0,0,0,0,0,0,0,0,0,0,0,0],"id":1,"left_children":[1,3,5,7,9,11,13,-1,-1,-1,-1,-1,-1,-1,-1],"loss_changes":[4.588273E1,1.6245846E1,8.142464E0,7.460537E0,1.1871033E1,4.3386955E0,4.9995456E0,0E0,0E0,0E0,0E0,0E0,0E0,0E0,0E0],"parents":[2147483647,0,0,1,1,2,2,3,3,4,4,5,5,6,6],"right_children":[2,4,6,8,10,12,14,-1,-1,-1,-1,-1,-1,-1,-1],"split_conditions":[2.5E1,-4.6E0,2.1E1,3.83E-1,6E0,-2.7E0,1.01E1,-3E-3,6.133829E-3,4.034091E-3,9.894737E-4,-4.878049E-3,1.8181818E-3,6.363636E-3,-1.25E-3],"split_indices":[51,77,74,3,28,25,8,0,0,0,0,0,0,0,0],"split_type":[0,0,0,0,0,0,0,0,0,0,0,0,0,0,0],"sum_hessian":[9.725E2,7.915E2,1.81E2,1.425E2,6.49E2,1.32E2,4.9E1,9E0,1.335E2,1.75E2,4.74E2,1.22E2,1E1,1E1,3.9E1],"tree_param":{"num_deleted":"0","num_feature":"106","num_nodes":"15","size_leaf_vector":"1"}},{"base_weights":[-1.4391056E-1,-2.4673218E-1,3.0460978E-1,-5.485083E-1,-1.7973173E-1,4.3176186E-1,-3.970269E-2,2.9730238E-3,-6.0731736E-3,-3.994044E-3,-9.796007E-4,4.829779E-3,-1.8016582E-3,-6.306018E-3,1.2378141E-3],"categories":[],"categories_nodes":[],"categories_segments":[],"categories_sizes":[],"default_left":[0,0,0,0,0,0,0,0,0,0,0,0,0,0,0],"id":2,"left_children":[1,3,5,7,9,11,13,-1,-1,-1,-1,-1,-1,-1,-1],"loss_changes":[4.497009E1,1.5924908E1,7.9849606E0,7.3181953E0,1.1636761E1,4.255211E0,4.9081426E0,0E0,0E0,0E0,0E0,0E0,0E0,0E0,0E0],"parents":[2147483647,0,0,1,1,2,2,3,3,4,4,5,5,6,6],"right_children":[2,4,6,8,10,12,14,-1,-1,-1,-1,-1,-1,-1,-1],"split_conditions":[2.5E1,-4.6E0,2.1E1,3.83E-1,6E0,-2.7E0,1.01E1,2.9730238E-3,-6.0731736E-3,-3.994044E-3,-9.796007E-4,4.829779E-3,-1.8016582E-3,-6.306018E-3,1.2378141E-3],"split_indices":[51,77,74,3,28,25,8,0,0,0,0,0,0,0,0],"split_type":[0,0,0,0,0,0,0,0,0,0,0,0,0,0,0],"sum_hessian":[9.7248816E2,7.914916E2,1.809966E2,1.424949E2,6.4899664E2,1.3199707E2,4.8999535E1,8.999919E0,1.3349498E2,1.7499715E2,4.739995E2,1.219971E2,9.999968E0,9.999596E0,3.899994E1],"tree_param":{"num_deleted":"0","num_feature":"106","num_nodes":"15","size_leaf_vector":"1"}},{"base_weights":[1.4391056E-1,2.4673219E-1,-3.046098E-1,5.485083E-1,1.7973176E-1,-4.317619E-1,3.970264E-2,-2.9730238E-3,6.0731736E-3,3.9940444E-3,9.79601E-4,-4.829779E-3,1.8016582E-3,6.306017E-3,-1.2378143E-3],"categories":[],"categories_nodes":[],"categories_segments":[],"categories_sizes":[],"default_left":[0,0,0,0,0,0,0,0,0,0,0,0,0,0,0],"id":3,"left_children":[1,3,5,7,9,11,13,-1,-1,-1,-1,-1,-1,-1,-1],"loss_changes":[4.4970085E1,1.5924904E1,7.9849606E0,7.3181915E0,1.1636763E1,4.255211E0,4.9081416E0,0E0,0E0,0E0,0E0,0E0,0E0,0E0,0E0],"parents":[2147483647,0,0,1,1,2,2,3,3,4,4,5,5,6,6],"right_children":[2,4,6,8,10,12,14,-1,-1,-1,-1,-1,-1,-1,-1],"split_conditions":[2.5E1,-4.6E0,2.1E1,3.83E-1,6E0,-2.7E0,1.01E1,-2.9730238E-3,6.0731736E-3,3.9940444E-3,9.79601E-4,-4.829779E-3,1.8016582E-3,6.306017E-3,-1.2378143E-3],"split_indices":[51,77,74,3,28,25,8,0,0,0,0,0,0,0,0],"split_type":[0,0,0,0,0,0,0,0,0,0,0,0,0,0,0],"sum_hessian":[9.724882E2,7.914916E2,1.8099661E2,1.424949E2,6.489967E2,1.3199707E2,4.899954E1,8.999919E0,1.3349498E2,1.7499715E2,4.7399954E2,1.2199711E2,9.999968E0,9.999596E0,3.8999943E1],"tree_param":{"num_deleted":"0","num_feature":"106","num_nodes":"15","size_leaf_vector":"1"}},{"base_weights":[-1.4248696E-1,-2.4428275E-1,3.0156934E-1,-5.4310226E-1,-1.7794473E-1,4.2749518E-1,-3.940813E-2,2.9463388E-3,-6.0135615E-3,-3.95452E-3,-9.698279E-4,6.0962876E-3,2.4709725E-3,-6.2493756E-3,1.2257516E-3],"categories":[],"categories_nodes":[],"categories_segments":[],"categories_sizes":[],"default_left":[0,0,0,0,0,0,0,0,0,0,0,0,0,0,0],"id":4,"left_children":[1,3,5,7,9,11,13,-1,-1,-1,-1,-1,-1,-1,-1],"loss_changes":[4.4076736E1,1.5612503E1,7.8309593E0,7.1791916E0,1.1407793E1,4.2189007E0,4.8187256E0,0E0,0E0,0E0,0E0,0E0,0E0,0E0,0E0],"parents":[2147483647,0,0,1,1,2,2,3,3,4,4,5,5,6,6],"right_children":[2,4,6,8,10,12,14,-1,-1,-1,-1,-1,-1,-1,-1],"split_conditions":[2.5E1,-4.6E0,2.1E1,3.83E-1,6E0,3.2E1,1.01E1,2.9463388E-3,-6.0135615E-3,-3.95452E-3,-9.698279E-4,6.0962876E-3,2.4709725E-3,-6.2493756E-3,1.2257516E-3],"split_indices":[51,77,74,3,28,15,8,0,0,0,0,0,0,0,0],"split_type":[0,0,0,0,0,0,0,0,0,0,0,0,0,0,0],"sum_hessian":[9.724532E2,7.914667E2,1.8098653E2,1.4247978E2,6.489869E2,1.3198837E2,4.8998154E1,8.999679E0,1.334801E2,1.7498872E2,4.7399817E2,6.449425E1,6.7494125E1,9.998395E0,3.899976E1],"tree_param":{"num_deleted":"0","num_feature":"106","num_nodes":"15","size_leaf_vector":"1"}},{"base_weights":[1.4248699E-1,2.4428278E-1,-3.015693E-1,5.4310226E-1,1.7794476E-1,-4.2749518E-1,3.9408196E-2,-2.9463377E-3,6.0135615E-3,3.9545214E-3,9.698279E-4,-6.0962876E-3,-2.4709722E-3,6.2493756E-3,-1.2257507E-3],"categories":[],"categories_nodes":[],"categories_segments":[],"categories_sizes":[],"default_left":[0,0,0,0,0,0,0,0,0,0,0,0,0,0,0],"id":5,"left_children":[1,3,5,7,9,11,13,-1,-1,-1,-1,-1,-1,-1,-1],"loss_changes":[4.407673E1,1.5612503E1,7.830965E0,7.179188E0,1.1407803E1,4.218897E0,4.8187246E0,0E0,0E0,0E0,0E0,0E0,0E0,0E0,0E0],"parents":[2147483647,0,0,1,1,2,2,3,3,4,4,5,5,6,6],"right_children":[2,4,6,8,10,12,14,-1,-1,-1,-1,-1,-1,-1,-1],"split_conditions":[2.5E1,-4.6E0,2.1E1,3.83E-1,6E0,3.2E1,1.01E1,-2.9463377E-3,6.0135615E-3,3.9545214E-3,9.698279E-4,-6.0962876E-3,-2.4709722E-3,6.2493756E-3,-1.2257507E-3],"split_indices":[51,77,74,3,28,15,8,0,0,0,0,0,0,0,0],"split_type":[0,0,0,0,0,0,0,0,0,0,0,0,0,0,0],"sum_hessian":[9.724532E2,7.914667E2,1.8098653E2,1.4247978E2,6.489869E2,1.3198836E2,4.8998154E1,8.999679E0,1.334801E2,1.7498872E2,4.7399817E2,6.449424E1,6.7494125E1,9.998395E0,3.899976E1],"tree_param":{"num_deleted":"0","num_feature":"106","num_nodes":"15","size_leaf_vector":"1"}},{"base_weights":[-1.4107487E-1,-2.4186267E-1,2.985977E-1,-5.377862E-1,-1.7617732E-1,4.2332506E-1,-3.9116398E-2,-6.0819327E-3,1.5691088E-3,-3.9155097E-3,-9.6015516E-4,4.7403625E-3,-1.8209257E-3,-6.193681E-3,1.2138097E-3],"categories":[],"categories_nodes":[],"categories_segments":[],"categories_sizes":[],"default_left":[0,0,0,0,0,0,0,0,0,0,0,0,0,0,0],"id":6,"left_children":[1,3,5,7,9,11,13,-1,-1,-1,-1,-1,-1,-1,-1],"loss_changes":[4.320699E1,1.5308296E1,7.6816025E0,7.112049E0,1.1183983E1,4.168869E0,4.73124E0,0E0,0E0,0E0,0E0,0E0,0E0,0E0,0E0],"parents":[2147483647,0,0,1,1,2,2,3,3,4,4,5,5,6,6],"right_children":[2,4,6,8,10,12,14,-1,-1,-1,-1,-1,-1,-1,-1],"split_conditions":[2.5E1,-4.6E0,2.1E1,6.3E0,6E0,-2.7E0,1.01E1,-6.0819327E-3,1.5691088E-3,-3.9155097E-3,-9.6015516E-4,4.7403625E-3,-1.8209257E-3,-6.193681E-3,1.2138097E-3],"split_indices":[51,77,74,72,28,25,8,0,0,0,0,0,0,0,0],"split_type":[0,0,0,0,0,0,0,0,0,0,0,0,0,0,0],"sum_hessian":[9.7239734E2,7.914257E2,1.8097162E2,1.4245496E2,6.4897076E2,1.3197574E2,4.8995884E1,1.294589E2,1.2996062E1,1.7497487E2,4.739959E2,1.2197577E2,9.999968E0,9.996422E0,3.8999462E1],"tree_param":{"num_deleted":"0","num_feature":"106","num_nodes":"15","size_leaf_vector":"1"}},{"base_weights":[1.4107488E-1,2.4186268E-1,-2.9859763E-1,5.377862E-1,1.7617732E-1,-4.2332503E-1,3.9116487E-2,6.081933E-3,-1.5691085E-3,3.9155097E-3,9.6015516E-4,-4.740362E-3,1.8209254E-3,6.193681E-3,-1.2138087E-3],"categories":[],"categories_nodes":[],"categories_segments":[],"categories_sizes":[],"default_left":[0,0,0,0,0,0,0,0,0,0,0,0,0,0,0],"id":7,"left_children":[1,3,5,7,9,11,13,-1,-1,-1,-1,-1,-1,-1,-1],"loss_changes":[4.3206985E1,1.53083E1,7.6816063E0,7.1120453E0,1.1183983E1,4.168865E0,4.7312384E0,0E0,0E0,0E0,0E0,0E0,0E0,0E0,0E0],"parents":[2147483647,0,0,1,1,2,2,3,3,4,4,5,5,6,6],"right_children":[2,4,6,8,10,12,14,-1,-1,-1,-1,-1,-1,-1,-1],"split_conditions":[2.5E1,-4.6E0,2.1E1,6.3E0,6E0,-2.7E0,1.01E1,6.081933E-3,-1.5691085E-3,3.9155097E-3,9.6015516E-4,-4.740362E-3,1.8209254E-3,6.193681E-3,-1.2138087E-3],"split_indices":[51,77,74,72,28,25,8,0,0,0,0,0,0,0,0],"split_type":[0,0,0,0,0,0,0,0,0,0,0,0,0,0,0],"sum_hessian":[9.723974E2,7.914257E2,1.8097163E2,1.4245497E2,6.4897076E2,1.3197574E2,4.8995884E1,1.2945891E2,1.2996063E1,1.7497487E2,4.739959E2,1.2197578E2,9.999968E0,9.996422E0,3.8999462E1],"tree_param":{"num_deleted":"0","num_feature":"106","num_nodes":"15","size_leaf_vector":"1"}},{"base_weights":[-1.3968666E-1,2.8725314E-1,-2.4155167E-1,4.3773165E-1,-7.6106763E-3,-5.63464E-1,-1.7311431E-1,1.9672902E-3,5.8893966E-3,1.6043729E-3,-4.184974E-3,-6.2315133E-3,1.4449253E-3,-3.8770004E-3,-9.3258615E-4],"categories":[],"categories_nodes":[],"categories_segments":[],"categories_sizes":[],"default_left":[0,0,0,0,0,0,0,0,0,0,0,0,0,0,0],"id":8,"left_children":[1,3,5,7,9,11,13,-1,-1,-1,-1,-1,-1,-1,-1],"loss_changes":[4.2399414E1,8.342816E0,1.722689E1,4.4196606E0,4.520108E0,5.8971176E0,1.11012535E1,0E0,0E0,0E0,0E0,0E0,0E0,0E0,0E0],"parents":[2147483647,0,0,1,1,2,2,3,3,4,4,5,5,6,6],"right_children":[2,4,6,8,10,12,14,-1,-1,-1,-1,-1,-1,-1,-1],"split_conditions":[-3.7E0,2.08E1,-4.6E0,2.26E1,2.95E-1,6.3E0,6E0,1.9672902E-3,5.8893966E-3,1.6043729E-3,-4.184974E-3,-6.2315133E-3,1.4449253E-3,-3.8770004E-3,-9.3258615E-4],"split_indices":[25,74,77,64,3,72,28,0,0,0,0,0,0,0,0],"split_type":[0,0,0,0,0,0,0,0,0,0,0,0,0,0,0],"sum_hessian":[9.723227E2,1.8695041E2,7.853723E2,1.23460175E2,6.349024E1,1.3642583E2,6.489465E2,4.8484417E1,7.497575E1,4.5493465E1,1.799677E1,1.2592866E2,1.0497172E1,1.7495578E2,4.739907E2],"tree_param":{"num_deleted":"0","num_feature":"106","num_nodes":"15","size_leaf_vector":"1"}},{"base_weights":[1.3968663E-1,-2.8725317E-1,2.4155164E-1,-4.3773165E-1,7.6105935E-3,5.6346405E-1,1.7311427E-1,-1.96729E-3,-5.8893966E-3,-1.6043737E-3,4.1849734E-3,6.2315133E-3,-1.4449252E-3,3.8769993E-3,9.3258586E-4],"categories":[],"categories_nodes":[],"categories_segments":[],"categories_sizes":[],"default_left":[0,0,0,0,0,0,0,0,0,0,0,0,0,0,0],"id":9,"left_children":[1,3,5,7,9,11,13,-1,-1,-1,-1,-1,-1,-1,-1],"loss_changes":[4.2399406E1,8.3428135E0,1.7226898E1,4.4196606E0,4.520108E0,5.897114E0,1.110125E1,0E0,0E0,0E0,0E0,0E0,0E0,0E0,0E0],"parents":[2147483647,0,0,1,1,2,2,3,3,4,4,5,5,6,6],"right_children":[2,4,6,8,10,12,14,-1,-1,-1,-1,-1,-1,-1,-1],"split_conditions":[-3.7E0,2.08E1,-4.6E0,2.26E1,2.95E-1,6.3E0,6E0,-1.96729E-3,-5.8893966E-3,-1.6043737E-3,4.1849734E-3,6.2315133E-3,-1.4449252E-3,3.8769993E-3,9.3258586E-4],"split_indices":[25,74,77,64,3,72,28,0,0,0,0,0,0,0,0],"split_type":[0,0,0,0,0,0,0,0,0,0,0,0,0,0,0],"sum_hessian":[9.723227E2,1.8695041E2,7.853723E2,1.2346017E2,6.3490234E1,1.3642584E2,6.489465E2,4.8484417E1,7.497575E1,4.5493465E1,1.799677E1,1.25928665E2,1.0497172E1,1.7495578E2,4.7399066E2],"tree_param":{"num_deleted":"0","num_feature":"106","num_nodes":"15","size_leaf_vector":"1"}},{"base_weights":[-1.3830718E-1,-2.3719157E-1,2.9309696E-1,-5.2747285E-1,-1.7278567E-1,4.1576162E-1,-3.8947646E-2,2.9711623E-3,-5.8490597E-3,-3.838981E-3,-9.4227766E-4,5.9603816E-3,2.3733787E-3,-6.138089E-3,1.2002566E-3],"categories":[],"categories_nodes":[],"categories_segments":[],"categories_sizes":[],"default_left":[0,0,0,0,0,0,0,0,0,0,0,0,0,0,0],"id":10,"left_children":[1,3,5,7,9,11,13,-1,-1,-1,-1,-1,-1,-1,-1],"loss_changes":[4.158679E1,1.4721634E1,7.426173E0,6.964245E0,1.0742464E1,4.134516E0,4.6423535E0,0E0,0E0,0E0,0E0,0E0,0E0,0E0,0E0],"parents":[2147483647,0,0,1,1,2,2,3,3,4,4,5,5,6,6],"right_children":[2,4,6,8,10,12,14,-1,-1,-1,-1,-1,-1,-1,-1],"split_conditions":[2.5E1,-4.6E0,2.1E1,3.83E-1,6E0,3.2E1,1.01E1,2.9711623E-3,-5.8490597E-3,-3.838981E-3,-9.4227766E-4,5.9603816E-3,2.3733787E-3,-6.138089E-3,1.2002566E-3],"split_indices":[51,77,74,3,28,15,8,0,0,0,0,0,0,0,0],"split_type":[0,0,0,0,0,0,0,0,0,0,0,0,0,0,0],"sum_hessian":[9.722327E2,7.9130396E2,1.8092871E2,1.4238345E2,6.4892053E2,1.3193637E2,4.8992344E1,8.999598E0,1.3338385E2,1.7493158E2,4.7398895E2,6.4463196E1,6.7473175E1,9.993587E0,3.8998756E1],"tree_param":{"num_deleted":"0","num_feature":"106","num_nodes":"15","size_leaf_vector":"1"}},{"base_weights":[1.3830715E-1,2.3719154E-1,-2.93097E-1,5.2747273E-1,1.7278565E-1,-4.1576165E-1,3.8947627E-2,-2.971162E-3,5.8490583E-3,3.83898E-3,9.4227795E-4,-5.9603816E-3,-2.3733792E-3,6.1380886E-3,-1.2002566E-3],"categories":[],"categories_nodes":[],"categories_segments":[],"categories_sizes":[],"default_left":[0,0,0,0,0,0,0,0,0,0,0,0,0,0,0],"id":11,"left_children":[1,3,5,7,9,11,13,-1,-1,-1,-1,-1,-1,-1,-1],"loss_changes":[4.158679E1,1.4721634E1,7.4261723E0,6.964237E0,1.0742458E1,4.1345177E0,4.642353E0,0E0,0E0,0E0,0E0,0E0,0E0,0E0,0E0],"parents":[2147483647,0,0,1,1,2,2,3,3,4,4,5,5,6,6],"right_children":[2,4,6,8,10,12,14,-1,-1,-1,-1,-1,-1,-1,-1],"split_conditions":[2.5E1,-4.6E0,2.1E1,3.83E-1,6E0,3.2E1,1.01E1,-2.971162E-3,5.8490583E-3,3.83898E-3,9.4227795E-4,-5.9603816E-3,-2.3733792E-3,6.1380886E-3,-1.2002566E-3],"split_indices":[51,77,74,3,28,15,8,0,0,0,0,0,0,0,0],"split_type":[0,0,0,0,0,0,0,0,0,0,0,0,0,0,0],"sum_hessian":[9.722327E2,7.91304E2,1.8092871E2,1.4238345E2,6.489206E2,1.3193637E2,4.8992344E1,8.999598E0,1.3338387E2,1.7493158E2,4.7398898E2,6.4463196E1,6.7473175E1,9.993587E0,3.899876E1],"tree_param":{"num_deleted":"0","num_feature":"106","num_nodes":"15","size_leaf_vector":"1"}},{"base_weights":[-1.3694474E-1,2.8208008E-1,-2.369132E-1,4.2994195E-1,-7.580566E-3,-5.528037E-1,-1.6979346E-1,1.9141628E-3,5.7966774E-3,1.5853861E-3,-4.1377107E-3,-6.1197244E-3,1.4815184E-3,-3.8014418E-3,-9.153564E-4],"categories":[],"categories_nodes":[],"categories_segments":[],"categories_sizes":[],"default_left":[0,0,0,0,0,0,0,0,0,0,0,0,0,0,0],"id":12,"left_children":[1,3,5,7,9,11,13,-1,-1,-1,-1,-1,-1,-1,-1],"loss_changes":[4.0830048E1,8.050906E0,1.6575954E1,4.3323307E0,4.4166865E0,5.7866287E0,1.0663322E1,0E0,0E0,0E0,0E0,0E0,0E0,0E0,0E0],"parents":[2147483647,0,0,1,1,2,2,3,3,4,4,5,5,6,6],"right_children":[2,4,6,8,10,12,14,-1,-1,-1,-1,-1,-1,-1,-1],"split_conditions":[-3.7E0,2.08E1,-4.6E0,2.26E1,2.95E-1,6.3E0,6E0,1.9141628E-3,5.7966774E-3,1.5853861E-3,-4.1377107E-3,-6.1197244E-3,1.4815184E-3,-3.8014418E-3,-9.153564E-4],"split_indices":[25,74,77,64,3,72,28,0,0,0,0,0,0,0,0],"split_type":[0,0,0,0,0,0,0,0,0,0,0,0,0,0,0],"sum_hessian":[9.7211835E2,1.868985E2,7.8521985E2,1.2341505E2,6.348346E1,1.36336E2,6.4888385E2,4.84726E1,7.4942444E1,4.548941E1,1.799405E1,1.2584054E2,1.0495457E1,1.7490245E2,4.7398138E2],"tree_param":{"num_deleted":"0","num_feature":"106","num_nodes":"15","size_leaf_vector":"1"}},{"base_weights":[1.3694468E-1,-2.8208008E-1,2.3691313E-1,-4.2994195E-1,7.5805318E-3,5.528036E-1,1.6979338E-1,-1.9141623E-3,-5.796678E-3,-1.5853863E-3,4.13771E-3,6.119724E-3,-1.4815184E-3,3.8014418E-3,9.153555E-4],"categories":[],"categories_nodes":[],"categories_segments":[],"categories_sizes":[],"default_left":[0,0,0,0,0,0,0,0,0,0,0,0,0,0,0],"id":13,"left_children":[1,3,5,7,9,11,13,-1,-1,-1,-1,-1,-1,-1,-1],"loss_changes":[4.0830032E1,8.050908E0,1.6575954E1,4.3323364E0,4.4166865E0,5.7866287E0,1.0663328E1,0E0,0E0,0E0,0E0,0E0,0E0,0E0,0E0],"parents":[2147483647,0,0,1,1,2,2,3,3,4,4,5,5,6,6],"right_children":[2,4,6,8,10,12,14,-1,-1,-1,-1,-1,-1,-1,-1],"split_conditions":[-3.7E0,2.08E1,-4.6E0,2.26E1,2.95E-1,6.3E0,6E0,-1.9141623E-3,-5.796678E-3,-1.5853863E-3,4.13771E-3,6.119724E-3,-1.4815184E-3,3.8014418E-3,9.153555E-4],"split_indices":[25,74,77,64,3,72,28,0,0,0,0,0,0,0,0],"split_type":[0,0,0,0,0,0,0,0,0,0,0,0,0,0,0],"sum_hessian":[9.721184E2,1.8689851E2,7.8521985E2,1.2341505E2,6.348346E1,1.36336E2,6.4888385E2,4.8472603E1,7.4942444E1,4.548941E1,1.799405E1,1.25840546E2,1.0495457E1,1.7490245E2,4.739814E2],"tree_param":{"num_deleted":"0","num_feature":"106","num_nodes":"15","size_leaf_vector":"1"}},{"base_weights":[-1.3559759E-1,-2.3262635E-1,2.8775337E-1,-5.174804E-1,-1.694653E-1,4.0842363E-1,-3.8780387E-2,2.9525247E-3,-5.741467E-3,-3.764373E-3,-9.2473766E-4,5.869553E-3,2.3182128E-3,-3.756734E-3,2.2852789E-3],"categories":[],"categories_nodes":[],"categories_segments":[],"categories_sizes":[],"default_left":[0,0,0,0,0,0,0,0,0,0,0,0,0,0,0],"id":14,"left_children":[1,3,5,7,9,11,13,-1,-1,-1,-1,-1,-1,-1,-1],"loss_changes":[4.0034676E1,1.4163898E1,7.181986E0,6.7679787E0,1.0320564E1,4.0535564E0,4.5874276E0,0E0,0E0,0E0,0E0,0E0,0E0,0E0,0E0],"parents":[2147483647,0,0,1,1,2,2,3,3,4,4,5,5,6,6],"right_children":[2,4,6,8,10,12,14,-1,-1,-1,-1,-1,-1,-1,-1],"split_conditions":[2.5E1,-4.6E0,2.1E1,3.83E-1,6E0,3.2E1,1.1E1,2.9525247E-3,-5.741467E-3,-3.764373E-3,-9.2473766E-4,5.869553E-3,2.3182128E-3,-3.756734E-3,2.2852789E-3],"split_indices":[51,77,74,3,28,15,97,0,0,0,0,0,0,0,0],"split_type":[0,0,0,0,0,0,0,0,0,0,0,0,0,0,0],"sum_hessian":[9.719903E2,7.9112177E2,1.808685E2,1.4227477E2,6.4884705E2,1.3188115E2,4.898735E1,8.998858E0,1.332759E2,1.7486853E2,4.739785E2,6.442685E1,6.745429E1,2.1493431E1,2.749392E1],"tree_param":{"num_deleted":"0","num_feature":"106","num_nodes":"15","size_leaf_vector":"1"}},{"base_weights":[1.3559759E-1,2.3262635E-1,-2.8775334E-1,5.174804E-1,1.694653E-1,-4.0842363E-1,3.8780455E-2,-2.9525252E-3,5.741467E-3,3.764373E-3,9.2473766E-4,-5.869553E-3,-2.318213E-3,3.756735E-3,-2.2852782E-3],"categories":[],"categories_nodes":[],"categories_segments":[],"categories_sizes":[],"default_left":[0,0,0,0,0,0,0,0,0,0,0,0,0,0,0],"id":15,"left_children":[1,3,5,7,9,11,13,-1,-1,-1,-1,-1,-1,-1,-1],"loss_changes":[4.0034676E1,1.4163898E1,7.181988E0,6.7679787E0,1.0320562E1,4.0535564E0,4.5874276E0,0E0,0E0,0E0,0E0,0E0,0E0,0E0,0E0],"parents":[2147483647,0,0,1,1,2,2,3,3,4,4,5,5,6,6],"right_children":[2,4,6,8,10,12,14,-1,-1,-1,-1,-1,-1,-1,-1],"split_conditions":[2.5E1,-4.6E0,2.1E1,3.83E-1,6E0,3.2E1,1.1E1,-2.9525252E-3,5.741467E-3,3.764373E-3,9.2473766E-4,-5.869553E-3,-2.318213E-3,3.756735E-3,-2.2852782E-3],"split_indices":[51,77,74,3,28,15,97,0,0,0,0,0,0,0,0],"split_type":[0,0,0,0,0,0,0,0,0,0,0,0,0,0,0],"sum_hessian":[9.719903E2,7.9112177E2,1.808685E2,1.4227477E2,6.4884705E2,1.3188115E2,4.8987347E1,8.998859E0,1.332759E2,1.7486853E2,4.739785E2,6.442685E1,6.745429E1,2.149343E1,2.7493917E1],"tree_param":{"num_deleted":"0","num_feature":"106","num_nodes":"15","size_leaf_vector":"1"}},{"base_weights":[-1.3426282E-1,2.7705017E-1,-2.3238234E-1,4.223476E-1,-7.4681486E-3,-5.4248273E-1,-1.6654311E-1,1.8622595E-3,5.7065273E-3,1.5698472E-3,-4.0962417E-3,-6.011627E-3,1.5168979E-3,-3.7277641E-3,-8.9846435E-4],"categories":[],"categories_nodes":[],"categories_segments":[],"categories_sizes":[],"default_left":[0,0,0,0,0,0,0,0,0,0,0,0,0,0,0],"id":16,"left_children":[1,3,5,7,9,11,13,-1,-1,-1,-1,-1,-1,-1,-1],"loss_changes":[3.9326233E1,7.768057E0,1.5957485E1,4.2483273E0,4.3286157E0,5.680443E0,1.0244644E1,0E0,0E0,0E0,0E0,0E0,0E0,0E0,0E0],"parents":[2147483647,0,0,1,1,2,2,3,3,4,4,5,5,6,6],"right_children":[2,4,6,8,10,12,14,-1,-1,-1,-1,-1,-1,-1,-1],"split_conditions":[-3.7E0,2.08E1,-4.6E0,2.26E1,2.95E-1,6.3E0,6E0,1.8622595E-3,5.7065273E-3,1.5698472E-3,-4.0962417E-3,-6.011627E-3,1.5168979E-3,-3.7277641E-3,-8.9846435E-4],"split_indices":[25,74,77,64,3,72,28,0,0,0,0,0,0,0,0],"split_type":[0,0,0,0,0,0,0,0,0,0,0,0,0,0,0],"sum_hessian":[9.7184344E2,1.8683119E2,7.8501227E2,1.23353004E2,6.3478184E1,1.3621327E2,6.4879895E2,4.8457638E1,7.489537E1,4.548694E1,1.7991243E1,1.25719864E2,1.0493406E1,1.7482997E2,4.73969E2],"tree_param":{"num_deleted":"0","num_feature":"106","num_nodes":"15","size_leaf_vector":"1"}},{"base_weights":[1.3426282E-1,-2.770502E-1,2.3238234E-1,-4.2234764E-1,7.4681113E-3,5.424827E-1,1.6654311E-1,-1.8622593E-3,-5.7065277E-3,-1.5698476E-3,4.096241E-3,6.011627E-3,-1.5168987E-3,3.7277641E-3,8.9846435E-4],"categories":[],"categories_nodes":[],"categories_segments":[],"categories_sizes":[],"default_left":[0,0,0,0,0,0,0,0,0,0,0,0,0,0,0],"id":17,"left_children":[1,3,5,7,9,11,13,-1,-1,-1,-1,-1,-1,-1,-1],"loss_changes":[3.932624E1,7.768054E0,1.5957485E1,4.248331E0,4.328615E0,5.6804466E0,1.0244644E1,0E0,0E0,0E0,0E0,0E0,0E0,0E0,0E0],"parents":[2147483647,0,0,1,1,2,2,3,3,4,4,5,5,6,6],"right_children":[2,4,6,8,10,12,14,-1,-1,-1,-1,-1,-1,-1,-1],"split_conditions":[-3.7E0,2.08E1,-4.6E0,2.26E1,2.95E-1,6.3E0,6E0,-1.8622593E-3,-5.7065277E-3,-1.5698476E-3,4.096241E-3,6.011627E-3,-1.5168987E-3,3.7277641E-3,8.9846435E-4],"split_indices":[25,74,77,64,3,72,28,0,0,0,0,0,0,0,0],"split_type":[0,0,0,0,0,0,0,0,0,0,0,0,0,0,0],"sum_hessian":[9.7184344E2,1.8683119E2,7.8501227E2,1.23353004E2,6.3478184E1,1.3621327E2,6.4879895E2,4.845764E1,7.489537E1,4.5486942E1,1.7991243E1,1.25719864E2,1.0493406E1,1.7482997E2,4.73969E2],"tree_param":{"num_deleted":"0","num_feature":"106","num_nodes":"15","size_leaf_vector":"1"}},{"base_weights":[-1.3294701E-1,3.130586E-1,-2.2167246E-1,-4.026019E-1,3.8350043E-1,-5.560451E-1,-1.6419032E-1,-7.919049E-3,3.1355487E-3,-1.7267058E-3,4.4989483E-3,5.2742944E-3,-5.8864974E-3,-3.778692E-3,-9.4536867E-4],"categories":[],"categories_nodes":[],"categories_segments":[],"categories_sizes":[],"default_left":[0,0,0,0,0,0,0,0,0,0,0,0,0,0,0],"id":18,"left_children":[1,3,5,7,9,11,13,-1,-1,-1,-1,-1,-1,-1,-1],"loss_changes":[3.8560318E1,8.311469E0,1.5513264E1,4.426763E0,5.536165E0,4.50288E0,1.0296326E1,0E0,0E0,0E0,0E0,0E0,0E0,0E0,0E0],"parents":[2147483647,0,0,1,1,2,2,3,3,4,4,5,5,6,6],"right_children":[2,4,6,8,10,12,14,-1,-1,-1,-1,-1,-1,-1,-1],"split_conditions":[-5.2E0,4.46E-1,-6E0,1.9E1,4E0,1.01E1,7E0,-7.919049E-3,3.1355487E-3,-1.7267058E-3,4.4989483E-3,5.2742944E-3,-5.8864974E-3,-3.778692E-3,-9.4536867E-4],"split_indices":[25,59,77,91,84,8,51,0,0,0,0,0,0,0,0],"split_type":[0,0,0,0,0,0,0,0,0,0,0,0,0,0,0],"sum_hessian":[9.716795E2,1.6080675E2,8.1087274E2,1.3987186E1,1.4681956E2,1.1767661E2,6.9319617E2,8.992883E0,4.9943037E0,1.5487083E1,1.3133247E2,2.9943929E0,1.1468222E2,1.6932515E2,5.2387103E2],"tree_param":{"num_deleted":"0","num_feature":"106","num_nodes":"15","size_leaf_vector":"1"}},{"base_weights":[1.3294703E-1,-3.130586E-1,2.2167249E-1,4.026019E-1,-3.8350046E-1,5.560451E-1,1.6419035E-1,7.919049E-3,-3.1355484E-3,1.7267058E-3,-4.498949E-3,-5.274295E-3,5.8864974E-3,3.778693E-3,9.453688E-4],"categories":[],"categories_nodes":[],"categories_segments":[],"categories_sizes":[],"default_left":[0,0,0,0,0,0,0,0,0,0,0,0,0,0,0],"id":19,"left_children":[1,3,5,7,9,11,13,-1,-1,-1,-1,-1,-1,-1,-1],"loss_changes":[3.8560326E1,8.31147E0,1.5513264E1,4.426763E0,5.5361633E0,4.5028763E0,1.0296333E1,0E0,0E0,0E0,0E0,0E0,0E0,0E0,0E0],"parents":[2147483647,0,0,1,1,2,2,3,3,4,4,5,5,6,6],"right_children":[2,4,6,8,10,12,14,-1,-1,-1,-1,-1,-1,-1,-1],"split_conditions":[-5.2E0,4.46E-1,-6E0,1.9E1,4E0,1.01E1,7E0,7.919049E-3,-3.1355484E-3,1.7267058E-3,-4.498949E-3,-5.274295E-3,5.8864974E-3,3.778693E-3,9.453688E-4],"split_indices":[25,59,77,91,84,8,51,0,0,0,0,0,0,0,0],"split_type":[0,0,0,0,0,0,0,0,0,0,0,0,0,0,0],"sum_hessian":[9.716795E2,1.6080676E2,8.1087274E2,1.3987186E1,1.4681956E2,1.176766E2,6.9319617E2,8.992883E0,4.994304E0,1.5487084E1,1.3133249E2,2.9943929E0,1.14682205E2,1.6932515E2,5.2387103E2],"tree_param":{"num_deleted":"0","num_feature":"106","num_nodes":"15","size_leaf_vector":"1"}},{"base_weights":[-1.3164748E-1,-2.2601631E-1,2.8016117E-1,-1.671664E-1,-5.22235E-1,3.984287E-1,-3.9612114E-2,-1.284996E-3,-5.5729407E-3,-1.1397887E-3,-6.559832E-3,5.7497867E-3,2.2394988E-3,-6.0711037E-3,1.1729255E-3],"categories":[],"categories_nodes":[],"categories_segments":[],"categories_sizes":[],"default_left":[0,0,0,0,0,0,0,0,0,0,0,0,0,0,0],"id":20,"left_children":[1,3,5,7,9,11,13,-1,-1,-1,-1,-1,-1,-1,-1],"loss_changes":[3.7857132E1,1.3714989E1,6.8896036E0,9.914673E0,7.0650406E0,3.9612427E0,4.521803E0,0E0,0E0,0E0,0E0,0E0,0E0,0E0,0E0],"parents":[2147483647,0,0,1,1,2,2,3,3,4,4,5,5,6,6],"right_children":[2,4,6,8,10,12,14,-1,-1,-1,-1,-1,-1,-1,-1],"split_conditions":[2.5E1,2.6E1,2.1E1,6.7E0,8.74E1,3.2E1,1.01E1,-1.284996E-3,-5.5729407E-3,-1.1397887E-3,-6.559832E-3,5.7497867E-3,2.2394988E-3,-6.0711037E-3,1.1729255E-3],"split_indices":[51,96,74,25,58,15,8,0,0,0,0,0,0,0,0],"split_type":[0,0,0,0,0,0,0,0,0,0,0,0,0,0,0],"sum_hessian":[9.715156E2,7.9075885E2,1.8075676E2,6.6100165E2,1.2975722E2,1.3177432E2,4.8982445E1,6.02605E2,5.8396706E1,3.2476723E1,9.728049E1,6.4357475E1,6.741685E1,9.988044E0,3.89944E1],"tree_param":{"num_deleted":"0","num_feature":"106","num_nodes":"15","size_leaf_vector":"1"}},{"base_weights":[1.3164748E-1,2.2601631E-1,-2.8016114E-1,1.671664E-1,5.22235E-1,-3.9842865E-1,3.9612126E-2,1.284996E-3,5.5729407E-3,1.1397887E-3,6.559832E-3,-5.7497863E-3,-2.239498E-3,6.0711037E-3,-1.1729255E-3],"categories":[],"categories_nodes":[],"categories_segments":[],"categories_sizes":[],"default_left":[0,0,0,0,0,0,0,0,0,0,0,0,0,0,0],"id":21,"left_children":[1,3,5,7,9,11,13,-1,-1,-1,-1,-1,-1,-1,-1],"loss_changes":[3.7857124E1,1.3714993E1,6.8896017E0,9.914669E0,7.0650406E0,3.9612446E0,4.521803E0,0E0,0E0,0E0,0E0,0E0,0E0,0E0,0E0],"parents":[2147483647,0,0,1,1,2,2,3,3,4,4,5,5,6,6],"right_children":[2,4,6,8,10,12,14,-1,-1,-1,-1,-1,-1,-1,-1],"split_conditions":[2.5E1,2.6E1,2.1E1,6.7E0,8.74E1,3.2E1,1.01E1,1.284996E-3,5.5729407E-3,1.1397887E-3,6.559832E-3,-5.7497863E-3,-2.239498E-3,6.0711037E-3,-1.1729255E-3],"split_indices":[51,96,74,25,58,15,8,0,0,0,0,0,0,0,0],"split_type":[0,0,0,0,0,0,0,0,0,0,0,0,0,0,0],"sum_hessian":[9.715156E2,7.9075885E2,1.8075676E2,6.6100165E2,1.297572E2,1.3177432E2,4.8982445E1,6.02605E2,5.83967E1,3.2476723E1,9.728048E1,6.4357475E1,6.741685E1,9.988044E0,3.89944E1],"tree_param":{"num_deleted":"0","num_feature":"106","num_nodes":"15","size_leaf_vector":"1"}},{"base_weights":[-1.3036552E-1,2.6977447E-1,-2.2579812E-1,4.1199726E-1,-8.5149985E-3,-5.291439E-1,-1.6147843E-1,4.707335E-3,-1.5157951E-3,1.5364343E-3,-4.05074E-3,-5.8704168E-3,1.5427641E-3,-3.6354354E-3,-8.6381595E-4],"categories":[],"categories_nodes":[],"categories_segments":[],"categories_sizes":[],"default_left":[0,0,0,0,0,0,0,0,0,0,0,0,0,0,0],"id":22,"left_children":[1,3,5,7,9,11,13,-1,-1,-1,-1,-1,-1,-1,-1],"loss_changes":[3.7191364E1,7.4325447E0,1.5243389E1,4.183935E0,4.207535E0,5.511551E0,9.826588E0,0E0,0E0,0E0,0E0,0E0,0E0,0E0,0E0],"parents":[2147483647,0,0,1,1,2,2,3,3,4,4,5,5,6,6],"right_children":[2,4,6,8,10,12,14,-1,-1,-1,-1,-1,-1,-1,-1],"split_conditions":[-3.7E0,2.08E1,-4.6E0,2.8E1,2.95E-1,6.3E0,6E0,4.707335E-3,-1.5157951E-3,1.5364343E-3,-4.05074E-3,-5.8704168E-3,1.5427641E-3,-3.6354354E-3,-8.6381595E-4],"split_indices":[25,74,77,101,3,72,28,0,0,0,0,0,0,0,0],"split_type":[0,0,0,0,0,0,0,0,0,0,0,0,0,0,0],"sum_hessian":[9.713475E2,1.8670094E2,7.8464655E2,1.2323825E2,6.3462685E1,1.3600243E2,6.486441E2,1.1175575E2,1.1482499E1,4.5478474E1,1.7984213E1,1.255105E2,1.049193E1,1.7470894E2,4.7393518E2],"tree_param":{"num_deleted":"0","num_feature":"106","num_nodes":"15","size_leaf_vector":"1"}},{"base_weights":[1.3036555E-1,-2.6977447E-1,2.2579814E-1,-4.1199726E-1,8.515001E-3,5.29144E-1,1.6147844E-1,-4.707335E-3,1.5157945E-3,-1.5364343E-3,4.05074E-3,5.8704177E-3,-1.5427638E-3,3.6354354E-3,8.638161E-4],"categories":[],"categories_nodes":[],"categories_segments":[],"categories_sizes":[],"default_left":[0,0,0,0,0,0,0,0,0,0,0,0,0,0,0],"id":23,"left_children":[1,3,5,7,9,11,13,-1,-1,-1,-1,-1,-1,-1,-1],"loss_changes":[3.719137E1,7.4325447E0,1.5243397E1,4.183935E0,4.207535E0,5.511551E0,9.826588E0,0E0,0E0,0E0,0E0,0E0,0E0,0E0,0E0],"parents":[2147483647,0,0,1,1,2,2,3,3,4,4,5,5,6,6],"right_children":[2,4,6,8,10,12,14,-1,-1,-1,-1,-1,-1,-1,-1],"split_conditions":[-3.7E0,2.08E1,-4.6E0,2.8E1,2.95E-1,6.3E0,6E0,-4.707335E-3,1.5157945E-3,-1.5364343E-3,4.05074E-3,5.8704177E-3,-1.5427638E-3,3.6354354E-3,8.638161E-4],"split_indices":[25,74,77,101,3,72,28,0,0,0,0,0,0,0,0],"split_type":[0,0,0,0,0,0,0,0,0,0,0,0,0,0,0],"sum_hessian":[9.7134753E2,1.8670094E2,7.846466E2,1.2323825E2,6.3462685E1,1.3600243E2,6.4864417E2,1.1175575E2,1.1482499E1,4.5478474E1,1.7984213E1,1.255105E2,1.049193E1,1.7470895E2,4.739352E2],"tree_param":{"num_deleted":"0","num_feature":"106","num_nodes":"15","size_leaf_vector":"1"}},{"base_weights":[-1.2909818E-1,-2.045701E-1,3.6688596E-1,-5.001812E-1,-1.3927233E-1,-7.290659E-2,4.6810073E-1,-5.699267E-3,1.0927808E-3,-3.6003995E-3,-6.4191397E-4,6.5331776E-3,-3.1108074E-3,5.046793E-4,5.5687986E-3],"categories":[],"categories_nodes":[],"categories_segments":[],"categories_sizes":[],"default_left":[0,0,0,0,0,0,0,0,0,0,0,0,0,0,0],"id":24,"left_children":[1,3,5,7,9,11,13,-1,-1,-1,-1,-1,-1,-1,-1],"loss_changes":[3.646502E1,1.6229408E1,5.7651463E0,6.539776E0,1.146375E1,4.519153E0,3.857418E0,0E0,0E0,0E0,0E0,0E0,0E0,0E0,0E0],"parents":[2147483647,0,0,1,1,2,2,3,3,4,4,5,5,6,6],"right_children":[2,4,6,8,10,12,14,-1,-1,-1,-1,-1,-1,-1,-1],"split_conditions":[2.6E1,-4.6E0,1.085E2,6.3E0,6E0,6E0,3.17E1,-5.699267E-3,1.0927808E-3,-3.6003995E-3,-6.4191397E-4,6.5331776E-3,-3.1108074E-3,5.046793E-4,5.5687986E-3],"split_indices":[28,77,24,72,28,40,67,0,0,0,0,0,0,0,0],"split_type":[0,0,0,0,0,0,0,0,0,0,0,0,0,0,0],"sum_hessian":[9.711392E2,8.433913E2,1.2774793E2,1.5138637E2,6.920049E2,2.395214E1,1.0379579E2,1.3589915E2,1.5487216E1,1.7465495E2,5.173499E2,5.484908E0,1.8467232E1,1.847142E1,8.532437E1],"tree_param":{"num_deleted":"0","num_feature":"106","num_nodes":"15","size_leaf_vector":"1"}},{"base_weights":[1.2909816E-1,2.045701E-1,-3.6688596E-1,5.001812E-1,1.3927233E-1,7.290659E-2,-4.6810073E-1,5.6992667E-3,-1.0927804E-3,3.6003997E-3,6.4191385E-4,-6.5331776E-3,3.1108074E-3,-5.0467934E-4,-5.568798E-3],"categories":[],"categories_nodes":[],"categories_segments":[],"categories_sizes":[],"default_left":[0,0,0,0,0,0,0,0,0,0,0,0,0,0,0],"id":25,"left_children":[1,3,5,7,9,11,13,-1,-1,-1,-1,-1,-1,-1,-1],"loss_changes":[3.646502E1,1.6229404E1,5.765148E0,6.539772E0,1.1463755E1,4.519153E0,3.857418E0,0E0,0E0,0E0,0E0,0E0,0E0,0E0,0E0],"parents":[2147483647,0,0,1,1,2,2,3,3,4,4,5,5,6,6],"right_children":[2,4,6,8,10,12,14,-1,-1,-1,-1,-1,-1,-1,-1],"split_conditions":[2.6E1,-4.6E0,1.085E2,6.3E0,6E0,6E0,3.17E1,5.6992667E-3,-1.0927804E-3,3.6003997E-3,6.4191385E-4,-6.5331776E-3,3.1108074E-3,-5.0467934E-4,-5.568798E-3],"split_indices":[28,77,24,72,28,40,67,0,0,0,0,0,0,0,0],"split_type":[0,0,0,0,0,0,0,0,0,0,0,0,0,0,0],"sum_hessian":[9.7113916E2,8.4339124E2,1.2774793E2,1.5138637E2,6.920049E2,2.395214E1,1.0379579E2,1.3589915E2,1.5487216E1,1.7465495E2,5.173499E2,5.4849086E0,1.8467232E1,1.847142E1,8.532437E1],"tree_param":{"num_deleted":"0","num_feature":"106","num_nodes":"15","size_leaf_vector":"1"}},{"base_weights":[-1.2783378E-1,2.6540744E-1,-2.2161378E-1,4.0603152E-1,-9.604043E-3,-5.195506E-1,-1.5851729E-1,1.7417738E-3,5.519029E-3,1.5048347E-3,-4.010762E-3,-5.7652732E-3,1.5185195E-3,-3.565784E-3,-8.4952184E-4],"categories":[],"categories_nodes":[],"categories_segments":[],"categories_sizes":[],"default_left":[0,0,0,0,0,0,0,0,0,0,0,0,0,0,0],"id":26,"left_children":[1,3,5,7,9,11,13,-1,-1,-1,-1,-1,-1,-1,-1],"loss_changes":[3.590196E1,7.259349E0,1.4680782E1,4.1029873E0,4.099525E0,5.3210983E0,9.433405E0,0E0,0E0,0E0,0E0,0E0,0E0,0E0,0E0],"parents":[2147483647,0,0,1,1,2,2,3,3,4,4,5,5,6,6],"right_children":[2,4,6,8,10,12,14,-1,-1,-1,-1,-1,-1,-1,-1],"split_conditions":[-3.7E0,2.08E1,-4.6E0,2.26E1,2.95E-1,6.3E0,6E0,1.7417738E-3,5.519029E-3,1.5048347E-3,-4.010762E-3,-5.7652732E-3,1.5185195E-3,-3.565784E-3,-8.4952184E-4],"split_indices":[25,74,77,64,3,72,28,0,0,0,0,0,0,0,0],"split_type":[0,0,0,0,0,0,0,0,0,0,0,0,0,0,0],"sum_hessian":[9.709341E2,1.8660905E2,7.84325E2,1.2315744E2,6.3451607E1,1.3580934E2,6.485157E2,4.840869E1,7.474875E1,4.5472008E1,1.7979599E1,1.2531605E2,1.0493294E1,1.7459695E2,4.739187E2],"tree_param":{"num_deleted":"0","num_feature":"106","num_nodes":"15","size_leaf_vector":"1"}},{"base_weights":[1.2783375E-1,-2.6540744E-1,2.2161375E-1,-4.0603152E-1,9.60405E-3,5.195505E-1,1.5851727E-1,-1.7417739E-3,-5.519029E-3,-1.5048345E-3,4.0107616E-3,5.7652723E-3,-1.5185198E-3,3.5657834E-3,8.495217E-4],"categories":[],"categories_nodes":[],"categories_segments":[],"categories_sizes":[],"default_left":[0,0,0,0,0,0,0,0,0,0,0,0,0,0,0],"id":27,"left_children":[1,3,5,7,9,11,13,-1,-1,-1,-1,-1,-1,-1,-1],"loss_changes":[3.5901955E1,7.25935E0,1.46807785E1,4.1029854E0,4.0995245E0,5.3210983E0,9.433399E0,0E0,0E0,0E0,0E0,0E0,0E0,0E0,0E0],"parents":[2147483647,0,0,1,1,2,2,3,3,4,4,5,5,6,6],"right_children":[2,4,6,8,10,12,14,-1,-1,-1,-1,-1,-1,-1,-1],"split_conditions":[-3.7E0,2.08E1,-4.6E0,2.26E1,2.95E-1,6.3E0,6E0,-1.7417739E-3,-5.519029E-3,-1.5048345E-3,4.0107616E-3,5.7652723E-3,-1.5185198E-3,3.5657834E-3,8.495217E-4],"split_indices":[25,74,77,64,3,72,28,0,0,0,0,0,0,0,0],"split_type":[0,0,0,0,0,0,0,0,0,0,0,0,0,0,0],"sum_hessian":[9.70934E2,1.8660905E2,7.84325E2,1.2315744E2,6.3451607E1,1.3580936E2,6.485156E2,4.840869E1,7.474875E1,4.5472008E1,1.7979599E1,1.25316055E2,1.0493295E1,1.7459695E2,4.739187E2],"tree_param":{"num_deleted":"0","num_feature":"106","num_nodes":"15","size_leaf_vector":"1"}},{"base_weights":[-1.2659107E-1,-2.1762834E-1,2.707942E-1,-1.6009225E-1,-5.0760865E-1,3.862612E-1,-4.1032534E-2,-1.2232317E-3,-5.4168343E-3,-1.0717809E-3,-6.3905898E-3,5.611391E-3,2.1367879E-3,-3.7504022E-3,2.2407721E-3],"categories":[],"categories_nodes":[],"categories_segments":[],"categories_sizes":[],"default_left":[0,0,0,0,0,0,0,0,0,0,0,0,0,0,0],"id":28,"left_children":[1,3,5,7,9,11,13,-1,-1,-1,-1,-1,-1,-1,-1],"loss_changes":[3.5211765E1,1.3118271E1,6.5530415E0,9.469112E0,6.8017807E0,3.881874E0,4.50852E0,0E0,0E0,0E0,0E0,0E0,0E0,0E0,0E0],"parents":[2147483647,0,0,1,1,2,2,3,3,4,4,5,5,6,6],"right_children":[2,4,6,8,10,12,14,-1,-1,-1,-1,-1,-1,-1,-1],"split_conditions":[2.5E1,2.6E1,2.1E1,6.7E0,8.74E1,3.2E1,1.1E1,-1.2232317E-3,-5.4168343E-3,-1.0717809E-3,-6.3905898E-3,5.611391E-3,2.1367879E-3,-3.7504022E-3,2.2407721E-3],"split_indices":[51,96,74,25,58,15,97,0,0,0,0,0,0,0,0],"split_type":[0,0,0,0,0,0,0,0,0,0,0,0,0,0,0],"sum_hessian":[9.7069354E2,7.901336E2,1.8055992E2,6.6061127E2,1.2952235E2,1.3159326E2,4.896666E1,6.023159E2,5.8295372E1,3.2459126E1,9.7063225E1,6.424366E1,6.7349594E1,2.1484283E1,2.7482376E1],"tree_param":{"num_deleted":"0","num_feature":"106","num_nodes":"15","size_leaf_vector":"1"}},{"base_weights":[1.2659107E-1,2.1762834E-1,-2.7079418E-1,1.6009223E-1,5.0760865E-1,-3.862612E-1,4.1032534E-2,1.2232315E-3,5.4168343E-3,1.0717813E-3,6.3905898E-3,-5.611391E-3,-2.1367876E-3,3.750402E-3,-2.2407721E-3],"categories":[],"categories_nodes":[],"categories_segments":[],"categories_sizes":[],"default_left":[0,0,0,0,0,0,0,0,0,0,0,0,0,0,0],"id":29,"left_children":[1,3,5,7,9,11,13,-1,-1,-1,-1,-1,-1,-1,-1],"loss_changes":[3.5211765E1,1.3118275E1,6.5530396E0,9.4691105E0,6.8017807E0,3.881876E0,4.50852E0,0E0,0E0,0E0,0E0,0E0,0E0,0E0,0E0],"parents":[2147483647,0,0,1,1,2,2,3,3,4,4,5,5,6,6],"right_children":[2,4,6,8,10,12,14,-1,-1,-1,-1,-1,-1,-1,-1],"split_conditions":[2.5E1,2.6E1,2.1E1,6.7E0,8.74E1,3.2E1,1.1E1,1.2232315E-3,5.4168343E-3,1.0717813E-3,6.3905898E-3,-5.611391E-3,-2.1367876E-3,3.750402E-3,-2.2407721E-3],"split_indices":[51,96,74,25,58,15,97,0,0,0,0,0,0,0,0],"split_type":[0,0,0,0,0,0,0,0,0,0,0,0,0,0,0],"sum_hessian":[9.7069354E2,7.901336E2,1.8055992E2,6.6061127E2,1.2952235E2,1.3159326E2,4.896666E1,6.023159E2,5.8295372E1,3.2459126E1,9.7063225E1,6.424366E1,6.73496E1,2.1484283E1,2.7482376E1],"tree_param":{"num_deleted":"0","num_feature":"106","num_nodes":"15","size_leaf_vector":"1"}},{"base_weights":[-1.2536135E-1,-1.9892716E-1,3.5827932E-1,-4.882579E-1,-1.3512005E-1,-7.780611E-2,4.5873585E-1,-5.5677057E-3,1.0904004E-3,-3.5069208E-3,-6.1869033E-4,6.4232466E-3,-3.1342753E-3,4.6700364E-4,5.464209E-3],"categories":[],"categories_nodes":[],"categories_segments":[],"categories_sizes":[],"default_left":[0,0,0,0,0,0,0,0,0,0,0,0,0,0,0],"id":30,"left_children":[1,3,5,7,9,11,13,-1,-1,-1,-1,-1,-1,-1,-1],"loss_changes":[3.4635887E1,1.5512836E1,5.670122E0,6.2846565E0,1.091773E1,4.4324164E0,3.7565536E0,0E0,0E0,0E0,0E0,0E0,0E0,0E0,0E0],"parents":[2147483647,0,0,1,1,2,2,3,3,4,4,5,5,6,6],"right_children":[2,4,6,8,10,12,14,-1,-1,-1,-1,-1,-1,-1,-1],"split_conditions":[2.6E1,-4.6E0,1.085E2,6.3E0,6E0,6E0,3.17E1,-5.5677057E-3,1.0904004E-3,-3.5069208E-3,-6.1869033E-4,6.4232466E-3,-3.1342753E-3,4.6700364E-4,5.464209E-3],"split_indices":[28,77,24,72,28,40,67,0,0,0,0,0,0,0,0],"split_type":[0,0,0,0,0,0,0,0,0,0,0,0,0,0,0],"sum_hessian":[9.7047784E2,8.4286035E2,1.2761747E2,1.5109123E2,6.917691E2,2.3935986E1,1.0368149E2,1.3560466E2,1.5486579E1,1.7448518E2,5.1728394E2,5.475402E0,1.8460583E1,1.8461716E1,8.521977E1],"tree_param":{"num_deleted":"0","num_feature":"106","num_nodes":"15","size_leaf_vector":"1"}},{"base_weights":[1.2536135E-1,1.9892716E-1,-3.5827932E-1,4.882579E-1,1.3512006E-1,7.7806115E-2,-4.5873585E-1,5.567705E-3,-1.0904005E-3,3.5069212E-3,6.1869045E-4,-6.4232466E-3,3.1342753E-3,-4.6700367E-4,-5.464209E-3],"categories":[],"categories_nodes":[],"categories_segments":[],"categories_sizes":[],"default_left":[0,0,0,0,0,0,0,0,0,0,0,0,0,0,0],"id":31,"left_children":[1,3,5,7,9,11,13,-1,-1,-1,-1,-1,-1,-1,-1],"loss_changes":[3.463589E1,1.5512833E1,5.6701202E0,6.2846565E0,1.0917731E1,4.4324164E0,3.7565536E0,0E0,0E0,0E0,0E0,0E0,0E0,0E0,0E0],"parents":[2147483647,0,0,1,1,2,2,3,3,4,4,5,5,6,6],"right_children":[2,4,6,8,10,12,14,-1,-1,-1,-1,-1,-1,-1,-1],"split_conditions":[2.6E1,-4.6E0,1.085E2,6.3E0,6E0,6E0,3.17E1,5.567705E-3,-1.0904005E-3,3.5069212E-3,6.1869045E-4,-6.4232466E-3,3.1342753E-3,-4.6700367E-4,-5.464209E-3],"split_indices":[28,77,24,72,28,40,67,0,0,0,0,0,0,0,0],"split_type":[0,0,0,0,0,0,0,0,0,0,0,0,0,0,0],"sum_hessian":[9.704778E2,8.4286035E2,1.2761747E2,1.5109123E2,6.917691E2,2.3935984E1,1.0368149E2,1.3560464E2,1.5486579E1,1.7448518E2,5.1728394E2,5.475402E0,1.8460583E1,1.8461716E1,8.521977E1],"tree_param":{"num_deleted":"0","num_feature":"106","num_nodes":"15","size_leaf_vector":"1"}},{"base_weights":[-1.2413883E-1,2.5921175E-1,-2.1553986E-1,3.9713895E-1,-1.0266493E-2,-5.069497E-1,-1.5394484E-1,4.5496183E-3,-1.5629507E-3,2.0816915E-3,-2.9353334E-3,-5.6295227E-3,1.5113031E-3,-3.47341E-3,-8.2180876E-4],"categories":[],"categories_nodes":[],"categories_segments":[],"categories_sizes":[],"default_left":[0,0,0,0,0,0,0,0,0,0,0,0,0,0,0],"id":32,"left_children":[1,3,5,7,9,11,13,-1,-1,-1,-1,-1,-1,-1,-1],"loss_changes":[3.4086517E1,6.9708967E0,1.4008511E1,4.0394745E0,4.0478997E0,5.115692E0,8.982897E0,0E0,0E0,0E0,0E0,0E0,0E0,0E0,0E0],"parents":[2147483647,0,0,1,1,2,2,3,3,4,4,5,5,6,6],"right_children":[2,4,6,8,10,12,14,-1,-1,-1,-1,-1,-1,-1,-1],"split_conditions":[-3.7E0,2.08E1,-4.6E0,2.8E1,1.9E1,6.3E0,6E0,4.5496183E-3,-1.5629507E-3,2.0816915E-3,-2.9353334E-3,-5.6295227E-3,1.5113031E-3,-3.47341E-3,-8.2180876E-4],"split_indices":[25,74,77,101,103,72,28,0,0,0,0,0,0,0,0],"split_type":[0,0,0,0,0,0,0,0,0,0,0,0,0,0,0],"sum_hessian":[9.702319E2,1.8643936E2,7.837925E2,1.2300692E2,6.3432446E1,1.355006E2,6.4829193E2,1.1153197E2,1.14749565E1,3.5964355E1,2.7468088E1,1.25007065E2,1.0493535E1,1.7441692E2,4.73875E2],"tree_param":{"num_deleted":"0","num_feature":"106","num_nodes":"15","size_leaf_vector":"1"}},{"base_weights":[1.2413882E-1,-2.5921175E-1,2.1553986E-1,-3.9713895E-1,1.0266478E-2,5.0694966E-1,1.5394482E-1,-4.549619E-3,1.5629506E-3,-2.0816918E-3,2.9353334E-3,5.6295223E-3,-1.5113036E-3,3.47341E-3,8.2180876E-4],"categories":[],"categories_nodes":[],"categories_segments":[],"categories_sizes":[],"default_left":[0,0,0,0,0,0,0,0,0,0,0,0,0,0,0],"id":33,"left_children":[1,3,5,7,9,11,13,-1,-1,-1,-1,-1,-1,-1,-1],"loss_changes":[3.4086517E1,6.970896E0,1.4008511E1,4.0394745E0,4.0479E0,5.115696E0,8.982893E0,0E0,0E0,0E0,0E0,0E0,0E0,0E0,0E0],"parents":[2147483647,0,0,1,1,2,2,3,3,4,4,5,5,6,6],"right_children":[2,4,6,8,10,12,14,-1,-1,-1,-1,-1,-1,-1,-1],"split_conditions":[-3.7E0,2.08E1,-4.6E0,2.8E1,1.9E1,6.3E0,6E0,-4.549619E-3,1.5629506E-3,-2.0816918E-3,2.9353334E-3,5.6295223E-3,-1.5113036E-3,3.47341E-3,8.2180876E-4],"split_indices":[25,74,77,101,103,72,28,0,0,0,0,0,0,0,0],"split_type":[0,0,0,0,0,0,0,0,0,0,0,0,0,0,0],"sum_hessian":[9.702319E2,1.8643936E2,7.837925E2,1.2300692E2,6.3432446E1,1.355006E2,6.4829193E2,1.1153197E2,1.14749565E1,3.5964355E1,2.7468088E1,1.2500706E2,1.0493535E1,1.7441692E2,4.73875E2],"tree_param":{"num_deleted":"0","num_feature":"106","num_nodes":"15","size_leaf_vector":"1"}},{"base_weights":[-1.229391E-1,2.930698E-1,-2.0563391E-1,-3.9863962E-1,3.6129752E-1,-5.191952E-1,-1.5200102E-1,-7.789951E-3,3.0205562E-3,-1.8373464E-3,4.2656995E-3,-5.7573975E-3,1.1878703E-3,-3.5433106E-3,-8.617238E-4],"categories":[],"categories_nodes":[],"categories_segments":[],"categories_sizes":[],"default_left":[0,0,0,0,0,0,0,0,0,0,0,0,0,0,0],"id":34,"left_children":[1,3,5,7,9,11,13,-1,-1,-1,-1,-1,-1,-1,-1],"loss_changes":[3.3462894E1,7.7618465E0,1.3552105E1,4.2243276E0,5.3239403E0,4.3242607E0,9.207151E0,0E0,0E0,0E0,0E0,0E0,0E0,0E0,0E0],"parents":[2147483647,0,0,1,1,2,2,3,3,4,4,5,5,6,6],"right_children":[2,4,6,8,10,12,14,-1,-1,-1,-1,-1,-1,-1,-1],"split_conditions":[-5.2E0,4.46E-1,-6E0,1.9E1,4E0,6.2E0,7E0,-7.789951E-3,3.0205562E-3,-1.8373464E-3,4.2656995E-3,-5.7573975E-3,1.1878703E-3,-3.5433106E-3,-8.617238E-4],"split_indices":[25,59,77,91,84,21,51,0,0,0,0,0,0,0,0],"split_type":[0,0,0,0,0,0,0,0,0,0,0,0,0,0,0],"sum_hessian":[9.699566E2,1.6041588E2,8.095407E2,1.3967464E1,1.4644841E2,1.1697475E2,6.92566E2,8.980741E0,4.986724E0,1.5468644E1,1.3097977E2,1.07540924E2,9.43382E0,1.6893794E2,5.2362805E2],"tree_param":{"num_deleted":"0","num_feature":"106","num_nodes":"15","size_leaf_vector":"1"}},{"base_weights":[1.229391E-1,-2.930698E-1,2.0563391E-1,3.9863962E-1,-3.6129752E-1,5.191952E-1,1.5200102E-1,7.789951E-3,-3.0205562E-3,1.8373464E-3,-4.2656995E-3,5.7573975E-3,-1.1878703E-3,3.5433106E-3,8.617238E-4],"categories":[],"categories_nodes":[],"categories_segments":[],"categories_sizes":[],"default_left":[0,0,0,0,0,0,0,0,0,0,0,0,0,0,0],"id":35,"left_children":[1,3,5,7,9,11,13,-1,-1,-1,-1,-1,-1,-1,-1],"loss_changes":[3.3462894E1,7.7618465E0,1.3552105E1,4.2243276E0,5.3239403E0,4.3242607E0,9.2071495E0,0E0,0E0,0E0,0E0,0E0,0E0,0E0,0E0],"parents":[2147483647,0,0,1,1,2,2,3,3,4,4,5,5,6,6],"right_children":[2,4,6,8,10,12,14,-1,-1,-1,-1,-1,-1,-1,-1],"split_conditions":[-5.2E0,4.46E-1,-6E0,1.9E1,4E0,6.2E0,7E0,7.789951E-3,-3.0205562E-3,1.8373464E-3,-4.2656995E-3,5.7573975E-3,-1.1878703E-3,3.5433106E-3,8.617238E-4],"split_indices":[25,59,77,91,84,21,51,0,0,0,0,0,0,0,0],"split_type":[0,0,0,0,0,0,0,0,0,0,0,0,0,0,0],"sum_hessian":[9.699566E2,1.6041588E2,8.095407E2,1.3967464E1,1.4644841E2,1.1697474E2,6.92566E2,8.980741E0,4.986724E0,1.5468644E1,1.3097977E2,1.0754092E2,9.43382E0,1.6893794E2,5.23628E2],"tree_param":{"num_deleted":"0","num_feature":"106","num_nodes":"15","size_leaf_vector":"1"}},{"base_weights":[-1.21755265E-1,-1.9345681E-1,3.4981763E-1,-4.757696E-1,-1.3132659E-1,-8.18751E-2,4.493732E-1,-5.43082E-3,1.0936194E-3,-3.4123505E-3,-6.0075196E-4,6.321941E-3,-3.149385E-3,4.258602E-4,5.3606085E-3],"categories":[],"categories_nodes":[],"categories_segments":[],"categories_sizes":[],"default_left":[0,0,0,0,0,0,0,0,0,0,0,0,0,0,0],"id":36,"left_children":[1,3,5,7,9,11,13,-1,-1,-1,-1,-1,-1,-1,-1],"loss_changes":[3.28891E1,1.4727753E1,5.558013E0,6.0350494E0,1.0336761E1,4.3464875E0,3.663866E0,0E0,0E0,0E0,0E0,0E0,0E0,0E0,0E0],"parents":[2147483647,0,0,1,1,2,2,3,3,4,4,5,5,6,6],"right_children":[2,4,6,8,10,12,14,-1,-1,-1,-1,-1,-1,-1,-1],"split_conditions":[2.6E1,-4.6E0,1.085E2,6.3E0,6E0,6E0,3.17E1,-5.43082E-3,1.0936194E-3,-3.4123505E-3,-6.0075196E-4,6.321941E-3,-3.149385E-3,4.258602E-4,5.3606085E-3],"split_indices":[28,77,24,72,28,40,67,0,0,0,0,0,0,0,0],"split_type":[0,0,0,0,0,0,0,0,0,0,0,0,0,0,0],"sum_hessian":[9.6968896E2,8.42221E2,1.2746796E2,1.5071794E2,6.9150305E2,2.3920685E1,1.0354727E2,1.3523288E2,1.5485068E1,1.7428009E2,5.1722296E2,5.464816E0,1.8455868E1,1.8451897E1,8.5095375E1],"tree_param":{"num_deleted":"0","num_feature":"106","num_nodes":"15","size_leaf_vector":"1"}},{"base_weights":[1.2175528E-1,1.9345683E-1,-3.4981763E-1,4.7576964E-1,1.313266E-1,8.18751E-2,-4.493732E-1,5.4308204E-3,-1.0936199E-3,3.4123505E-3,6.00752E-4,-6.321941E-3,3.149385E-3,-4.2586046E-4,-5.3606085E-3],"categories":[],"categories_nodes":[],"categories_segments":[],"categories_sizes":[],"default_left":[0,0,0,0,0,0,0,0,0,0,0,0,0,0,0],"id":37,"left_children":[1,3,5,7,9,11,13,-1,-1,-1,-1,-1,-1,-1,-1],"loss_changes":[3.2889103E1,1.4727751E1,5.558013E0,6.0350533E0,1.0336765E1,4.346487E0,3.663866E0,0E0,0E0,0E0,0E0,0E0,0E0,0E0,0E0],"parents":[2147483647,0,0,1,1,2,2,3,3,4,4,5,5,6,6],"right_children":[2,4,6,8,10,12,14,-1,-1,-1,-1,-1,-1,-1,-1],"split_conditions":[2.6E1,-4.6E0,1.085E2,6.3E0,6E0,6E0,3.17E1,5.4308204E-3,-1.0936199E-3,3.4123505E-3,6.00752E-4,-6.321941E-3,3.149385E-3,-4.2586046E-4,-5.3606085E-3],"split_indices":[28,77,24,72,28,40,67,0,0,0,0,0,0,0,0],"split_type":[0,0,0,0,0,0,0,0,0,0,0,0,0,0,0],"sum_hessian":[9.6968896E2,8.42221E2,1.2746796E2,1.5071796E2,6.9150305E2,2.3920685E1,1.0354727E2,1.3523288E2,1.5485068E1,1.7428009E2,5.1722296E2,5.464816E0,1.8455868E1,1.8451899E1,8.5095375E1],"tree_param":{"num_deleted":"0","num_feature":"106","num_nodes":"15","size_leaf_vector":"1"}},{"base_weights":[-1.2057287E-1,2.8839856E-1,-2.0184916E-1,-3.9383814E-1,3.5571197E-1,-5.1002264E-1,-1.4923027E-1,-7.7058016E-3,2.997541E-3,-1.8326455E-3,4.2032353E-3,5.42297E-3,-5.4213097E-3,-3.4818863E-3,-8.4542786E-4],"categories":[],"categories_nodes":[],"categories_segments":[],"categories_sizes":[],"default_left":[0,0,0,0,0,0,0,0,0,0,0,0,0,0,0],"id":38,"left_children":[1,3,5,7,9,11,13,-1,-1,-1,-1,-1,-1,-1,-1],"loss_changes":[3.231412E1,7.547179E0,1.3060471E1,4.1399384E0,5.2077312E0,4.272064E0,8.894407E0,0E0,0E0,0E0,0E0,0E0,0E0,0E0,0E0],"parents":[2147483647,0,0,1,1,2,2,3,3,4,4,5,5,6,6],"right_children":[2,4,6,8,10,12,14,-1,-1,-1,-1,-1,-1,-1,-1],"split_conditions":[-5.2E0,4.46E-1,-6E0,1.9E1,4E0,1.01E1,7E0,-7.7058016E-3,2.997541E-3,-1.8326455E-3,4.2032353E-3,5.42297E-3,-5.4213097E-3,-3.4818863E-3,-8.4542786E-4],"split_indices":[25,59,77,91,84,8,51,0,0,0,0,0,0,0,0],"split_type":[0,0,0,0,0,0,0,0,0,0,0,0,0,0,0],"sum_hessian":[9.694037E2,1.6029124E2,8.091125E2,1.3959335E1,1.4633191E2,1.1673525E2,6.923772E2,8.973925E0,4.985411E0,1.5467632E1,1.3086427E2,2.985896E0,1.1374936E2,1.6880464E2,5.235726E2],"tree_param":{"num_deleted":"0","num_feature":"106","num_nodes":"15","size_leaf_vector":"1"}},{"base_weights":[1.20572865E-1,-2.8839856E-1,2.0184916E-1,3.9383814E-1,-3.5571197E-1,5.1002264E-1,1.4923027E-1,7.7058016E-3,-2.9975404E-3,1.8326456E-3,-4.2032353E-3,-5.4229693E-3,5.4213097E-3,3.4818866E-3,8.4542774E-4],"categories":[],"categories_nodes":[],"categories_segments":[],"categories_sizes":[],"default_left":[0,0,0,0,0,0,0,0,0,0,0,0,0,0,0],"id":39,"left_children":[1,3,5,7,9,11,13,-1,-1,-1,-1,-1,-1,-1,-1],"loss_changes":[3.2314125E1,7.5471773E0,1.3060467E1,4.1399384E0,5.207733E0,4.272064E0,8.89441E0,0E0,0E0,0E0,0E0,0E0,0E0,0E0,0E0],"parents":[2147483647,0,0,1,1,2,2,3,3,4,4,5,5,6,6],"right_children":[2,4,6,8,10,12,14,-1,-1,-1,-1,-1,-1,-1,-1],"split_conditions":[-5.2E0,4.46E-1,-6E0,1.9E1,4E0,1.01E1,7E0,7.7058016E-3,-2.9975404E-3,1.8326456E-3,-4.2032353E-3,-5.4229693E-3,5.4213097E-3,3.4818866E-3,8.4542774E-4],"split_indices":[25,59,77,91,84,8,51,0,0,0,0,0,0,0,0],"split_type":[0,0,0,0,0,0,0,0,0,0,0,0,0,0,0],"sum_hessian":[9.694037E2,1.6029124E2,8.091124E2,1.3959336E1,1.4633191E2,1.1673525E2,6.923772E2,8.973925E0,4.9854116E0,1.5467633E1,1.3086427E2,2.985896E0,1.1374936E2,1.6880464E2,5.235726E2],"tree_param":{"num_deleted":"0","num_feature":"106","num_nodes":"15","size_leaf_vector":"1"}},{"base_weights":[-1.1941063E-1,-1.8983848E-1,3.4394693E-1,-4.676271E-1,-1.2879877E-1,-8.3414316E-2,4.4258955E-1,-5.342046E-3,1.098954E-3,-3.3525925E-3,-5.877233E-4,6.241945E-3,-3.1391531E-3,4.0027956E-4,5.284749E-3],"categories":[],"categories_nodes":[],"categories_segments":[],"categories_sizes":[],"default_left":[0,0,0,0,0,0,0,0,0,0,0,0,0,0,0],"id":40,"left_children":[1,3,5,7,9,11,13,-1,-1,-1,-1,-1,-1,-1,-1],"loss_changes":[3.172313E1,1.4229668E1,5.4477377E0,5.881649E0,9.989572E0,4.259135E0,3.5897903E0,0E0,0E0,0E0,0E0,0E0,0E0,0E0,0E0],"parents":[2147483647,0,0,1,1,2,2,3,3,4,4,5,5,6,6],"right_children":[2,4,6,8,10,12,14,-1,-1,-1,-1,-1,-1,-1,-1],"split_conditions":[2.6E1,-4.6E0,1.085E2,6.3E0,6E0,6E0,3.17E1,-5.342046E-3,1.098954E-3,-3.3525925E-3,-5.877233E-4,6.241945E-3,-3.1391531E-3,4.0027956E-4,5.284749E-3],"split_indices":[28,77,24,72,28,40,67,0,0,0,0,0,0,0,0],"split_type":[0,0,0,0,0,0,0,0,0,0,0,0,0,0,0],"sum_hessian":[9.6910895E2,8.417567E2,1.27352196E2,1.5044197E2,6.9131476E2,2.3911577E1,1.0344062E2,1.3495877E2,1.5483199E1,1.7413147E2,5.171833E2,5.4555964E0,1.845598E1,1.8446114E1,8.49945E1],"tree_param":{"num_deleted":"0","num_feature":"106","num_nodes":"15","size_leaf_vector":"1"}},{"base_weights":[1.1941064E-1,1.898385E-1,-3.4394693E-1,4.6762714E-1,1.2879878E-1,8.341432E-2,-4.4258955E-1,5.342046E-3,-1.0989538E-3,3.3525932E-3,5.877233E-4,-6.241945E-3,3.1391531E-3,-4.0027968E-4,-5.284749E-3],"categories":[],"categories_nodes":[],"categories_segments":[],"categories_sizes":[],"default_left":[0,0,0,0,0,0,0,0,0,0,0,0,0,0,0],"id":41,"left_children":[1,3,5,7,9,11,13,-1,-1,-1,-1,-1,-1,-1,-1],"loss_changes":[3.172313E1,1.42296715E1,5.4477396E0,5.881649E0,9.989575E0,4.259135E0,3.5897884E0,0E0,0E0,0E0,0E0,0E0,0E0,0E0,0E0],"parents":[2147483647,0,0,1,1,2,2,3,3,4,4,5,5,6,6],"right_children":[2,4,6,8,10,12,14,-1,-1,-1,-1,-1,-1,-1,-1],"split_conditions":[2.6E1,-4.6E0,1.085E2,6.3E0,6E0,6E0,3.17E1,5.342046E-3,-1.0989538E-3,3.3525932E-3,5.877233E-4,-6.241945E-3,3.1391531E-3,-4.0027968E-4,-5.284749E-3],"split_indices":[28,77,24,72,28,40,67,0,0,0,0,0,0,0,0],"split_type":[0,0,0,0,0,0,0,0,0,0,0,0,0,0,0],"sum_hessian":[9.6910895E2,8.417567E2,1.27352196E2,1.5044197E2,6.9131476E2,2.3911577E1,1.0344062E2,1.3495877E2,1.5483199E1,1.7413147E2,5.171833E2,5.4555964E0,1.845598E1,1.8446114E1,8.499451E1],"tree_param":{"num_deleted":"0","num_feature":"106","num_nodes":"15","size_leaf_vector":"1"}},{"base_weights":[-1.1825413E-1,2.8382975E-1,-1.9813864E-1,-3.891551E-1,3.5024694E-1,-5.01067E-1,-1.465149E-1,-7.624162E-3,2.9747616E-3,-1.8277415E-3,4.142125E-3,-8.5887563E-4,-5.893114E-3,-3.4217793E-3,-8.294618E-4],"categories":[],"categories_nodes":[],"categories_segments":[],"categories_sizes":[],"default_left":[0,0,0,0,0,0,0,0,0,0,0,0,0,0,0],"id":42,"left_children":[1,3,5,7,9,11,13,-1,-1,-1,-1,-1,-1,-1,-1],"loss_changes":[3.1206417E1,7.3394156E0,1.2588078E1,4.058177E0,5.094576E0,4.253296E0,8.593339E0,0E0,0E0,0E0,0E0,0E0,0E0,0E0,0E0],"parents":[2147483647,0,0,1,1,2,2,3,3,4,4,5,5,6,6],"right_children":[2,4,6,8,10,12,14,-1,-1,-1,-1,-1,-1,-1,-1],"split_conditions":[-5.2E0,4.46E-1,-6E0,1.9E1,4E0,4E0,7E0,-7.624162E-3,2.9747616E-3,-1.8277415E-3,4.142125E-3,-8.5887563E-4,-5.893114E-3,-3.4217793E-3,-8.294618E-4],"split_indices":[25,59,77,91,84,78,51,0,0,0,0,0,0,0,0],"split_type":[0,0,0,0,0,0,0,0,0,0,0,0,0,0,0],"sum_hessian":[9.687983E2,1.6015163E2,8.0864667E2,1.3949219E1,1.4620241E2,1.1647349E2,6.9217316E2,8.965236E0,4.983983E0,1.5466201E1,1.307362E2,2.0762358E1,9.571113E1,1.6865971E2,5.235134E2],"tree_param":{"num_deleted":"0","num_feature":"106","num_nodes":"15","size_leaf_vector":"1"}},{"base_weights":[1.18254155E-1,-2.8382975E-1,1.9813865E-1,3.891551E-1,-3.5024694E-1,5.01067E-1,1.4651492E-1,7.624162E-3,-2.9747616E-3,1.8277414E-3,-4.142125E-3,8.588752E-4,5.893114E-3,3.4217795E-3,8.29462E-4],"categories":[],"categories_nodes":[],"categories_segments":[],"categories_sizes":[],"default_left":[0,0,0,0,0,0,0,0,0,0,0,0,0,0,0],"id":43,"left_children":[1,3,5,7,9,11,13,-1,-1,-1,-1,-1,-1,-1,-1],"loss_changes":[3.1206425E1,7.3394156E0,1.2588076E1,4.058177E0,5.094574E0,4.25329E0,8.59334E0,0E0,0E0,0E0,0E0,0E0,0E0,0E0,0E0],"parents":[2147483647,0,0,1,1,2,2,3,3,4,4,5,5,6,6],"right_children":[2,4,6,8,10,12,14,-1,-1,-1,-1,-1,-1,-1,-1],"split_conditions":[-5.2E0,4.46E-1,-6E0,1.9E1,4E0,4E0,7E0,7.624162E-3,-2.9747616E-3,1.8277414E-3,-4.142125E-3,8.588752E-4,5.893114E-3,3.4217795E-3,8.29462E-4],"split_indices":[25,59,77,91,84,78,51,0,0,0,0,0,0,0,0],"split_type":[0,0,0,0,0,0,0,0,0,0,0,0,0,0,0],"sum_hessian":[9.687983E2,1.6015163E2,8.0864667E2,1.3949219E1,1.4620241E2,1.1647349E2,6.921732E2,8.965236E0,4.983983E0,1.5466202E1,1.307362E2,2.0762358E1,9.5711136E1,1.6865971E2,5.235135E2],"tree_param":{"num_deleted":"0","num_feature":"106","num_nodes":"15","size_leaf_vector":"1"}},{"base_weights":[-1.1712389E-1,2.4665312E-1,-2.0381245E-1,3.8136655E-1,-1.5983993E-2,-4.8158577E-1,-1.4539564E-1,1.5543511E-3,5.2397763E-3,1.3968279E-3,-3.9646053E-3,-5.3607E-3,1.5397468E-3,-3.2940926E-3,-7.727533E-4],"categories":[],"categories_nodes":[],"categories_segments":[],"categories_sizes":[],"default_left":[0,0,0,0,0,0,0,0,0,0,0,0,0,0,0],"id":44,"left_children":[1,3,5,7,9,11,13,-1,-1,-1,-1,-1,-1,-1,-1],"loss_changes":[3.0623203E1,6.623065E0,1.264291E1,3.9027977E0,3.8675966E0,4.78166E0,8.1067705E0,0E0,0E0,0E0,0E0,0E0,0E0,0E0,0E0],"parents":[2147483647,0,0,1,1,2,2,3,3,4,4,5,5,6,6],"right_children":[2,4,6,8,10,12,14,-1,-1,-1,-1,-1,-1,-1,-1],"split_conditions":[-3.7E0,2.08E1,-4.6E0,2.26E1,2.95E-1,6.3E0,6E0,1.5543511E-3,5.2397763E-3,1.3968279E-3,-3.9646053E-3,-5.3607E-3,1.5397468E-3,-3.2940926E-3,-7.727533E-4],"split_indices":[25,74,77,64,3,72,28,0,0,0,0,0,0,0,0],"split_type":[0,0,0,0,0,0,0,0,0,0,0,0,0,0,0],"sum_hessian":[9.684826E2,1.8602176E2,7.824608E2,1.2265615E2,6.3365612E1,1.3470265E2,6.477582E2,4.8271698E1,7.438445E1,4.5416817E1,1.7948795E1,1.2421103E2,1.0491616E1,1.7397179E2,4.7378638E2],"tree_param":{"num_deleted":"0","num_feature":"106","num_nodes":"15","size_leaf_vector":"1"}},{"base_weights":[1.1712387E-1,-2.4665314E-1,2.0381244E-1,-3.8136658E-1,1.5983997E-2,4.8158577E-1,1.453956E-1,-1.5543514E-3,-5.2397763E-3,-1.3968279E-3,3.9646053E-3,5.3607E-3,-1.5397463E-3,3.2940924E-3,7.727531E-4],"categories":[],"categories_nodes":[],"categories_segments":[],"categories_sizes":[],"default_left":[0,0,0,0,0,0,0,0,0,0,0,0,0,0,0],"id":45,"left_children":[1,3,5,7,9,11,13,-1,-1,-1,-1,-1,-1,-1,-1],"loss_changes":[3.06232E1,6.623066E0,1.2642918E1,3.9027977E0,3.8675966E0,4.78166E0,8.106768E0,0E0,0E0,0E0,0E0,0E0,0E0,0E0,0E0],"parents":[2147483647,0,0,1,1,2,2,3,3,4,4,5,5,6,6],"right_children":[2,4,6,8,10,12,14,-1,-1,-1,-1,-1,-1,-1,-1],"split_conditions":[-3.7E0,2.08E1,-4.6E0,2.26E1,2.95E-1,6.3E0,6E0,-1.5543514E-3,-5.2397763E-3,-1.3968279E-3,3.9646053E-3,5.3607E-3,-1.5397463E-3,3.2940924E-3,7.727531E-4],"split_indices":[25,74,77,64,3,72,28,0,0,0,0,0,0,0,0],"split_type":[0,0,0,0,0,0,0,0,0,0,0,0,0,0,0],"sum_hessian":[9.6848254E2,1.8602176E2,7.824608E2,1.2265615E2,6.336561E1,1.3470265E2,6.477581E2,4.8271698E1,7.438445E1,4.5416817E1,1.7948795E1,1.2421103E2,1.0491615E1,1.7397179E2,4.7378635E2],"tree_param":{"num_deleted":"0","num_feature":"106","num_nodes":"15","size_leaf_vector":"1"}},{"base_weights":[-1.15998596E-1,-1.8462522E-1,3.3576274E-1,-4.559939E-1,-1.2514918E-1,-8.766342E-2,4.3362826E-1,-5.2148444E-3,1.1013426E-3,-3.2630144E-3,-5.7010486E-4,6.144735E-3,-3.1569265E-3,3.6061907E-4,5.1859007E-3],"categories":[],"categories_nodes":[],"categories_segments":[],"categories_sizes":[],"default_left":[0,0,0,0,0,0,0,0,0,0,0,0,0,0,0],"id":46,"left_children":[1,3,5,7,9,11,13,-1,-1,-1,-1,-1,-1,-1,-1],"loss_changes":[3.0107891E1,1.353233E1,5.348817E0,5.655302E0,9.465983E0,4.1794147E0,3.5032558E0,0E0,0E0,0E0,0E0,0E0,0E0,0E0,0E0],"parents":[2147483647,0,0,1,1,2,2,3,3,4,4,5,5,6,6],"right_children":[2,4,6,8,10,12,14,-1,-1,-1,-1,-1,-1,-1,-1],"split_conditions":[2.6E1,-4.6E0,1.085E2,6.3E0,6E0,6E0,3.17E1,-5.2148444E-3,1.1013426E-3,-3.2630144E-3,-5.7010486E-4,6.144735E-3,-3.1569265E-3,3.6061907E-4,5.1859007E-3],"split_indices":[28,77,24,72,28,40,67,0,0,0,0,0,0,0,0],"split_type":[0,0,0,0,0,0,0,0,0,0,0,0,0,0,0],"sum_hessian":[9.6813336E2,8.4097327E2,1.27160095E2,1.499835E2,6.9098975E2,2.3892174E1,1.0326793E2,1.3450287E2,1.5480632E1,1.7388243E2,5.1710736E2,5.4416833E0,1.8450489E1,1.8433855E1,8.483407E1],"tree_param":{"num_deleted":"0","num_feature":"106","num_nodes":"15","size_leaf_vector":"1"}},{"base_weights":[1.159986E-1,1.8462522E-1,-3.3576274E-1,4.559939E-1,1.2514918E-1,8.76634E-2,-4.3362826E-1,5.2148444E-3,-1.1013424E-3,3.263015E-3,5.7010475E-4,-6.144735E-3,3.1569263E-3,-3.6061887E-4,-5.1859007E-3],"categories":[],"categories_nodes":[],"categories_segments":[],"categories_sizes":[],"default_left":[0,0,0,0,0,0,0,0,0,0,0,0,0,0,0],"id":47,"left_children":[1,3,5,7,9,11,13,-1,-1,-1,-1,-1,-1,-1,-1],"loss_changes":[3.0107891E1,1.3532326E1,5.348817E0,5.655302E0,9.465988E0,4.179414E0,3.503254E0,0E0,0E0,0E0,0E0,0E0,0E0,0E0,0E0],"parents":[2147483647,0,0,1,1,2,2,3,3,4,4,5,5,6,6],"right_children":[2,4,6,8,10,12,14,-1,-1,-1,-1,-1,-1,-1,-1],"split_conditions":[2.6E1,-4.6E0,1.085E2,6.3E0,6E0,6E0,3.17E1,5.2148444E-3,-1.1013424E-3,3.263015E-3,5.7010475E-4,-6.144735E-3,3.1569263E-3,-3.6061887E-4,-5.1859007E-3],"split_indices":[28,77,24,72,28,40,67,0,0,0,0,0,0,0,0],"split_type":[0,0,0,0,0,0,0,0,0,0,0,0,0,0,0],"sum_hessian":[9.6813336E2,8.4097327E2,1.271601E2,1.499835E2,6.9098975E2,2.3892172E1,1.0326793E2,1.3450287E2,1.5480632E1,1.7388243E2,5.171073E2,5.4416833E0,1.8450489E1,1.8433855E1,8.4834076E1],"tree_param":{"num_deleted":"0","num_feature":"106","num_nodes":"15","size_leaf_vector":"1"}},{"base_weights":[-1.1487922E-1,-2.0781763E-1,2.1333545E-1,-1.5223359E-1,-4.8899E-1,2.623397E-1,-5.095848E-1,-1.1541962E-3,-5.0827805E-3,-9.412029E-4,-6.2149283E-3,-4.9277553E-3,3.1038367E-3,6.1232024E-3,-7.4699796E-3],"categories":[],"categories_nodes":[],"categories_segments":[],"categories_sizes":[],"default_left":[0,0,0,0,0,0,0,0,0,0,0,0,0,0,0],"id":48,"left_children":[1,3,5,7,9,11,13,-1,-1,-1,-1,-1,-1,-1,-1],"loss_changes":[2.9596033E1,1.17331505E1,7.7248745E0,8.228589E0,6.442421E0,7.4572697E0,4.171232E0,0E0,0E0,0E0,0E0,0E0,0E0,0E0,0E0],"parents":[2147483647,0,0,1,1,2,2,3,3,4,4,5,5,6,6],"right_children":[2,4,6,8,10,12,14,-1,-1,-1,-1,-1,-1,-1,-1],"split_conditions":[2.4E1,2.6E1,8.08E-1,6.7E0,8.74E1,4.45E-1,6.1E0,-1.1541962E-3,-5.0827805E-3,-9.412029E-4,-6.2149283E-3,-4.9277553E-3,3.1038367E-3,6.1232024E-3,-7.4699796E-3],"split_indices":[51,96,13,25,58,59,19,0,0,0,0,0,0,0,0],"split_type":[0,0,0,0,0,0,0,0,0,0,0,0,0,0,0],"sum_hessian":[9.67789E2,7.54507E2,2.13282E2,6.3125726E2,1.2324975E2,2.0033884E2,1.2943159E1,5.733035E2,5.795374E1,3.1396338E1,9.185341E1,1.1430293E1,1.8890854E2,1.9847959E0,1.0958364E1],"tree_param":{"num_deleted":"0","num_feature":"106","num_nodes":"15","size_leaf_vector":"1"}},{"base_weights":[1.1487921E-1,2.0781761E-1,-2.1333545E-1,1.5223357E-1,4.8899E-1,-2.6233968E-1,5.095848E-1,1.154196E-3,5.0827805E-3,9.4120257E-4,6.2149283E-3,4.9277553E-3,-3.1038367E-3,-6.1232024E-3,7.4699796E-3],"categories":[],"categories_nodes":[],"categories_segments":[],"categories_sizes":[],"default_left":[0,0,0,0,0,0,0,0,0,0,0,0,0,0,0],"id":49,"left_children":[1,3,5,7,9,11,13,-1,-1,-1,-1,-1,-1,-1,-1],"loss_changes":[2.9596027E1,1.1733154E1,7.7248726E0,8.228589E0,6.442421E0,7.4572706E0,4.171232E0,0E0,0E0,0E0,0E0,0E0,0E0,0E0,0E0],"parents":[2147483647,0,0,1,1,2,2,3,3,4,4,5,5,6,6],"right_children":[2,4,6,8,10,12,14,-1,-1,-1,-1,-1,-1,-1,-1],"split_conditions":[2.4E1,2.6E1,8.08E-1,6.7E0,8.74E1,4.45E-1,6.1E0,1.154196E-3,5.0827805E-3,9.4120257E-4,6.2149283E-3,4.9277553E-3,-3.1038367E-3,-6.1232024E-3,7.4699796E-3],"split_indices":[51,96,13,25,58,59,19,0,0,0,0,0,0,0,0],"split_type":[0,0,0,0,0,0,0,0,0,0,0,0,0,0,0],"sum_hessian":[9.67789E2,7.54507E2,2.13282E2,6.3125726E2,1.2324975E2,2.0033884E2,1.2943159E1,5.733035E2,5.795374E1,3.1396338E1,9.185341E1,1.1430293E1,1.8890854E2,1.9847959E0,1.0958364E1],"tree_param":{"num_deleted":"0","num_feature":"106","num_nodes":"15","size_leaf_vector":"1"}},{"base_weights":[-1.13783635E-1,2.7469903E-1,-1.9091883E-1,-3.8242698E-1,3.3960488E-1,-1.3686725E-1,-4.6428427E-1,-7.5109443E-3,2.9468467E-3,-1.8696737E-3,4.0294365E-3,-1.0171671E-3,-5.037723E-3,-1.0485187E-3,-5.812294E-3],"categories":[],"categories_nodes":[],"categories_segments":[],"categories_sizes":[],"default_left":[0,0,0,0,0,0,0,0,0,0,0,0,0,0,0],"id":50,"left_children":[1,3,5,7,9,11,13,-1,-1,-1,-1,-1,-1,-1,-1],"loss_changes":[2.9073788E1,6.9903955E0,1.1884705E1,3.9482503E0,4.9755306E0,8.674282E0,5.5327225E0,0E0,0E0,0E0,0E0,0E0,0E0,0E0,0E0],"parents":[2147483647,0,0,1,1,2,2,3,3,4,4,5,5,6,6],"right_children":[2,4,6,8,10,12,14,-1,-1,-1,-1,-1,-1,-1,-1],"split_conditions":[-5.2E0,4.46E-1,2.6E1,1.9E1,4E0,6.7E0,8.74E1,-7.5109443E-3,2.9468467E-3,-1.8696737E-3,4.0294365E-3,-1.0171671E-3,-5.037723E-3,-1.0485187E-3,-5.812294E-3],"split_indices":[25,59,96,91,84,25,58,0,0,0,0,0,0,0,0],"split_type":[0,0,0,0,0,0,0,0,0,0,0,0,0,0,0],"sum_hessian":[9.6748566E2,1.5985135E2,8.0763434E2,1.392981E1,1.4592154E2,6.755591E2,1.3207524E2,8.948403E0,4.9814067E0,1.5458029E1,1.304635E2,6.176625E2,5.7896587E1,3.288852E1,9.918672E1],"tree_param":{"num_deleted":"0","num_feature":"106","num_nodes":"15","size_leaf_vector":"1"}},{"base_weights":[1.1378359E-1,-2.7469903E-1,1.9091879E-1,3.8242695E-1,-3.3960488E-1,1.368672E-1,4.6428424E-1,7.5109443E-3,-2.9468471E-3,1.8696737E-3,-4.0294365E-3,1.0171664E-3,5.0377236E-3,1.0485182E-3,5.8122934E-3],"categories":[],"categories_nodes":[],"categories_segments":[],"categories_sizes":[],"default_left":[0,0,0,0,0,0,0,0,0,0,0,0,0,0,0],"id":51,"left_children":[1,3,5,7,9,11,13,-1,-1,-1,-1,-1,-1,-1,-1],"loss_changes":[2.9073776E1,6.9903955E0,1.18847065E1,3.9482503E0,4.9755287E0,8.674287E0,5.5327225E0,0E0,0E0,0E0,0E0,0E0,0E0,0E0,0E0],"parents":[2147483647,0,0,1,1,2,2,3,3,4,4,5,5,6,6],"right_children":[2,4,6,8,10,12,14,-1,-1,-1,-1,-1,-1,-1,-1],"split_conditions":[-5.2E0,4.46E-1,2.6E1,1.9E1,4E0,6.7E0,8.74E1,7.5109443E-3,-2.9468471E-3,1.8696737E-3,-4.0294365E-3,1.0171664E-3,5.0377236E-3,1.0485182E-3,5.8122934E-3],"split_indices":[25,59,96,91,84,25,58,0,0,0,0,0,0,0,0],"split_type":[0,0,0,0,0,0,0,0,0,0,0,0,0,0,0],"sum_hessian":[9.6748566E2,1.5985135E2,8.0763434E2,1.392981E1,1.4592154E2,6.755591E2,1.3207524E2,8.948403E0,4.9814067E0,1.5458029E1,1.304635E2,6.176625E2,5.789659E1,3.288852E1,9.918672E1],"tree_param":{"num_deleted":"0","num_feature":"106","num_nodes":"15","size_leaf_vector":"1"}},{"base_weights":[-1.1270005E-1,-1.795491E-1,3.2764864E-1,-4.4638082E-1,-1.2120667E-1,-9.160863E-2,4.2469063E-1,-5.112012E-3,1.121324E-3,-3.1878022E-3,-5.4362835E-4,6.046931E-3,-3.1700544E-3,3.1993506E-3,7.6432866E-3],"categories":[],"categories_nodes":[],"categories_segments":[],"categories_sizes":[],"default_left":[0,0,0,0,0,0,0,0,0,0,0,0,0,0,0],"id":52,"left_children":[1,3,5,7,9,11,13,-1,-1,-1,-1,-1,-1,-1,-1],"loss_changes":[2.8558407E1,1.3041384E1,5.2449503E0,5.5078583E0,9.116944E0,4.095389E0,3.4586964E0,0E0,0E0,0E0,0E0,0E0,0E0,0E0,0E0],"parents":[2147483647,0,0,1,1,2,2,3,3,4,4,5,5,6,6],"right_children":[2,4,6,8,10,12,14,-1,-1,-1,-1,-1,-1,-1,-1],"split_conditions":[2.6E1,-4.6E0,1.085E2,6.3E0,6E0,6E0,2.4E1,-5.112012E-3,1.121324E-3,-3.1878022E-3,-5.4362835E-4,6.046931E-3,-3.1700544E-3,3.1993506E-3,7.6432866E-3],"split_indices":[28,77,24,72,28,40,45,0,0,0,0,0,0,0,0],"split_type":[0,0,0,0,0,0,0,0,0,0,0,0,0,0,0],"sum_hessian":[9.671586E2,8.402006E2,1.26958046E2,1.4955464E2,6.9064594E2,2.3873161E1,1.03084885E2,1.3407838E2,1.5476262E1,1.736402E2,5.1700574E2,5.4265447E0,1.8446617E1,8.0269196E1,2.281569E1],"tree_param":{"num_deleted":"0","num_feature":"106","num_nodes":"15","size_leaf_vector":"1"}},{"base_weights":[1.1270004E-1,1.7954908E-1,-3.2764864E-1,4.4638082E-1,1.21206656E-1,9.1608614E-2,-4.2469063E-1,5.112012E-3,-1.121324E-3,3.1878022E-3,5.436281E-4,-6.0469303E-3,3.1700542E-3,-3.1993506E-3,-7.6432866E-3],"categories":[],"categories_nodes":[],"categories_segments":[],"categories_sizes":[],"default_left":[0,0,0,0,0,0,0,0,0,0,0,0,0,0,0],"id":53,"left_children":[1,3,5,7,9,11,13,-1,-1,-1,-1,-1,-1,-1,-1],"loss_changes":[2.8558407E1,1.3041382E1,5.2449493E0,5.5078583E0,9.116945E0,4.0953894E0,3.4586983E0,0E0,0E0,0E0,0E0,0E0,0E0,0E0,0E0],"parents":[2147483647,0,0,1,1,2,2,3,3,4,4,5,5,6,6],"right_children":[2,4,6,8,10,12,14,-1,-1,-1,-1,-1,-1,-1,-1],"split_conditions":[2.6E1,-4.6E0,1.085E2,6.3E0,6E0,6E0,2.4E1,5.112012E-3,-1.121324E-3,3.1878022E-3,5.436281E-4,-6.0469303E-3,3.1700542E-3,-3.1993506E-3,-7.6432866E-3],"split_indices":[28,77,24,72,28,40,45,0,0,0,0,0,0,0,0],"split_type":[0,0,0,0,0,0,0,0,0,0,0,0,0,0,0],"sum_hessian":[9.671586E2,8.4020056E2,1.26958046E2,1.4955464E2,6.9064594E2,2.3873161E1,1.03084885E2,1.3407838E2,1.5476262E1,1.736402E2,5.1700574E2,5.4265447E0,1.8446617E1,8.0269196E1,2.281569E1],"tree_param":{"num_deleted":"0","num_feature":"106","num_nodes":"15","size_leaf_vector":"1"}},{"base_weights":[-1.11609176E-1,-2.022431E-1,2.0853277E-1,-1.4785638E-1,-4.7794226E-1,2.5692594E-1,-5.050178E-1,-1.1189868E-3,-4.9643177E-3,-9.0574083E-4,-6.083402E-3,-4.8399917E-3,3.0405803E-3,6.0445485E-3,-7.3937317E-3],"categories":[],"categories_nodes":[],"categories_segments":[],"categories_sizes":[],"default_left":[0,0,0,0,0,0,0,0,0,0,0,0,0,0,0],"id":54,"left_children":[1,3,5,7,9,11,13,-1,-1,-1,-1,-1,-1,-1,-1],"loss_changes":[2.812345E1,1.1246603E1,7.5203266E0,7.8641167E0,6.2039223E0,7.1697397E0,4.0690446E0,0E0,0E0,0E0,0E0,0E0,0E0,0E0,0E0],"parents":[2147483647,0,0,1,1,2,2,3,3,4,4,5,5,6,6],"right_children":[2,4,6,8,10,12,14,-1,-1,-1,-1,-1,-1,-1,-1],"split_conditions":[2.4E1,2.6E1,8.08E-1,6.7E0,8.74E1,4.45E-1,6.1E0,-1.1189868E-3,-4.9643177E-3,-9.0574083E-4,-6.083402E-3,-4.8399917E-3,3.0405803E-3,6.0445485E-3,-7.3937317E-3],"split_indices":[51,96,13,25,58,59,19,0,0,0,0,0,0,0,0],"split_type":[0,0,0,0,0,0,0,0,0,0,0,0,0,0,0],"sum_hessian":[9.667951E2,7.5376764E2,2.1302747E2,6.30856E2,1.22911644E2,2.0009679E2,1.29306755E1,5.7306213E2,5.779388E1,3.1381733E1,9.1529915E1,1.141303E1,1.8868376E2,1.9796237E0,1.0951053E1],"tree_param":{"num_deleted":"0","num_feature":"106","num_nodes":"15","size_leaf_vector":"1"}},{"base_weights":[1.1160915E-1,2.0224309E-1,-2.0853278E-1,1.4785635E-1,4.7794226E-1,-2.5692594E-1,5.0501776E-1,1.1189865E-3,4.964317E-3,9.0574054E-4,6.083402E-3,4.8399917E-3,-3.0405808E-3,-6.0445485E-3,7.3937313E-3],"categories":[],"categories_nodes":[],"categories_segments":[],"categories_sizes":[],"default_left":[0,0,0,0,0,0,0,0,0,0,0,0,0,0,0],"id":55,"left_children":[1,3,5,7,9,11,13,-1,-1,-1,-1,-1,-1,-1,-1],"loss_changes":[2.8123446E1,1.1246603E1,7.5203276E0,7.864114E0,6.203926E0,7.1697407E0,4.0690446E0,0E0,0E0,0E0,0E0,0E0,0E0,0E0,0E0],"parents":[2147483647,0,0,1,1,2,2,3,3,4,4,5,5,6,6],"right_children":[2,4,6,8,10,12,14,-1,-1,-1,-1,-1,-1,-1,-1],"split_conditions":[2.4E1,2.6E1,8.08E-1,6.7E0,8.74E1,4.45E-1,6.1E0,1.1189865E-3,4.964317E-3,9.0574054E-4,6.083402E-3,4.8399917E-3,-3.0405808E-3,-6.0445485E-3,7.3937313E-3],"split_indices":[51,96,13,25,58,59,19,0,0,0,0,0,0,0,0],"split_type":[0,0,0,0,0,0,0,0,0,0,0,0,0,0,0],"sum_hessian":[9.667951E2,7.5376764E2,2.1302747E2,6.30856E2,1.22911644E2,2.000968E2,1.29306755E1,5.7306213E2,5.779388E1,3.1381733E1,9.152991E1,1.141303E1,1.8868376E2,1.9796237E0,1.0951052E1],"tree_param":{"num_deleted":"0","num_feature":"106","num_nodes":"15","size_leaf_vector":"1"}},{"base_weights":[-1.1054867E-1,2.3549743E-1,-1.9296084E-1,3.6763787E-1,-2.1579744E-2,-4.6063086E-1,-1.3697787E-1,4.2429566E-3,-1.7134997E-3,1.8738642E-3,-2.9233238E-3,-5.0549894E-3,2.7531441E-3,-3.1358388E-3,-7.177501E-4],"categories":[],"categories_nodes":[],"categories_segments":[],"categories_sizes":[],"default_left":[0,0,0,0,0,0,0,0,0,0,0,0,0,0,0],"id":56,"left_children":[1,3,5,7,9,11,13,-1,-1,-1,-1,-1,-1,-1,-1],"loss_changes":[2.7635862E1,6.3446608E0,1.1653986E1,3.8368874E0,3.6913097E0,4.591238E0,7.440445E0,0E0,0E0,0E0,0E0,0E0,0E0,0E0,0E0],"parents":[2147483647,0,0,1,1,2,2,3,3,4,4,5,5,6,6],"right_children":[2,4,6,8,10,12,14,-1,-1,-1,-1,-1,-1,-1,-1],"split_conditions":[-3.7E0,2.08E1,-4.6E0,2.8E1,1.9E1,1.65E1,6E0,4.2429566E-3,-1.7134997E-3,1.8738642E-3,-2.9233238E-3,-5.0549894E-3,2.7531441E-3,-3.1358388E-3,-7.177501E-4],"split_indices":[25,74,77,101,103,18,28,0,0,0,0,0,0,0,0],"split_type":[0,0,0,0,0,0,0,0,0,0,0,0,0,0,0],"sum_hessian":[9.6646E2,1.855373E2,7.809227E2,1.2226281E2,6.327448E1,1.3382765E2,6.4709503E2,1.1082572E2,1.1437083E1,3.588581E1,2.7388668E1,1.2643262E2,7.395035E0,1.7345958E2,4.736355E2],"tree_param":{"num_deleted":"0","num_feature":"106","num_nodes":"15","size_leaf_vector":"1"}},{"base_weights":[1.1054863E-1,-2.3549742E-1,1.929608E-1,-3.6763787E-1,2.1579746E-2,4.6063086E-1,1.3697782E-1,-4.2429566E-3,1.7134997E-3,-1.8738641E-3,2.9233238E-3,5.0549894E-3,-2.7531444E-3,3.1358388E-3,7.177495E-4],"categories":[],"categories_nodes":[],"categories_segments":[],"categories_sizes":[],"default_left":[0,0,0,0,0,0,0,0,0,0,0,0,0,0,0],"id":57,"left_children":[1,3,5,7,9,11,13,-1,-1,-1,-1,-1,-1,-1,-1],"loss_changes":[2.7635857E1,6.3446608E0,1.165399E1,3.8368855E0,3.6913092E0,4.591238E0,7.4404526E0,0E0,0E0,0E0,0E0,0E0,0E0,0E0,0E0],"parents":[2147483647,0,0,1,1,2,2,3,3,4,4,5,5,6,6],"right_children":[2,4,6,8,10,12,14,-1,-1,-1,-1,-1,-1,-1,-1],"split_conditions":[-3.7E0,2.08E1,-4.6E0,2.8E1,1.9E1,1.65E1,6E0,-4.2429566E-3,1.7134997E-3,-1.8738641E-3,2.9233238E-3,5.0549894E-3,-2.7531444E-3,3.1358388E-3,7.177495E-4],"split_indices":[25,74,77,101,103,18,28,0,0,0,0,0,0,0,0],"split_type":[0,0,0,0,0,0,0,0,0,0,0,0,0,0,0],"sum_hessian":[9.6646E2,1.855373E2,7.809227E2,1.2226281E2,6.327448E1,1.3382765E2,6.470951E2,1.1082572E2,1.1437083E1,3.588581E1,2.7388668E1,1.2643262E2,7.395035E0,1.7345958E2,4.736355E2],"tree_param":{"num_deleted":"0","num_feature":"106","num_nodes":"15","size_leaf_vector":"1"}},{"base_weights":[-1.09492175E-1,2.6617065E-1,-1.8402943E-1,-3.0759254E-1,3.3796144E-1,-1.3131636E-1,-4.513371E-1,-4.8566405E-3,4.57359E-3,4.2981007E-3,-1.1541223E-3,-9.7143743E-4,-4.891022E-3,5.1866885E-4,-5.303652E-3],"categories":[],"categories_nodes":[],"categories_segments":[],"categories_sizes":[],"default_left":[0,0,0,0,0,0,0,0,0,0,0,0,0,0,0],"id":58,"left_children":[1,3,5,7,9,11,13,-1,-1,-1,-1,-1,-1,-1,-1],"loss_changes":[2.7127884E1,6.7160044E0,1.1319622E1,2.7250745E0,6.010504E0,8.216899E0,5.3009586E0,0E0,0E0,0E0,0E0,0E0,0E0,0E0,0E0],"parents":[2147483647,0,0,1,1,2,2,3,3,4,4,5,5,6,6],"right_children":[2,4,6,8,10,12,14,-1,-1,-1,-1,-1,-1,-1,-1],"split_conditions":[-5.2E0,1.089E2,2.6E1,2.8E1,9.15E1,6.7E0,8.56E1,-4.8566405E-3,4.57359E-3,4.2981007E-3,-1.1541223E-3,-9.7143743E-4,-4.891022E-3,5.1866885E-4,-5.303652E-3],"split_indices":[25,76,96,89,58,25,58,0,0,0,0,0,0,0,0],"split_type":[0,0,0,0,0,0,0,0,0,0,0,0,0,0,0],"sum_hessian":[9.6607336E2,1.5952202E2,8.065514E2,1.737486E1,1.4214716E2,6.749437E2,1.3160765E2,1.4390119E1,2.9847417E0,1.1824414E2,2.3903019E1,6.172599E2,5.7683815E1,1.7910154E1,1.1369749E2],"tree_param":{"num_deleted":"0","num_feature":"106","num_nodes":"15","size_leaf_vector":"1"}},{"base_weights":[1.09492175E-1,-2.6617065E-1,1.8402943E-1,3.0759254E-1,-3.3796144E-1,1.3131635E-1,4.5133716E-1,4.8566405E-3,-4.5735897E-3,-4.2981007E-3,1.1541223E-3,9.714374E-4,4.8910226E-3,-5.1866856E-4,5.303653E-3],"categories":[],"categories_nodes":[],"categories_segments":[],"categories_sizes":[],"default_left":[0,0,0,0,0,0,0,0,0,0,0,0,0,0,0],"id":59,"left_children":[1,3,5,7,9,11,13,-1,-1,-1,-1,-1,-1,-1,-1],"loss_changes":[2.7127884E1,6.7160044E0,1.1319624E1,2.7250738E0,6.010504E0,8.2169E0,5.300955E0,0E0,0E0,0E0,0E0,0E0,0E0,0E0,0E0],"parents":[2147483647,0,0,1,1,2,2,3,3,4,4,5,5,6,6],"right_children":[2,4,6,8,10,12,14,-1,-1,-1,-1,-1,-1,-1,-1],"split_conditions":[-5.2E0,1.089E2,2.6E1,2.8E1,9.15E1,6.7E0,8.56E1,4.8566405E-3,-4.5735897E-3,-4.2981007E-3,1.1541223E-3,9.714374E-4,4.8910226E-3,-5.1866856E-4,5.303653E-3],"split_indices":[25,76,96,89,58,25,58,0,0,0,0,0,0,0,0],"split_type":[0,0,0,0,0,0,0,0,0,0,0,0,0,0,0],"sum_hessian":[9.660734E2,1.5952202E2,8.065514E2,1.737486E1,1.4214716E2,6.749437E2,1.3160765E2,1.4390119E1,2.9847417E0,1.1824414E2,2.3903019E1,6.172599E2,5.7683815E1,1.7910154E1,1.13697495E2],"tree_param":{"num_deleted":"0","num_feature":"106","num_nodes":"15","size_leaf_vector":"1"}},{"base_weights":[-1.08445056E-1,-1.9673742E-1,2.0350762E-1,-2.7636865E-1,-1.3218818E-2,2.513679E-1,-5.0188094E-1,-2.1909678E-3,-5.298707E-3,4.6131533E-4,-3.9629326E-3,-4.7721663E-3,2.9772415E-3,5.9681726E-3,-7.3349113E-3],"categories":[],"categories_nodes":[],"categories_segments":[],"categories_sizes":[],"default_left":[0,0,0,0,0,0,0,0,0,0,0,0,0,0,0],"id":60,"left_children":[1,3,5,7,9,11,13,-1,-1,-1,-1,-1,-1,-1,-1],"loss_changes":[2.6666496E1,1.1014801E1,7.342252E0,7.5172653E0,5.2294917E0,6.9250517E0,3.978661E0,0E0,0E0,0E0,0E0,0E0,0E0,0E0,0E0],"parents":[2147483647,0,0,1,1,2,2,3,3,4,4,5,5,6,6],"right_children":[2,4,6,8,10,12,14,-1,-1,-1,-1,-1,-1,-1,-1],"split_conditions":[2.4E1,3.73E-1,8.08E-1,2.6E1,2.5E1,4.45E-1,6.1E0,-2.1909678E-3,-5.298707E-3,4.6131533E-4,-3.9629326E-3,-4.7721663E-3,2.9772415E-3,5.9681726E-3,-7.3349113E-3],"split_indices":[51,62,13,96,26,59,19,0,0,0,0,0,0,0,0],"split_type":[0,0,0,0,0,0,0,0,0,0,0,0,0,0,0],"sum_hessian":[9.6572186E2,7.529756E2,2.127463E2,5.2476636E2,2.2820924E2,1.9983148E2,1.2914825E1,4.2957898E2,9.5187355E1,1.9835704E2,2.9852207E1,1.1397746E1,1.8843373E2,1.9739766E0,1.0940849E1],"tree_param":{"num_deleted":"0","num_feature":"106","num_nodes":"15","size_leaf_vector":"1"}},{"base_weights":[1.0844504E-1,1.9673741E-1,-2.0350762E-1,2.7636865E-1,1.3218805E-2,-2.513679E-1,5.0188094E-1,2.1909678E-3,5.298707E-3,-4.613155E-4,3.9629326E-3,4.7721663E-3,-2.9772415E-3,-5.9681726E-3,7.3349103E-3],"categories":[],"categories_nodes":[],"categories_segments":[],"categories_sizes":[],"default_left":[0,0,0,0,0,0,0,0,0,0,0,0,0,0,0],"id":61,"left_children":[1,3,5,7,9,11,13,-1,-1,-1,-1,-1,-1,-1,-1],"loss_changes":[2.6666496E1,1.1014805E1,7.342251E0,7.5172653E0,5.229492E0,6.9250536E0,3.9786603E0,0E0,0E0,0E0,0E0,0E0,0E0,0E0,0E0],"parents":[2147483647,0,0,1,1,2,2,3,3,4,4,5,5,6,6],"right_children":[2,4,6,8,10,12,14,-1,-1,-1,-1,-1,-1,-1,-1],"split_conditions":[2.4E1,3.73E-1,8.08E-1,2.6E1,2.5E1,4.45E-1,6.1E0,2.1909678E-3,5.298707E-3,-4.613155E-4,3.9629326E-3,4.7721663E-3,-2.9772415E-3,-5.9681726E-3,7.3349103E-3],"split_indices":[51,62,13,96,26,59,19,0,0,0,0,0,0,0,0],"split_type":[0,0,0,0,0,0,0,0,0,0,0,0,0,0,0],"sum_hessian":[9.6572186E2,7.529755E2,2.127463E2,5.247663E2,2.2820924E2,1.9983148E2,1.2914825E1,4.2957895E2,9.5187355E1,1.9835703E2,2.9852207E1,1.1397746E1,1.8843373E2,1.9739767E0,1.0940849E1],"tree_param":{"num_deleted":"0","num_feature":"106","num_nodes":"15","size_leaf_vector":"1"}},{"base_weights":[-1.0741282E-1,-1.7145883E-1,3.1492835E-1,-8.9538656E-2,-3.5124305E-1,-1.2773839E-1,4.0503973E-1,-2.8429956E-3,-2.9462556E-4,-2.639472E-3,-6.130726E-3,5.8092796E-3,-3.6195335E-3,4.328881E-3,-6.999909E-3],"categories":[],"categories_nodes":[],"categories_segments":[],"categories_sizes":[],"default_left":[0,0,0,0,0,0,0,0,0,0,0,0,0,0,0],"id":62,"left_children":[1,3,5,7,9,11,13,-1,-1,-1,-1,-1,-1,-1,-1],"loss_changes":[2.6194073E1,1.2336847E1,5.141753E0,6.757449E0,5.8387756E0,3.9186745E0,3.5730228E0,0E0,0E0,0E0,0E0,0E0,0E0,0E0,0E0],"parents":[2147483647,0,0,1,1,2,2,3,3,4,4,5,5,6,6],"right_children":[2,4,6,8,10,12,14,-1,-1,-1,-1,-1,-1,-1,-1],"split_conditions":[2.6E1,1.9E1,1.084E2,7E0,2.7E1,1.92E1,9.36E1,-2.8429956E-3,-2.9462556E-4,-2.639472E-3,-6.130726E-3,5.8092796E-3,-3.6195335E-3,4.328881E-3,-6.999909E-3],"split_indices":[28,80,24,51,96,74,58,0,0,0,0,0,0,0,0],"split_type":[0,0,0,0,0,0,0,0,0,0,0,0,0,0,0],"sum_hessian":[9.653875E2,8.38784E2,1.2660353E2,5.772522E2,2.6153177E2,2.134245E1,1.05261086E2,1.3520345E2,4.4204877E2,1.9764395E2,6.38878E1,4.933821E0,1.6408628E1,1.0326687E2,1.9942178E0],"tree_param":{"num_deleted":"0","num_feature":"106","num_nodes":"15","size_leaf_vector":"1"}},{"base_weights":[1.07412815E-1,1.7145883E-1,-3.1492835E-1,8.9538656E-2,3.5124302E-1,1.277384E-1,-4.0503973E-1,2.8429956E-3,2.9462556E-4,2.6394718E-3,6.130726E-3,-5.8092796E-3,3.6195337E-3,-4.328881E-3,6.999909E-3],"categories":[],"categories_nodes":[],"categories_segments":[],"categories_sizes":[],"default_left":[0,0,0,0,0,0,0,0,0,0,0,0,0,0,0],"id":63,"left_children":[1,3,5,7,9,11,13,-1,-1,-1,-1,-1,-1,-1,-1],"loss_changes":[2.6194073E1,1.2336851E1,5.141756E0,6.75745E0,5.838772E0,3.9186745E0,3.5730228E0,0E0,0E0,0E0,0E0,0E0,0E0,0E0,0E0],"parents":[2147483647,0,0,1,1,2,2,3,3,4,4,5,5,6,6],"right_children":[2,4,6,8,10,12,14,-1,-1,-1,-1,-1,-1,-1,-1],"split_conditions":[2.6E1,1.9E1,1.084E2,7E0,2.7E1,1.92E1,9.36E1,2.8429956E-3,2.9462556E-4,2.6394718E-3,6.130726E-3,-5.8092796E-3,3.6195337E-3,-4.328881E-3,6.999909E-3],"split_indices":[28,80,24,51,96,74,58,0,0,0,0,0,0,0,0],"split_type":[0,0,0,0,0,0,0,0,0,0,0,0,0,0,0],"sum_hessian":[9.653875E2,8.38784E2,1.2660353E2,5.772522E2,2.6153174E2,2.134245E1,1.05261086E2,1.3520343E2,4.4204877E2,1.9764395E2,6.38878E1,4.933821E0,1.6408628E1,1.0326687E2,1.9942176E0],"tree_param":{"num_deleted":"0","num_feature":"106","num_nodes":"15","size_leaf_vector":"1"}},{"base_weights":[-1.0639233E-1,2.2811195E-1,-1.860087E-1,3.581105E-1,-2.4378031E-2,-4.4796413E-1,-1.314276E-1,4.1427617E-3,-1.748774E-3,1.262716E-3,-3.92402E-3,-4.9247644E-3,2.7855518E-3,-3.0458635E-3,-6.760859E-4],"categories":[],"categories_nodes":[],"categories_segments":[],"categories_sizes":[],"default_left":[0,0,0,0,0,0,0,0,0,0,0,0,0,0,0],"id":64,"left_children":[1,3,5,7,9,11,13,-1,-1,-1,-1,-1,-1,-1,-1],"loss_changes":[2.576949E1,6.119464E0,1.1105568E1,3.753312E0,3.6095822E0,4.4780064E0,7.1361513E0,0E0,0E0,0E0,0E0,0E0,0E0,0E0,0E0],"parents":[2147483647,0,0,1,1,2,2,3,3,4,4,5,5,6,6],"right_children":[2,4,6,8,10,12,14,-1,-1,-1,-1,-1,-1,-1,-1],"split_conditions":[-3.7E0,2.08E1,-4.6E0,2.8E1,2.95E-1,1.65E1,6E0,4.1427617E-3,-1.748774E-3,1.262716E-3,-3.92402E-3,-4.9247644E-3,2.7855518E-3,-3.0458635E-3,-6.760859E-4],"split_indices":[25,74,77,101,3,18,28,0,0,0,0,0,0,0,0],"split_type":[0,0,0,0,0,0,0,0,0,0,0,0,0,0,0],"sum_hessian":[9.650199E2,1.851704E2,7.7984955E2,1.21959335E2,6.3211052E1,1.3322842E2,6.466211E2,1.105341E2,1.1425236E1,4.531739E1,1.789366E1,1.25840576E2,7.3878508E0,1.7312154E2,4.7349957E2],"tree_param":{"num_deleted":"0","num_feature":"106","num_nodes":"15","size_leaf_vector":"1"}},{"base_weights":[1.0639234E-1,-2.2811195E-1,1.860087E-1,-3.581105E-1,2.4378046E-2,4.4796413E-1,1.314276E-1,-4.1427617E-3,1.7487742E-3,-1.2627159E-3,3.92402E-3,4.9247644E-3,-2.7855516E-3,3.0458635E-3,6.76086E-4],"categories":[],"categories_nodes":[],"categories_segments":[],"categories_sizes":[],"default_left":[0,0,0,0,0,0,0,0,0,0,0,0,0,0,0],"id":65,"left_children":[1,3,5,7,9,11,13,-1,-1,-1,-1,-1,-1,-1,-1],"loss_changes":[2.5769485E1,6.119465E0,1.110557E1,3.753312E0,3.609582E0,4.4780064E0,7.1361504E0,0E0,0E0,0E0,0E0,0E0,0E0,0E0,0E0],"parents":[2147483647,0,0,1,1,2,2,3,3,4,4,5,5,6,6],"right_children":[2,4,6,8,10,12,14,-1,-1,-1,-1,-1,-1,-1,-1],"split_conditions":[-3.7E0,2.08E1,-4.6E0,2.8E1,2.95E-1,1.65E1,6E0,-4.1427617E-3,1.7487742E-3,-1.2627159E-3,3.92402E-3,4.9247644E-3,-2.7855516E-3,3.0458635E-3,6.76086E-4],"split_indices":[25,74,77,101,3,18,28,0,0,0,0,0,0,0,0],"split_type":[0,0,0,0,0,0,0,0,0,0,0,0,0,0,0],"sum_hessian":[9.650199E2,1.851704E2,7.7984955E2,1.21959335E2,6.3211052E1,1.3322842E2,6.466211E2,1.105341E2,1.1425236E1,4.531739E1,1.789366E1,1.25840576E2,7.3878508E0,1.7312154E2,4.7349957E2],"tree_param":{"num_deleted":"0","num_feature":"106","num_nodes":"15","size_leaf_vector":"1"}},{"base_weights":[-1.0538091E-1,-1.9142587E-1,1.9871257E-1,-2.6991546E-1,-1.0730542E-2,2.4599233E-1,-4.9779212E-1,-2.1374605E-3,-5.192431E-3,4.7960936E-4,-3.8989899E-3,-3.642537E-3,3.005953E-3,5.899403E-3,-7.2667054E-3],"categories":[],"categories_nodes":[],"categories_segments":[],"categories_sizes":[],"default_left":[0,0,0,0,0,0,0,0,0,0,0,0,0,0,0],"id":66,"left_children":[1,3,5,7,9,11,13,-1,-1,-1,-1,-1,-1,-1,-1],"loss_changes":[2.5303677E1,1.0678762E1,7.1516094E0,7.2418213E0,5.117498E0,6.792224E0,3.8890252E0,0E0,0E0,0E0,0E0,0E0,0E0,0E0,0E0],"parents":[2147483647,0,0,1,1,2,2,3,3,4,4,5,5,6,6],"right_children":[2,4,6,8,10,12,14,-1,-1,-1,-1,-1,-1,-1,-1],"split_conditions":[2.4E1,3.73E-1,8.08E-1,2.6E1,2.5E1,7E0,6.1E0,-2.1374605E-3,-5.192431E-3,4.7960936E-4,-3.8989899E-3,-3.642537E-3,3.005953E-3,5.899403E-3,-7.2667054E-3],"split_indices":[51,62,13,96,26,0,19,0,0,0,0,0,0,0,0],"split_type":[0,0,0,0,0,0,0,0,0,0,0,0,0,0,0],"sum_hessian":[9.6460095E2,7.5214716E2,2.124538E2,5.2402844E2,2.281187E2,1.9955457E2,1.2899237E1,4.2919516E2,9.483326E1,1.9829771E2,2.982099E1,1.5923348E1,1.8363121E2,1.9681555E0,1.0931082E1],"tree_param":{"num_deleted":"0","num_feature":"106","num_nodes":"15","size_leaf_vector":"1"}},{"base_weights":[1.05380915E-1,1.9142589E-1,-1.9871257E-1,2.6991546E-1,1.0730536E-2,-2.4599233E-1,4.9779218E-1,2.1374607E-3,5.192431E-3,-4.7960944E-4,3.8989899E-3,3.642537E-3,-3.005953E-3,-5.8994037E-3,7.266706E-3],"categories":[],"categories_nodes":[],"categories_segments":[],"categories_sizes":[],"default_left":[0,0,0,0,0,0,0,0,0,0,0,0,0,0,0],"id":67,"left_children":[1,3,5,7,9,11,13,-1,-1,-1,-1,-1,-1,-1,-1],"loss_changes":[2.530368E1,1.0678766E1,7.1516104E0,7.2418175E0,5.1174974E0,6.792223E0,3.8890252E0,0E0,0E0,0E0,0E0,0E0,0E0,0E0,0E0],"parents":[2147483647,0,0,1,1,2,2,3,3,4,4,5,5,6,6],"right_children":[2,4,6,8,10,12,14,-1,-1,-1,-1,-1,-1,-1,-1],"split_conditions":[2.4E1,3.73E-1,8.08E-1,2.6E1,2.5E1,7E0,6.1E0,2.1374607E-3,5.192431E-3,-4.7960944E-4,3.8989899E-3,3.642537E-3,-3.005953E-3,-5.8994037E-3,7.266706E-3],"split_indices":[51,62,13,96,26,0,19,0,0,0,0,0,0,0,0],"split_type":[0,0,0,0,0,0,0,0,0,0,0,0,0,0,0],"sum_hessian":[9.6460095E2,7.5214716E2,2.124538E2,5.2402844E2,2.281187E2,1.9955457E2,1.2899237E1,4.2919516E2,9.483326E1,1.982977E2,2.982099E1,1.5923348E1,1.8363121E2,1.9681555E0,1.0931082E1],"tree_param":{"num_deleted":"0","num_feature":"106","num_nodes":"15","size_leaf_vector":"1"}},{"base_weights":[-1.0437845E-1,2.5580534E-1,-1.7577222E-1,-3.0499518E-1,3.2610735E-1,-1.2472414E-1,-4.3564695E-1,-4.8074625E-3,4.503442E-3,3.7323388E-3,-5.1596826E-3,-9.1172743E-4,-4.7698263E-3,-8.95934E-4,-5.4926025E-3],"categories":[],"categories_nodes":[],"categories_segments":[],"categories_sizes":[],"default_left":[0,0,0,0,0,0,0,0,0,0,0,0,0,0,0],"id":68,"left_children":[1,3,5,7,9,11,13,-1,-1,-1,-1,-1,-1,-1,-1],"loss_changes":[2.4866304E1,6.4108467E0,1.0640375E1,2.6524153E0,5.856881E0,7.9366646E0,5.1388702E0,0E0,0E0,0E0,0E0,0E0,0E0,0E0,0E0],"parents":[2147483647,0,0,1,1,2,2,3,3,4,4,5,5,6,6],"right_children":[2,4,6,8,10,12,14,-1,-1,-1,-1,-1,-1,-1,-1],"split_conditions":[-5.2E0,1.089E2,2.6E1,2.8E1,9.36E1,6.7E0,8.74E1,-4.8074625E-3,4.503442E-3,3.7323388E-3,-5.1596826E-3,-9.1172743E-4,-4.7698263E-3,-8.95934E-4,-5.4926025E-3],"split_indices":[25,76,96,89,58,25,58,0,0,0,0,0,0,0,0],"split_type":[0,0,0,0,0,0,0,0,0,0,0,0,0,0,0],"sum_hessian":[9.6425214E2,1.5908423E2,8.051679E2,1.7349398E1,1.4173483E2,6.742104E2,1.309575E2,1.436947E1,2.9799278E0,1.3475034E2,6.9844975E0,6.16728E2,5.748238E1,3.2810112E1,9.8147385E1],"tree_param":{"num_deleted":"0","num_feature":"106","num_nodes":"15","size_leaf_vector":"1"}},{"base_weights":[1.04378425E-1,-2.5580534E-1,1.7577219E-1,3.0499518E-1,-3.2610735E-1,1.24724105E-1,4.3564698E-1,4.8074625E-3,-4.5034424E-3,-3.732339E-3,5.1596826E-3,9.117271E-4,4.7698263E-3,8.959338E-4,5.4926025E-3],"categories":[],"categories_nodes":[],"categories_segments":[],"categories_sizes":[],"default_left":[0,0,0,0,0,0,0,0,0,0,0,0,0,0,0],"id":69,"left_children":[1,3,5,7,9,11,13,-1,-1,-1,-1,-1,-1,-1,-1],"loss_changes":[2.4866304E1,6.4108486E0,1.0640375E1,2.6524153E0,5.856879E0,7.9366646E0,5.1388683E0,0E0,0E0,0E0,0E0,0E0,0E0,0E0,0E0],"parents":[2147483647,0,0,1,1,2,2,3,3,4,4,5,5,6,6],"right_children":[2,4,6,8,10,12,14,-1,-1,-1,-1,-1,-1,-1,-1],"split_conditions":[-5.2E0,1.089E2,2.6E1,2.8E1,9.36E1,6.7E0,8.74E1,4.8074625E-3,-4.5034424E-3,-3.732339E-3,5.1596826E-3,9.117271E-4,4.7698263E-3,8.959338E-4,5.4926025E-3],"split_indices":[25,76,96,89,58,25,58,0,0,0,0,0,0,0,0],"split_type":[0,0,0,0,0,0,0,0,0,0,0,0,0,0,0],"sum_hessian":[9.6425214E2,1.5908423E2,8.051679E2,1.7349398E1,1.4173483E2,6.742104E2,1.309575E2,1.436947E1,2.9799278E0,1.3475034E2,6.9844975E0,6.16728E2,5.748238E1,3.2810112E1,9.814739E1],"tree_param":{"num_deleted":"0","num_feature":"106","num_nodes":"15","size_leaf_vector":"1"}},{"base_weights":[-1.03391245E-1,2.2246568E-1,-1.8091105E-1,3.506946E-1,-2.6244884E-2,-4.388168E-1,-1.2733565E-1,1.3011164E-3,4.9066884E-3,1.7795989E-3,-2.9068359E-3,-4.9211998E-3,1.7205817E-3,-2.9816995E-3,-6.445745E-4],"categories":[],"categories_nodes":[],"categories_segments":[],"categories_sizes":[],"default_left":[0,0,0,0,0,0,0,0,0,0,0,0,0,0,0],"id":70,"left_children":[1,3,5,7,9,11,13,-1,-1,-1,-1,-1,-1,-1,-1],"loss_changes":[2.4412998E1,5.9370394E0,1.0721542E1,3.724988E0,3.5164235E0,4.4398117E0,6.9332485E0,0E0,0E0,0E0,0E0,0E0,0E0,0E0,0E0],"parents":[2147483647,0,0,1,1,2,2,3,3,4,4,5,5,6,6],"right_children":[2,4,6,8,10,12,14,-1,-1,-1,-1,-1,-1,-1,-1],"split_conditions":[-3.7E0,2.08E1,-4.6E0,2.26E1,1.9E1,6.3E0,6E0,1.3011164E-3,4.9066884E-3,1.7795989E-3,-2.9068359E-3,-4.9211998E-3,1.7205817E-3,-2.9816995E-3,-6.445745E-4],"split_indices":[25,74,77,64,103,72,28,0,0,0,0,0,0,0,0],"split_type":[0,0,0,0,0,0,0,0,0,0,0,0,0,0,0],"sum_hessian":[9.638614E2,1.8487285E2,7.789885E2,1.2171144E2,6.316141E1,1.3275084E2,6.462377E2,4.7999466E1,7.3711975E1,3.582425E1,2.7337164E1,1.222758E2,1.047504E1,1.7285753E2,4.7338013E2],"tree_param":{"num_deleted":"0","num_feature":"106","num_nodes":"15","size_leaf_vector":"1"}},{"base_weights":[1.0339125E-1,-2.2246568E-1,1.8091106E-1,-3.506946E-1,2.624488E-2,4.3881682E-1,1.2733567E-1,-1.3011164E-3,-4.9066884E-3,-1.7795989E-3,2.9068359E-3,4.9212E-3,-1.720582E-3,2.9816993E-3,6.445748E-4],"categories":[],"categories_nodes":[],"categories_segments":[],"categories_sizes":[],"default_left":[0,0,0,0,0,0,0,0,0,0,0,0,0,0,0],"id":71,"left_children":[1,3,5,7,9,11,13,-1,-1,-1,-1,-1,-1,-1,-1],"loss_changes":[2.4413E1,5.9370403E0,1.0721542E1,3.724988E0,3.5164235E0,4.4398155E0,6.9332457E0,0E0,0E0,0E0,0E0,0E0,0E0,0E0,0E0],"parents":[2147483647,0,0,1,1,2,2,3,3,4,4,5,5,6,6],"right_children":[2,4,6,8,10,12,14,-1,-1,-1,-1,-1,-1,-1,-1],"split_conditions":[-3.7E0,2.08E1,-4.6E0,2.26E1,1.9E1,6.3E0,6E0,-1.3011164E-3,-4.9066884E-3,-1.7795989E-3,2.9068359E-3,4.9212E-3,-1.720582E-3,2.9816993E-3,6.445748E-4],"split_indices":[25,74,77,64,103,72,28,0,0,0,0,0,0,0,0],"split_type":[0,0,0,0,0,0,0,0,0,0,0,0,0,0,0],"sum_hessian":[9.638614E2,1.8487285E2,7.789885E2,1.2171144E2,6.316141E1,1.3275084E2,6.462377E2,4.7999466E1,7.3711975E1,3.582425E1,2.7337164E1,1.222758E2,1.047504E1,1.7285753E2,4.7338013E2],"tree_param":{"num_deleted":"0","num_feature":"106","num_nodes":"15","size_leaf_vector":"1"}},{"base_weights":[-1.0240717E-1,-1.6374542E-1,3.02626E-1,-8.4148385E-2,-3.3892268E-1,-1.3594086E-1,3.921406E-1,-2.732943E-3,-2.592396E-4,-2.5416166E-3,-5.9461365E-3,5.6817075E-3,-3.6747472E-3,4.1974387E-3,-6.963822E-3],"categories":[],"categories_nodes":[],"categories_segments":[],"categories_sizes":[],"default_left":[0,0,0,0,0,0,0,0,0,0,0,0,0,0,0],"id":72,"left_children":[1,3,5,7,9,11,13,-1,-1,-1,-1,-1,-1,-1,-1],"loss_changes":[2.4009468E1,1.1659283E1,5.046666E0,6.3547716E0,5.5173073E0,3.8447392E0,3.4739628E0,0E0,0E0,0E0,0E0,0E0,0E0,0E0,0E0],"parents":[2147483647,0,0,1,1,2,2,3,3,4,4,5,5,6,6],"right_children":[2,4,6,8,10,12,14,-1,-1,-1,-1,-1,-1,-1,-1],"split_conditions":[2.6E1,1.9E1,1.084E2,7E0,2.7E1,1.92E1,9.36E1,-2.732943E-3,-2.592396E-4,-2.5416166E-3,-5.9461365E-3,5.6817075E-3,-3.6747472E-3,4.1974387E-3,-6.963822E-3],"split_indices":[28,80,24,51,96,74,58,0,0,0,0,0,0,0,0],"split_type":[0,0,0,0,0,0,0,0,0,0,0,0,0,0,0],"sum_hessian":[9.6341345E2,8.3722046E2,1.26192986E2,5.766724E2,2.6054803E2,2.130293E1,1.0489006E2,1.3486398E2,4.4180844E2,1.9717796E2,6.3370056E1,4.91181E0,1.639112E1,1.0289518E2,1.9948769E0],"tree_param":{"num_deleted":"0","num_feature":"106","num_nodes":"15","size_leaf_vector":"1"}},{"base_weights":[1.0240715E-1,1.637454E-1,-3.0262604E-1,8.414835E-2,3.3892268E-1,1.3594086E-1,-3.921406E-1,2.7329426E-3,2.5923926E-4,2.541616E-3,5.946137E-3,-5.6817075E-3,3.674747E-3,-4.1974387E-3,6.963822E-3],"categories":[],"categories_nodes":[],"categories_segments":[],"categories_sizes":[],"default_left":[0,0,0,0,0,0,0,0,0,0,0,0,0,0,0],"id":73,"left_children":[1,3,5,7,9,11,13,-1,-1,-1,-1,-1,-1,-1,-1],"loss_changes":[2.4009468E1,1.16592865E1,5.046666E0,6.35477E0,5.5173073E0,3.8447392E0,3.4739647E0,0E0,0E0,0E0,0E0,0E0,0E0,0E0,0E0],"parents":[2147483647,0,0,1,1,2,2,3,3,4,4,5,5,6,6],"right_children":[2,4,6,8,10,12,14,-1,-1,-1,-1,-1,-1,-1,-1],"split_conditions":[2.6E1,1.9E1,1.084E2,7E0,2.7E1,1.92E1,9.36E1,2.7329426E-3,2.5923926E-4,2.541616E-3,5.946137E-3,-5.6817075E-3,3.674747E-3,-4.1974387E-3,6.963822E-3],"split_indices":[28,80,24,51,96,74,58,0,0,0,0,0,0,0,0],"split_type":[0,0,0,0,0,0,0,0,0,0,0,0,0,0,0],"sum_hessian":[9.6341345E2,8.3722046E2,1.2619299E2,5.766724E2,2.6054803E2,2.130293E1,1.0489006E2,1.3486398E2,4.418084E2,1.9717798E2,6.337006E1,4.91181E0,1.639112E1,1.0289518E2,1.9948769E0],"tree_param":{"num_deleted":"0","num_feature":"106","num_nodes":"15","size_leaf_vector":"1"}},{"base_weights":[-1.0143846E-1,-1.8463238E-1,1.9269554E-1,-2.619504E-1,-6.884976E-3,2.3939085E-1,-4.9472243E-1,-2.074098E-3,-5.050915E-3,5.112007E-4,-3.8207625E-3,-3.6031764E-3,2.931506E-3,5.825258E-3,-7.208805E-3],"categories":[],"categories_nodes":[],"categories_segments":[],"categories_sizes":[],"default_left":[0,0,0,0,0,0,0,0,0,0,0,0,0,0,0],"id":74,"left_children":[1,3,5,7,9,11,13,-1,-1,-1,-1,-1,-1,-1,-1],"loss_changes":[2.362508E1,1.0332649E1,6.9567213E0,6.844059E0,5.002676E0,6.5587997E0,3.8007262E0,0E0,0E0,0E0,0E0,0E0,0E0,0E0,0E0],"parents":[2147483647,0,0,1,1,2,2,3,3,4,4,5,5,6,6],"right_children":[2,4,6,8,10,12,14,-1,-1,-1,-1,-1,-1,-1,-1],"split_conditions":[2.4E1,3.73E-1,8.08E-1,2.6E1,2.5E1,7E0,6.1E0,-2.074098E-3,-5.050915E-3,5.112007E-4,-3.8207625E-3,-3.6031764E-3,2.931506E-3,5.825258E-3,-7.208805E-3],"split_indices":[51,62,13,96,26,0,19,0,0,0,0,0,0,0,0],"split_type":[0,0,0,0,0,0,0,0,0,0,0,0,0,0,0],"sum_hessian":[9.6301117E2,7.5097504E2,2.1203616E2,5.230017E2,2.2797334E2,1.9915932E2,1.2876852E1,4.2869196E2,9.430974E1,1.9819579E2,2.9777569E1,1.5915383E1,1.8324393E2,1.9608898E0,1.0915962E1],"tree_param":{"num_deleted":"0","num_feature":"106","num_nodes":"15","size_leaf_vector":"1"}},{"base_weights":[1.01438455E-1,1.8463236E-1,-1.9269554E-1,2.619504E-1,6.8849646E-3,-2.3939085E-1,4.947224E-1,2.0740977E-3,5.0509153E-3,-5.1120087E-4,3.8207625E-3,3.6031764E-3,-2.931506E-3,-5.825258E-3,7.208804E-3],"categories":[],"categories_nodes":[],"categories_segments":[],"categories_sizes":[],"default_left":[0,0,0,0,0,0,0,0,0,0,0,0,0,0,0],"id":75,"left_children":[1,3,5,7,9,11,13,-1,-1,-1,-1,-1,-1,-1,-1],"loss_changes":[2.362508E1,1.0332645E1,6.956721E0,6.844063E0,5.002677E0,6.5587997E0,3.800726E0,0E0,0E0,0E0,0E0,0E0,0E0,0E0,0E0],"parents":[2147483647,0,0,1,1,2,2,3,3,4,4,5,5,6,6],"right_children":[2,4,6,8,10,12,14,-1,-1,-1,-1,-1,-1,-1,-1],"split_conditions":[2.4E1,3.73E-1,8.08E-1,2.6E1,2.5E1,7E0,6.1E0,2.0740977E-3,5.0509153E-3,-5.1120087E-4,3.8207625E-3,3.6031764E-3,-2.931506E-3,-5.825258E-3,7.208804E-3],"split_indices":[51,62,13,96,26,0,19,0,0,0,0,0,0,0,0],"split_type":[0,0,0,0,0,0,0,0,0,0,0,0,0,0,0],"sum_hessian":[9.6301117E2,7.5097504E2,2.1203616E2,5.230017E2,2.2797334E2,1.9915932E2,1.2876852E1,4.2869196E2,9.430974E1,1.9819577E2,2.9777569E1,1.5915383E1,1.8324393E2,1.9608898E0,1.0915962E1],"tree_param":{"num_deleted":"0","num_feature":"106","num_nodes":"15","size_leaf_vector":"1"}},{"base_weights":[-1.0047669E-1,2.4786717E-1,-1.6946174E-1,-3.0272067E-1,3.1701282E-1,-2.4367175E-1,1.2251042E-3,-4.7728093E-3,4.4777305E-3,4.067522E-3,-1.2370916E-3,-1.8780654E-3,-4.960173E-3,6.0341903E-4,-3.974418E-3],"categories":[],"categories_nodes":[],"categories_segments":[],"categories_sizes":[],"default_left":[0,0,0,0,0,0,0,0,0,0,0,0,0,0,0],"id":76,"left_children":[1,3,5,7,9,11,13,-1,-1,-1,-1,-1,-1,-1,-1],"loss_changes":[2.3198658E1,6.175726E0,1.0196196E1,2.614977E0,5.680949E0,7.8158264E0,5.796047E0,0E0,0E0,0E0,0E0,0E0,0E0,0E0,0E0],"parents":[2147483647,0,0,1,1,2,2,3,3,4,4,5,5,6,6],"right_children":[2,4,6,8,10,12,14,-1,-1,-1,-1,-1,-1,-1,-1],"split_conditions":[-5.2E0,1.089E2,3.73E-1,2.7E1,9.15E1,2.6E1,2.5E1,-4.7728093E-3,4.4777305E-3,4.067522E-3,-1.2370916E-3,-1.8780654E-3,-4.960173E-3,6.0341903E-4,-3.974418E-3],"split_indices":[25,76,62,84,58,96,26,0,0,0,0,0,0,0,0],"split_type":[0,0,0,0,0,0,0,0,0,0,0,0,0,0,0],"sum_hessian":[9.626351E2,1.5869629E2,8.039388E2,1.7329357E1,1.4136693E2,5.6002673E2,2.4391202E2,1.4354607E1,2.97475E0,1.17515594E2,2.385134E1,4.5994635E2,1.0008041E2,2.13153E2,3.0759007E1],"tree_param":{"num_deleted":"0","num_feature":"106","num_nodes":"15","size_leaf_vector":"1"}},{"base_weights":[1.0047669E-1,-2.4786718E-1,1.6946174E-1,3.0272067E-1,-3.1701282E-1,2.4367175E-1,-1.225098E-3,4.7728093E-3,-4.4777305E-3,-4.067522E-3,1.2370917E-3,1.8780654E-3,4.960173E-3,-6.034189E-4,3.9744177E-3],"categories":[],"categories_nodes":[],"categories_segments":[],"categories_sizes":[],"default_left":[0,0,0,0,0,0,0,0,0,0,0,0,0,0,0],"id":77,"left_children":[1,3,5,7,9,11,13,-1,-1,-1,-1,-1,-1,-1,-1],"loss_changes":[2.3198658E1,6.175726E0,1.0196196E1,2.614977E0,5.680949E0,7.815819E0,5.796046E0,0E0,0E0,0E0,0E0,0E0,0E0,0E0,0E0],"parents":[2147483647,0,0,1,1,2,2,3,3,4,4,5,5,6,6],"right_children":[2,4,6,8,10,12,14,-1,-1,-1,-1,-1,-1,-1,-1],"split_conditions":[-5.2E0,1.089E2,3.73E-1,2.7E1,9.15E1,2.6E1,2.5E1,4.7728093E-3,-4.4777305E-3,-4.067522E-3,1.2370917E-3,1.8780654E-3,4.960173E-3,-6.034189E-4,3.9744177E-3],"split_indices":[25,76,62,84,58,96,26,0,0,0,0,0,0,0,0],"split_type":[0,0,0,0,0,0,0,0,0,0,0,0,0,0,0],"sum_hessian":[9.626351E2,1.5869629E2,8.039388E2,1.7329357E1,1.4136693E2,5.6002673E2,2.4391202E2,1.4354607E1,2.9747503E0,1.17515594E2,2.385134E1,4.5994635E2,1.0008041E2,2.1315302E2,3.0759008E1],"tree_param":{"num_deleted":"0","num_feature":"106","num_nodes":"15","size_leaf_vector":"1"}},{"base_weights":[-9.95213E-2,-1.8125843E-1,1.8954022E-1,-2.5719872E-1,-6.8480745E-3,2.3574115E-1,-4.906369E-1,-2.0359007E-3,-4.9679177E-3,4.999291E-4,-3.7498109E-3,-4.6753814E-3,2.8057955E-3,5.778288E-3,-7.1472176E-3],"categories":[],"categories_nodes":[],"categories_segments":[],"categories_sizes":[],"default_left":[0,0,0,0,0,0,0,0,0,0,0,0,0,0,0],"id":78,"left_children":[1,3,5,7,9,11,13,-1,-1,-1,-1,-1,-1,-1,-1],"loss_changes":[2.2792809E1,9.950586E0,6.8035E0,6.62228E0,4.809721E0,6.4366894E0,3.7316558E0,0E0,0E0,0E0,0E0,0E0,0E0,0E0,0E0],"parents":[2147483647,0,0,1,1,2,2,3,3,4,4,5,5,6,6],"right_children":[2,4,6,8,10,12,14,-1,-1,-1,-1,-1,-1,-1,-1],"split_conditions":[2.4E1,3.73E-1,8.08E-1,2.6E1,2.5E1,4.45E-1,6.1E0,-2.0359007E-3,-4.9679177E-3,4.999291E-4,-3.7498109E-3,-4.6753814E-3,2.8057955E-3,5.778288E-3,-7.1472176E-3],"split_indices":[51,62,13,96,26,59,19,0,0,0,0,0,0,0,0],"split_type":[0,0,0,0,0,0,0,0,0,0,0,0,0,0,0],"sum_hessian":[9.6223694E2,7.504167E2,2.118203E2,5.2245776E2,2.2795888E2,1.9895941E2,1.2860874E1,4.284438E2,9.401401E1,1.982176E2,2.974127E1,1.13596115E1,1.8759981E2,1.9559653E0,1.0904909E1],"tree_param":{"num_deleted":"0","num_feature":"106","num_nodes":"15","size_leaf_vector":"1"}},{"base_weights":[9.9521294E-2,1.8125841E-1,-1.8954024E-1,2.5719872E-1,6.848077E-3,-2.3574115E-1,4.9063691E-1,2.0359007E-3,4.9679177E-3,-4.99929E-4,3.7498109E-3,4.675382E-3,-2.8057955E-3,-5.778288E-3,7.1472186E-3],"categories":[],"categories_nodes":[],"categories_segments":[],"categories_sizes":[],"default_left":[0,0,0,0,0,0,0,0,0,0,0,0,0,0,0],"id":79,"left_children":[1,3,5,7,9,11,13,-1,-1,-1,-1,-1,-1,-1,-1],"loss_changes":[2.279281E1,9.9505825E0,6.803502E0,6.622284E0,4.8097205E0,6.4366894E0,3.7316554E0,0E0,0E0,0E0,0E0,0E0,0E0,0E0,0E0],"parents":[2147483647,0,0,1,1,2,2,3,3,4,4,5,5,6,6],"right_children":[2,4,6,8,10,12,14,-1,-1,-1,-1,-1,-1,-1,-1],"split_conditions":[2.4E1,3.73E-1,8.08E-1,2.6E1,2.5E1,4.45E-1,6.1E0,2.0359007E-3,4.9679177E-3,-4.99929E-4,3.7498109E-3,4.675382E-3,-2.8057955E-3,-5.778288E-3,7.1472186E-3],"split_indices":[51,62,13,96,26,59,19,0,0,0,0,0,0,0,0],"split_type":[0,0,0,0,0,0,0,0,0,0,0,0,0,0,0],"sum_hessian":[9.6223694E2,7.504166E2,2.118203E2,5.2245776E2,2.2795888E2,1.9895941E2,1.2860874E1,4.2844376E2,9.401401E1,1.982176E2,2.9741268E1,1.13596115E1,1.8759981E2,1.9559653E0,1.0904909E1],"tree_param":{"num_deleted":"0","num_feature":"106","num_nodes":"15","size_leaf_vector":"1"}},{"base_weights":[-9.858169E-2,2.1405762E-1,-1.7289151E-1,3.4006578E-1,-2.9815193E-2,-4.2432237E-1,-1.2094185E-1,3.9567053E-3,-1.8480399E-3,1.1711394E-3,-3.886736E-3,-4.6867174E-3,2.9272747E-3,-2.887879E-3,-5.9287314E-4],"categories":[],"categories_nodes":[],"categories_segments":[],"categories_sizes":[],"default_left":[0,0,0,0,0,0,0,0,0,0,0,0,0,0,0],"id":80,"left_children":[1,3,5,7,9,11,13,-1,-1,-1,-1,-1,-1,-1,-1],"loss_changes":[2.2405764E1,5.7059374E0,1.0117058E1,3.6420994E0,3.4233515E0,4.363699E0,6.6739826E0,0E0,0E0,0E0,0E0,0E0,0E0,0E0,0E0],"parents":[2147483647,0,0,1,1,2,2,3,3,4,4,5,5,6,6],"right_children":[2,4,6,8,10,12,14,-1,-1,-1,-1,-1,-1,-1,-1],"split_conditions":[-3.7E0,2.08E1,-4.6E0,2.8E1,2.95E-1,1.65E1,6E0,3.9567053E-3,-1.8480399E-3,1.1711394E-3,-3.886736E-3,-4.6867174E-3,2.9272747E-3,-2.887879E-3,-5.9287314E-4],"split_indices":[25,74,77,101,3,18,28,0,0,0,0,0,0,0,0],"split_type":[0,0,0,0,0,0,0,0,0,0,0,0,0,0,0],"sum_hessian":[9.6183514E2,1.8434996E2,7.7748517E2,1.21287E2,6.3062965E1,1.3190605E2,6.455791E2,1.0989126E2,1.1395742E1,4.5221397E1,1.7841568E1,1.2454911E2,7.356946E0,1.7244292E2,4.731362E2],"tree_param":{"num_deleted":"0","num_feature":"106","num_nodes":"15","size_leaf_vector":"1"}},{"base_weights":[9.85817E-2,-2.1405762E-1,1.7289154E-1,-3.4006578E-1,2.9815195E-2,4.2432237E-1,1.2094188E-1,-3.9567053E-3,1.8480399E-3,-1.1711395E-3,3.886736E-3,4.6867174E-3,-2.9272744E-3,2.8878786E-3,5.928735E-4],"categories":[],"categories_nodes":[],"categories_segments":[],"categories_sizes":[],"default_left":[0,0,0,0,0,0,0,0,0,0,0,0,0,0,0],"id":81,"left_children":[1,3,5,7,9,11,13,-1,-1,-1,-1,-1,-1,-1,-1],"loss_changes":[2.2405766E1,5.7059364E0,1.0117062E1,